{"learner":{"attributes":{"scikit_learn":"{\"_estimator_type\": \"regressor\"}"},"feature_names":[],"feature_types":[],"gradient_booster":{"model":{"gbtree_model_param":{"num_parallel_tree":"1","num_trees":"6"},"iteration_indptr":[0,1,2,3,4,5,6],"tree_info":[0,0,0,0,0,0],"trees":[{"base_weights":[2.1100266E-5,5.1667114E3,-3.8685387E1,5.707076E3,1.2991673E1,1.2209321E4,-5.2561077E1,6.321179E3,1.840841E3,-9.128983E2,1.3408777E3,3.9114373E3,1.0130705E4,-2.7619995E2,5.728788E2,-6.438805E1,6.4835483E3,2.7421536E3,-3.3224042E2,-3.220884E2,-1.3312799E3,1.0607516E3,1.0803868E3,6.942566E2,3.0981653E3,-4.8450137E2,1.3110387E2,-5.771833E2,9.6444434E2,-2.8646487E2,1.3732812E3,6.572447E3,2.065889E3,4.1514224E3,1.9154186E3,3.179714E2,-1.0525684E3,-1.0981506E2,4.4006508E1,-1.140785E2,-4.088966E2,-2.046335E2,3.5903906E2,-3.6741534E2,-1.1503777E3,-4.7740833E2,3.8643268E2,-6.334133E2,7.765655E2,4.5665137E2,1.5393938E3,-5.193349E1,5.4094727E2,2.3171785E2,6.6019487E3,2.327575E2,2.8182656E3,1.6355643E3,3.2318708E3,-2.3251851E2,2.0204349E3,-3.4469244E2,-3.602439E2,-2.062191E2,-6.934737E2,9.0938696E2,-1.1693302E3,-7.88216E2,4.9527887E2,7.5421484E2,-1.0075558E1,-3.7527277E2,-8.001803E2,1.0459349E3,-2.2060912E2,1.4025203E3,3.2307678E2,9.873514E2,2.0450361E3,2.7989655E2,-1.7562349E2,1.9839503E3,2.818015E2,9.041533E1,4.0315065E0,1.2225654E3,4.5013242E2,1.5636372E3,1.3315227E3,1.0787454E3,1.8028032E3,-9.254651E0,-1.929335E2,-3.1530142E2,3.8894794E2,-9.597712E1,-7.4079266E2,-3.1812466E2,1.0114282E3,-8.3985065E2,-1.239622E3,-6.3918933E2,-1.3112712E3,1.0657415E3,-9.300484E1,5.808746E2,2.095498E3,9.299222E2,-1.6543114E2,-2.4849472E2,-6.1449506E2,-5.3641144E2,-8.633574E2,4.3948642E2,1.1394305E3,-6.7762146E2,-2.8053818E1,1.74612E3,2.7449463E2,1.028219E3,1.9881003E2,1.416545E3,6.6628485E2,2.2768926E3,1.1348296E3,1.10576515E2,5.104142E2,3.3312714E2,1.9953516E3,5.9492573E3,-3.2762796E2,-2.4944286E2,7.552268E2,8.393292E1,-5.813575E2,-6.580855E2,-1.0208768E3,3.9949243E2,7.237097E2,-1.2471428E3,-7.4383246E2,-1.0531184E3,-1.356034E3,-6.8960785E2,1.0620681E2,-6.712493E2,-1.3850535E3,9.2997015E2,2.2702698E3,-2.542445E2,1.4870836E3,1.0425873E3,2.790157E2,5.617935E3,1.3749781E3,-9.2567055E1,2.0515752E3,-3.5713602E2,8.239425E2,-3.1458292E2,2.4001152E2,-7.198761E2,-1.4599382E2,-9.0967896E2,-4.370068E2,-7.7232043E2,-1.0308215E3,1.6731279E2,7.794456E1,4.0938342E2,1.0231422E3,-2.124339E2,-4.675849E1,-1.8941713E2,2.2235542E2,1.8417996E3,5.2577893E2,-8.963276E2,5.2570105E2,2.12761E3,6.794503E2,1.1290704E3,1.3280884E2,1.7787393E3,9.017095E2,5.211577E2,1.552914E3,1.5549016E3,2.503362E3,2.2164312E3,7.72262E2,1.579615E2,6.114547E2,6.9007583E3,-3.419696E2,-4.421248E2,-9.898467E1,-6.5454614E2,-1.0411574E2,1.9157556E3,2.7675494E2,-5.2375305E2,2.1585611E2,3.69339E-1,-6.540753E2,-2.5593619E2,-7.025374E2,-9.1576874E2,-1.4051443E3,9.639921E2,5.977112E2,-1.0814591E3,-4.4974634E2,-5.236479E2,-8.167112E2,-1.1522958E3,-9.04123E2,-1.2615032E3,-1.4633971E3,-5.189786E2,-9.048253E2,-6.002764E2,8.0502313E2,-9.5483673E2,4.9666287E2,-1.4359244E3,-1.0957831E3,-4.3424698E2,1.01480927E3,-4.428425E2,2.4003027E3,-8.1611273E2,2.3863008E1,4.8350674E2,-2.1678526E2,8.866372E2,1.7964645E3,-1.19040634E2,6.288892E2,6.307287E3,2.5118853E3,1.5057577E3,-8.6069293E2,3.287034E2,-8.8379486E2,2.485085E3,-5.4076105E2,-4.5809073E2,7.250618E2,6.114338E2,3.3559468E3,-6.072863E2,-2.607146E2,-1.9343153E2,6.1162885E2,-5.4010095E2,-8.541213E2,4.3547748E2,-3.3824777E2,-2.4332213E2,-2.9498563E2,-3.091807E2,-5.7636743E2,-8.5360065E2,-6.6585034E2,-1.0724872E3,-8.461458E2,1.4988226E2,1.0347834E3,-1.03948456E2,-7.934729E1,4.89511E1,1.398865E2,1.9728882E3,1.238947E3,1.795294E3,1.3874542E2,-4.3667184E2,-3.4341556E2,1.1773169E3,4.3336255E2,1.4683913E2,2.2714995E3,2.354311E3,4.6105978E2,1.3549261E3,2.6145627E2,1.0940325E2,2.3326616E3,2.337359E3,1.4809604E3,1.5095316E3,6.8127515E2,1.0275278E2,7.63125E2,8.006756E2,1.8034191E3,1.3722164E3,2.1175378E3,2.3711213E3,3.4701575E3,1.4454996E3,2.4741067E3,1.019511E3,6.427103E2,2.1078293E3,4.7108655E2,-4.5776038E2,1.2286487E3,5.1019697E0,-5.7318365E2,-4.5105243E2,-7.590426E2,3.7737054E2,-2.688693E2,1.179191E3,3.0233503E3,6.5535284E2,-2.7267325E2,-8.9700714E2,-1.3255882E2,3.0663937E2,-8.286937E1,-2.3753426E2,9.286688E1,-4.8611673E2,-8.240975E2,-6.266132E2,-5.628337E1,-5.2721173E2,-7.6380237E2,-8.07507E2,-1.1036418E3,-8.681459E2,-1.4384885E3,3.2263116E2,2.7581507E1,2.475961E2,2.6480908E2,-3.4321735E2,-1.9709424E2,-5.88692E2,2.5302191E2,-1.0997916E3,-7.371269E2,-1.1752318E3,-7.433074E2,-7.5406134E2,-9.7087854E2,-6.524284E2,-1.2836056E3,-1.01051666E3,-1.4800325E3,-5.3738245E2,4.8494307E3,-9.3994055E2,4.185968E2,-4.6010327E2,-3.5190216E2,-3.239574E2,9.492052E2,-3.4194846E2,-1.0375072E3,1.7671814E2,-2.0192474E1,9.388151E1,-1.4388242E3,-3.4780945E2,-2.7712207E2,-8.031525E2,1.00342957E3,2.1242517E3,8.884368E2,-1.6994665E1,-2.4021352E2,2.5609656E3,1.10054184E2,-2.3044388E2,-1.069651E3,-5.528179E2,1.6009708E2,6.5870636E2,1.1511917E3,1.567526E3,2.7625642E3,-2.5928055E2,8.677347E2,7.2742744E1,8.997775E2,5.328854E2,1.9126134E3,-1.8050024E2,2.9441604E3,6.6293625E1,1.5785916E3,-2.6587122E2,-1.2851775E2,-5.969841E2,7.6175525E2,-2.9775586E2,-3.3593973E2,2.7216309E3,1.3676501E3,-6.28259E2,4.2558536E2,2.2717644E3,-4.8871964E2,9.862273E2,-5.877941E2,-9.384434E2,8.685199E2,7.1436566E2,4.0764902E3,-8.1228766E2,-1.24127914E2,-2.9176904E2,2.1388057E2,4.3639536E2,-2.6329648E2,1.0127854E3,4.9891245E2,-4.3844037E2,-9.149738E2,-8.91311E2,-3.5453967E2,1.3465788E2,2.7016614E2,-1.8722531E2,-2.752781E2,-1.4172293E2,-3.667125E2,-7.043438E2,-4.2517502E2,-6.151815E2,-8.7322363E2,-9.658381E2,-6.127054E2,-1.1726049E3,-1.02303125E3,-2.3083769E2,-2.812366E2,3.5189233E2,2.8245966E2,-4.5500828E1,-1.1670826E1,1.4862413E3,2.2239485E3,1.3228953E3,6.921411E2,2.0712978E2,6.1731274E2,1.1683424E3,-1.9844025E2,-6.09321E2,-1.27648544E2,3.819548E2,3.414535E1,4.6627014E2,-2.198036E2,-2.6355753E2,6.9277966E2,2.339327E3,5.2501904E2,-8.948025E1,2.4481292E3,1.5381671E2,9.2522736E2,1.1359359E3,1.7016227E3,5.8267944E1,4.733473E2,2.8310403E3,9.181765E1,8.1728326E2,1.8157776E3,1.6650355E3,2.8021458E3,1.7866183E3,1.0511271E3,1.0382667E3,1.9501458E3,1.6292697E3,5.869066E2,-7.74766E1,4.1850635E2,1.5962927E3,6.003803E2,5.015602E2,3.58786E2,1.5995542E3,7.5459155E2,1.2669247E3,2.6993562E3,2.1675125E3,1.1061891E3,2.2469734E3,3.2020234E3,1.0556346E3,1.1822657E3,1.7623195E3,3.2177863E2,2.7082535E2,2.490577E3,1.6313414E3,4.772547E2,-4.096946E2,-8.6499725E2,-4.6353195E2,1.8985365E3,2.0184846E2,-1.322239E2,-3.625668E2,-6.716103E2,-6.150144E2,-2.5252675E2,-2.9372787E2,-6.8412823E2,-3.0870154E2,6.847749E2,-8.50147E1,-4.8156876E2,1.6257772E3,-1.833406E2,2.4719888E3,4.5419277E3,5.708644E2,3.7419126E3,8.277484E2,-4.5093774E2,5.3555347E1,-9.445494E2,-2.242918E2,9.3077126E1,5.1388464E2,1.6637776E2,-2.3003767E2,1.0588346E2,4.3239754E1,-1.6794524E2,5.1791584E1,6.710476E1,-3.722632E2,-6.0962274E2,-3.678909E2,-2.275479E2,-6.853761E2,7.480165E1,6.3127527E2,-2.8217584E2,-6.565272E2,-3.0881464E2,-8.1595325E2,-5.97365E2,-9.713961E2,-6.578158E2,1.527336E2,-1.1331716E3,-1.0221995E3,-3.951096E2,-4.6663986E2,-1.3403138E3,4.687419E1,1.0263642E2,-2.9710486E2,-5.30512E2,3.3393552E2,-6.267466E1,-1.2098231E3,-6.474595E2,-9.574853E1,-7.623359E2,-1.1239542E3,-4.0070538E2,-2.3477725E2,-1.3274289E2,-6.55506E2,-9.3586163E2,-1.0549628E3,-8.637209E2,5.7397156E2,-7.3693604E2,-4.2882938E2,-1.2492375E3,-8.022349E1,-3.061281E2,-4.4881448E2,-4.0349408E2,-7.68027E2,-2.699821E2,-3.5845276E2,3.3875955E3,-5.813729E2,-1.0088816E3,1.4647869E3,-1.1437218E3,-1.8192659E2,-1.2539875E2,6.0389764E2,3.1870938E3,-2.1146607E0,-1.24676216E2,-6.952159E1,-3.2484915E2,9.388151E1,-7.0664665E1,-4.449271E2,-3.9978162E2,-1.1792582E2,-2.6083273E2,7.9178534E2,1.8263937E1,2.4269832E3,3.9816907E2,4.6435443E2,1.1114562E3,7.742257E2,2.060665E2,9.755164E1,-4.700393E2,-8.720413E2,-4.2907062E2,-8.289669E2,-2.0761708E2,2.43562E2,-3.4373615E2,7.8207007E2,2.0138504E2,2.1215952E3,1.0482825E3,1.1196987E3,2.006078E3,3.0257131E3,1.7173058E3,-2.9169614E2,2.8039907E3,1.0856738E3,5.3210455E2,5.8195624E2,-3.8591208E2,-4.027091E2,1.1193174E3,1.8033126E3,1.0297175E3,9.8889575E2,-2.9512253E2,1.6213948E3,-6.253463E2,-7.28694E2,-2.9432886E2,2.3333938E3,6.047148E2,-1.4200182E2,-2.3871152E2,1.3356608E3,2.895702E3,1.0917245E3,1.603351E3,-7.83717E2,4.4884544E1,4.4204083E2,5.1950947E3,4.6311618E2,-5.649371E2,2.604577E1,1.2895404E3,-3.23445E2,-3.3053714E2,-2.5799994E2,-1.167481E3,4.050222E3,7.939151E2,-4.563954E2,1.6756682E3,1.287319E3,4.934192E2,-2.533945E2,-1.6593892E2,-3.0193176E2,3.0476828E2,5.7288824E2,-1.1728383E2,-1.9634259E2,-7.409079E2,1.1830125E3,2.1411922E2,-4.7824207E2,1.9429974E2,-3.01963E2,-1.0844779E3,-9.5972235E2,-5.8653375E2,-1.0928073E2,-2.69856E2,-3.0427863E2,7.902283E1,-3.4139572E2,-1.6402254E2,-2.6347882E2,-6.996418E1,-9.691554E1,-4.962739E2,-6.329419E2,-3.333141E2,-3.5649832E2,-5.520432E2,-9.156636E1,-1.9852638E2,-2.8316602E2,-8.497812E2,-2.936096E2,-6.713466E1,-5.437246E2,-7.2717413E2,-5.0988503E1,-3.5293265E2,-1.0271649E3,-8.756775E1,1.6612467E3,9.6629834E2,2.3090278E3,5.464423E2,1.4507891E3,8.8074426E2,2.4341148E2,5.880642E1,6.361892E2,6.3991704E0,-4.0495917E2,1.0803613E3,-6.810524E1,-2.2222029E2,-2.2078609E2,6.467651E1,5.211857E1,5.7020056E2,-2.1361465E2,-8.477626E1,1.9655348E1,8.9094727E2,5.8308057E2,2.3767612E3,-6.428155E2,8.9732965E2,1.9389087E3,8.073174E2,4.0271027E1,1.210748E3,1.5747947E3,7.550454E2,6.797027E2,1.4078136E3,5.445307E2,4.0197733E2,-8.304749E0,5.6588135E2,3.3757437E2,9.742421E2,9.231554E2,4.2205972E2,-5.2765826E2,1.5194237E2,2.8965643E2,5.7517706E2,2.6347441E3,1.3719075E3,2.3857876E3,9.515814E2,2.7424895E3,1.5030466E3,1.32593E3,7.0280096E2,4.54599E2,3.6173712E2,1.0073529E3,2.2272886E3,1.8070627E3,1.0506919E2,3.7155853E2,9.496147E2,4.858748E2,-1.4219296E2,1.6901306E3,2.9682632E2,6.5710345E2,1.8897009E3,8.930016E2,3.675688E2,1.0613717E2,5.663145E2,-2.1781941E2,1.6599742E3,1.4502037E3,6.9919165E2,2.1745254E3,9.188934E2,1.328379E3,2.2087297E3,6.860651E1,3.534838E2,2.3736409E3,7.498955E2,2.1652634E3,3.738809E3,1.7007419E2,7.3115656E2,6.7559937E2,7.620141E2,1.715904E2,1.7377725E2,7.899967E2,2.1084011E3,1.7912599E3,3.1719287E2,2.766744E2,8.28416E2,3.718866E3,-4.124121E2,-6.2153204E2,-1.1024039E3,-1.1867538E2,-2.5208025E2,6.453899E2,2.7673007E2,1.2074832E2,8.071823E2,-9.259128E1,-5.772719E2,-2.8962524E2,-4.5400113E2,-7.463788E2,-4.3723102E2,-1.4893005E2,-2.3371062E2,-1.556977E2,-5.5424634E2,-7.0313104E2,-8.870276E1,1.834984E2,-3.7374872E2,1.2878734E3,3.4957498E2,-3.265492E2,1.3729152E2,-6.376718E2,-2.3484074E2,2.4573147E3,1.0977257E3,7.2962415E2,-6.221406E2,1.1098912E3,2.7953464E3,4.76057E3,8.721208E2,5.0730823E2,2.8285386E3,2.3092524E3,2.763698E3,1.0715206E3,-4.6765018E2,-5.110298E2,5.233757E2,-3.1750522E2,-6.897609E2,-2.7643552E2,1.02054756E2,1.5332204E2,6.394798E2,3.6729885E1,4.6561456E2,-1.1522882E2,-3.4483252E2,-2.7459305E2,2.5504883E2,1.4243484E2,-7.2148544E1,-3.892657E2,-7.091748E1,-1.9711122E2,8.63476E0,-7.913843E2,-3.939093E2,2.7212247E2,-2.4955275E2,1.0329509E2,1.3941996E3,-6.526643E2,1.2826074E2,-8.7137714E2,-5.4431116E2,2.2556451E2,-4.2068805E2,-7.76056E2,-1.037898E3,-7.6577655E2,-4.1497876E2,-1.01381445E3,-3.5099692E2,2.9682193E2,-6.837774E2,-1.2175881E3,-8.442525E2,-3.3825494E2,-4.3861862E2,1.6809535E2,-2.2444029E2,-2.501557E2,-4.0878824E2,1.4759653E2,-5.3991876E2,1.5350441E2,2.1166904E2,-1.3500914E3,-1.0268165E3,-7.11114E2,-3.1100237E1,-3.2588043E2,-7.3391876E2,-1.1385889E3,-1.8317886E2,-5.862677E2,-7.398568E2,-1.333796E2,-9.572765E2,-3.7042633E2,-1.0175121E3,-1.2290241E1,-8.7506335E2,-6.778955E1,-2.4682619E2,-1.2782695E3,-1.1495895E3,1.6484389E2,-8.148578E2,8.819642E2,-3.3990192E2,1.2529243E3,-6.760391E2,-5.164063E2,-1.0449164E3,6.981631E2,2.3149192E3,-3.642558E2,-2.358349E1,-2.6679526E2,6.678139E2,1.3160177E3,3.4076514E3,-2.197985E2,3.1498138E2,1.2237554E3,2.7747458E3,6.8299725E2,-2.3258617E1,1.1306606E3,2.6400784E2,9.869344E2,1.7478171E3,-1.3817712E2,6.746796E2,-1.7648886E2,-2.4778404E2,-2.6683768E2,1.0955651E2,-8.493275E2,3.926514E0,7.483806E2,-3.8595157E2,1.6834918E2,5.1496155E2,1.2458804E3,6.636032E2,7.7005133E2,-4.557808E1,4.6097028E2,7.149323E2,9.140535E2,1.5575734E3,5.817664E2,1.3741243E3,1.6921819E3,2.2692185E3,1.8331445E3,3.5627432E3,1.3990192E3,2.2547081E2,-2.0282358E2,-1.0019944E3,1.4299844E3,4.435682E2,2.2807715E2,1.2731449E3,2.595508E2,6.6390643E2,8.7833636E2,2.8564587E2,-2.5134308E2,-1.1640768E3,-4.6060443E2,1.468814E3,1.2465347E3,4.8001788E2,2.1859727E2,6.657592E2,1.2014862E3,2.383814E2,3.5005059E3,1.5585483E3,-7.742575E2,1.5190152E2,-3.1121747E2,-2.2288643E2,1.10447266E2,-3.75557E2,-1.7643494E1,2.4695613E3,7.026296E2,2.0008545E1,-1.39984865E1,-7.403659E1,7.39725E2,5.043806E2,1.6819623E3,2.975407E3,5.497569E2,8.675347E2,3.7233957E2,6.743664E2,-2.5498825E2,-4.2712094E2,8.994937E2,-3.1909634E2,2.108214E3,3.3902424E3,-7.494544E2,9.245293E2,-5.9486865E2,1.3431404E3,4.9014774E2,-5.265632E2,1.452099E3,5.751876E2,-5.922555E2,-8.4706345E1,-5.464747E2,1.834631E2,-4.259835E2,-8.827455E2,5.315651E1,4.296612E3,7.5084784E2,5.6071475E3,-1.7322583E2,-1.866465E1,9.09115E1,1.8093672E3,-3.315372E2,9.019645E1,2.6253717E2,6.4559595E2,1.9919031E1,-1.7431769E2,-1.6767689E1,-2.902002E2,-3.5741748E2,-2.698556E2,9.037373E2,7.5797284E2,3.8460345E2,-2.4678435E2,-2.9925522E2,-4.0709814E2,1.1474535E2,-4.7710095E2,-3.5288446E2,-7.299559E1,-5.743671E2,-9.914002E2,-2.987954E2,-1.8668121E2,-2.3368735E2,2.7268188E1,-2.0960466E2,5.7465347E1,-5.7089246E2,-3.1340942E2,5.2931507E1,-1.812525E2,-5.6916454E1,-9.800818E1,-2.9127111E1,-1.039086E2,-4.4956268E2,-2.5179526E2,-9.7626E1,-1.9468166E2,1.1501514E1,-3.6286853E2,-2.1875314E2,-1.4641318E2,-1.3449083E2,-2.5569987E2,-5.697894E2,-1.1263588E2,-5.726084E2,-8.170028E2,-1.0470944E3,-2.6548737E2,5.1595044E2,2.5216577E2,5.174961E2,7.2067487E2,6.021615E2,2.392029E3,1.4966681E3,4.357414E2,9.7561224E2,-2.3787349E2,-3.831956E2,-2.2162239E2,5.2407227E2,-2.3787349E2,2.8931507E1,-9.1055595E1,1.6139018E2,-1.9103029E2,6.546403E2,3.7568204E2,-3.759599E1,1.1425343E1,-8.673487E0,3.2421045E2,-1.7505524E2,5.832554E2,2.250573E3,2.8549702E3,-2.3824849E2,-5.1018497E1,1.00635345E2,1.028714E3,2.1739666E3,5.5799725E2,-4.3405853E1,1.1451738E3,6.8880066E2,5.949722E2,1.6688105E3,-8.811743E1,1.5744061E3,6.341416E2,3.3788672E2,6.0054016E2,1.4466552E3,4.287139E2,3.7283252E2,-5.0422646E1,2.0977536E2,2.4388448E2,6.1657886E2,1.8946033E2,3.841242E2,1.1145337E1,1.5996152E3,-6.382204E2,2.0656638E3,1.4062222E2,8.9795605E2,8.8133057E2,2.8611566E2,1.571917E3,2.0024847E3,2.673484E3,2.9271487E3,6.7014175E1,4.3904794E2,1.6251315E3,1.4958129E3,8.6768274E2,-2.3890173E2,8.519425E2,1.4093008E2,2.72365E1,5.501561E2,-2.0657623E2,7.0455725E2,4.7969818E2,2.3436992E3,4.560377E2,4.8468726E2,9.390206E0,2.4669156E2,1.2166536E3,2.891545E2,4.657292E2,-2.5743555E2,1.947736E2,1.1450939E3,7.382683E2,1.019149E3,1.7955855E2,1.1490024E2,1.0212056E3,1.967764E3,3.1253125E2,1.321998E3,7.769048E2,9.6060205E2,2.711379E2,5.1420403E1,-1.1404652E1,2.1827567E2,4.3794595E2,-7.864759E1,5.815064E-1,4.3226517E1,1.6689403E3,1.2082715E3,1.7482019E3,3.067099E2,1.3189666E3,1.7882657E3,9.5277985E2,4.5976114E2,1.9170227E2,5.597537E2,2.3036497E3,1.6006356E3,2.5001338E3,4.809757E2,1.0939806E3,3.587857E3,1.4415887E3,1.1732023E3,2.4517415E3,9.32837E2,-5.258467E1,5.7853394E0,6.370544E1,3.3534042E2,6.5497766E2,7.375825E2,5.505968E2,4.453537E2,-7.957673E1,1.4558109E3,7.0150116E2,1.4283906E3,2.2255533E2,-4.3691614E2,-5.9034714E1,4.593613E2,-6.5313367E2,-9.965342E2,-1.1970635E3,9.537064E1,2.222554E3,1.707841E3,2.8887888E2,3.94684E2,-1.3765968E2,-6.3925916E2,6.062673E1,-1.3179031E2,-3.1450327E2,-7.729628E2,-4.3534326E2,-6.944691E2,-8.95947E2,-5.0708493E2,-3.7086304E2,-3.788924E1,-1.8665862E2,-3.6648487E1,-1.7472636E2,-8.322992E2,-6.145773E2,3.552825E2,-1.9533467E2,-7.1435074E1,-4.537671E2,4.146909E2,8.7646313E2,5.789494E2,-6.282806E1,-2.2983554E2,-7.18162E2,-1.03697014E2,2.4626823E2,7.70015E1,-6.7040845E2,-1.3502304E2,-5.699595E2,2.6800178E3,1.9882667E3,8.1038196E2,1.477577E3,4.8664163E2,4.8613425E2,-6.530229E2,-1.3947862E2,6.1655316E2,1.432916E3,4.7092007E2,2.9470447E3,9.137714E2,1.4853418E3,4.4261932E2,2.4807122E3,1.97095E3,1.9388528E3,7.0875287E2,1.5579417E3,4.1609784E2,1.3030002E3,-1.8481567E2,2.1923651E2,-1.0643983E3,-3.502092E2,-2.1640013E2,-2.2953499E1,-1.8119533E2,-2.0578027E2,2.6803232E2,-4.145479E0,4.8660577E2,7.596789E2,8.6963646E1,-4.5387875E2,-4.8409247E2,5.202574E2,-3.754998E2,2.0477824E2,-2.595817E2,-2.5022026E2,-8.847641E1,-3.052466E1,1.9501392E1,2.8481296E2,6.954758E0,5.945918E1,-3.2095973E0,-4.515465E1,-2.496465E1,-1.2015557E2,-3.7614662E1,1.3871503E1,-8.21014E2,-5.5987445E2,-2.3692119E2,-4.1771216E2,7.115016E2,-4.515929E1,3.044527E2,-3.1170566E2,-6.627466E1,1.4676283E3,-4.5075623E2,-1.2020425E3,-1.1826382E2,5.2372925E2,3.4081537E2,-8.85261E2,-5.8493604E2,1.427431E2,-7.5237573E2,3.278148E2,-2.6866772E2,-7.13292E2,-9.192587E2,-7.3505963E2,-1.284032E3,-8.60464E2,-5.496467E2,-8.7042566E2,-5.9505493E2,-1.6264362E2,-1.0995448E3,-2.3960814E2,-1.4575214E2,-1.756847E2,1.6926974E2,1.4435919E2,-7.090479E2,2.2447198E2,-1.2415367E3,-7.148265E2,-2.6259256E2,-6.784076E2,-2.0096774E2,7.297153E1,-5.56729E2,-1.9415404E2,-8.193494E0,7.237713E1,-9.333288E2,-4.378415E2,-7.62785E1,-3.1135324E2,-2.8980084E2,-5.9319574E2,-7.783153E2,-1.9615434E2,-1.148671E3,-8.9841675E2,-1.5033287E2,-1.9244122E2,-2.9814258E2,-1.756634E2,-1.0889467E2,-2.9077255E2,-1.81866E2,-3.0780368E2,-8.0414484E2,-1.0974596E3,-1.257372E3,-4.340326E2,-2.7323877E2,-1.1742379E3,7.6122064E2,-3.4270636E2,-9.113751E2,-6.681836E2,1.9643016E3,6.0241156E2,-4.7657333E2,2.3251454E2,-1.778885E2,1.4968091E3,-8.422738E2,-2.3446599E2,-1.4439655E2,-9.247308E2,-1.1100697E3,-8.415572E2,1.3987046E3,-3.5225278E2,-1.259135E2,7.9962054E2,2.5830305E3,5.1390106E2,7.6406647E2,-1.7185849E2,1.3125177E3,1.1182205E3,-2.150735E2,2.2565475E2,6.228992E2,4.313546E2,2.7061533E2,2.8537273E3,1.1476842E2,3.2777652E2,6.5117836E1,-1.038822E2,6.0370496E2,6.6602924E2,9.9297874E1,7.1217993E2,1.6202932E3,8.7011365E2,1.4502953E3,2.3275547E3,-1.2588654E1,-2.5369467E2,-3.472675E2,1.3573014E3,1.535788E2,-4.9051205E2,-2.760109E2,-1.9265793E2,3.417304E2,-1.807835E2,6.435463E1,-5.199723E2,4.8905377E2,-1.8515974E2,1.4490898E3,5.6125775E2,1.6422792E3,5.833237E2,4.177961E2,1.0343414E3,4.5440817E2,-1.2739312E2,6.052719E2,1.0275735E3,1.2829886E3,2.2722388E3,-1.6323865E2,9.106978E2,1.5974254E3,1.105539E3,2.9048914E2,5.341499E2,4.603857E2,6.9980347E2,1.2545212E3,6.149249E2,2.5486345E3,1.2149344E3,9.475414E2,-2.0073181E2,4.8216846E2,-2.2456053E2,1.2808467E2,-1.2208531E3,-4.5104652E1,1.3110858E3,1.2375905E2,3.333773E2,7.55048E2,5.1339764E2,9.7270154E2,8.414525E2,-1.01380516E2,6.226011E2,-3.70608E2,2.5789142E2,-2.1390599E2,-3.628139E2,-2.9756097E2,-1.0523502E3,5.646124E2,-8.9598495E1,1.0513933E3,1.7140371E3,8.785521E2,-1.5658379E2,4.3719385E2,1.5021042E2,3.2789536E2,-2.0870467E2,1.6238392E3,2.3486401E3,7.937194E2,1.6217382E3,-2.6100623E2,-6.866465E1,-1.4094466E2,2.46865E1,-1.2180452E2,2.3751139E1,8.7519366E2,1.3491942E3,3.467088E2,5.411537E2,4.2972464E2,-2.9448074E2,3.9032294E2,2.7878714E2,1.5532715E2,7.4447644E2,3.059553E3,2.21995E3,9.6676384E1,3.101848E2,-1.3293494E1,-1.3941954E2,-6.3598656E1,1.1605582E3,-6.3986285E2,1.0831394E2,1.1056178E3,1.1325271E3,-6.8842175E2,-4.019717E2,1.1649375E3,-8.0851886E2,-6.063149E2,4.301535E3,7.326377E2,5.426468E2,1.1222026E3,-5.79716E2,-5.929969E2,4.240178E2,1.7330564E3,9.280236E2,-2.291043E2,9.037389E2,-6.575031E2,-3.1955273E2,2.4592152E2,-1.5654732E2,1.031665E2,-6.150442E2,-2.3887851E2,3.3146198E2,-7.724466E1,-2.7191684E2,4.682912E3,6.190673E2,5.777644E2,1.3058425E3,1.8280145E3,4.7639655E2,6.095792E2,2.2833533E2,-3.0953143E2,-6.4042096E2,-7.438229E1,1.5229414E2,1.5401514E1,8.675417E1,2.538242E2,1.6105814E2,-2.1186075E1,1.9578407E1,-2.5398842E1,-2.0264684E2,-1.3962808E2,7.993545E1,-1.1142649E2,-2.3733723E2,-1.8337851E2,-2.071466E1,-2.4844537E2,3.957005E2,2.2940906E2,4.1997742E2,-2.097116E2,-3.7779694E1,-1.2250405E2,-4.4921304E2,-5.3895404E2,1.19365E1,-2.8398584E2,-3.8717505E2,-1.035038E3,-8.785245E2,-3.0740252E1,-1.18829605E2,-1.962735E0,-3.461694E2,1.2673718E2,-6.417466E1,-5.2668495E1,-1.9324467E2,-2.6331558E2,-3.804278E2,-6.520506E1,-4.2258926E1,-3.2015057E1,-5.1158204E0,-2.2687863E2,-6.397756E1,-8.413828E1,-1.468829E2,-3.6869907E2,4.16651E0,-2.828579E2,-5.9942126E2,2.0470152E2,-1.829841E2,-2.6839584E2,-5.400775E2,-6.484568E2,-9.6393744E2,-3.16492E2,-7.326061E2,-2.3787349E2,5.5849725E2,3.4260052E2,1.1005228E3,4.8143674E2,2.4163862E3,5.395133E2,3.9162814E2,9.4113257E2,-2.3787349E2,3.39637E2,9.1841385E1,-3.590611E-2,-4.4320612E2,-8.3192474E1,2.0029211E2,-3.0969098E2,1.493365E2,9.677569E2,5.629201E2,2.9849084E2,2.367242E2,2.462981E3,1.9595857E3,2.4937154E2,8.652166E2,1.6996727E2,3.9060538E2,7.273784E2,1.5054391E3,3.0630536E2,2.1369755E1,-4.2640182E2,2.9265825E1,2.9868002E2,4.1184195E2,1.1998486E3,-2.4886093E2,9.678793E2,1.7696707E3,1.24695366E2,-2.3991351E2,3.0906396E2,1.836043E3,1.8730459E3,5.714593E2,4.954414E2,7.301072E2,9.2017957E2,4.4167755E2,-1.3609247E2,3.1166534E2,4.451514E0,1.4616534E2,-2.5981506E2,9.463685E1,2.059151E1,8.915651E1,1.3258061E2,9.978139E2,1.4583417E2,8.0050224E1,1.8389832E3,5.750139E2,-1.30042E3,-4.4908765E2,1.1342343E3,1.5508152E3,5.1571954E2,8.486363E1,1.5371503E1,3.111304E2,-7.8984795E1,9.077806E2,1.6088513E3,8.765116E1,8.799296E2,6.641814E2,8.373269E2,1.1744214E3,7.737939E2,1.2919362E3,8.611264E1,5.8312006E2,1.9522454E3,1.3848314E3,1.3315311E3,1.7909441E3,1.8178708E2,3.2512234E2,-3.5457095E2,-6.302755E0,5.825417E2,1.0969663E3,-2.7713587E1,-8.3837585E1,1.700365E2,7.434472E2,5.599877E2,3.7775743E0,-1.7697772E2,3.4781418E2,-2.2608589E2,4.6642233E2,1.4944407E3,7.5116296E2,-9.1488495E1,3.1559796E2,1.2910268E2,-2.956537E2,1.0734088E1,3.1957904E2,5.441948E2,7.6302905E2,3.798348E2,2.4346716E2,-4.3614685E2,2.4000685E2,-3.819194E2,3.3536313E2,2.0744246E2,1.549885E3,2.2560017E3,1.8118066E3,6.1363477E2,1.0512689E3,7.343184E2,1.556965E3,1.4089274E3,4.9764023E2,5.378515E2,1.2958076E2,2.271631E2,2.0045073E2,1.2869368E3,5.211037E2,1.6609261E3,1.0467396E3,1.8796244E3,1.5245801E3,-2.2073488E2,4.2313358E2,1.3951602E3,2.0527975E2,1.4018651E2,5.535535E2,2.753911E3,2.1393235E3,1.4463672E3,2.6669407E3,2.4212656E3,3.2565688E3,-5.879429E1,5.7345496E2,9.41824E1,1.1459475E3,8.616305E2,1.2743567E3,2.9352246E2,1.8886494E3,3.491217E2,3.253917E3,3.6789642E2,6.328046E2,5.7251514E1,2.5686536E2,3.2275986E2,9.099163E2,-1.6157623E2,2.569253E2,3.576897E2,5.551071E2,8.344554E2,4.675111E2,-1.00057965E3,-4.226669E2,2.49781E1,-6.040076E2,4.442383E2,-1.7475468E2,-5.9449084E2,-1.029385E3,-1.0088195E3,5.0357265E1,-7.9309766E2,-1.2430833E3,-1.6931507E1,4.354285E2,1.0340305E3,2.5293406E3,2.455668E3,4.3237134E2,1.8742465E3,6.022576E1,5.588847E2,-7.121103E1,-2.4049332E2,-7.78922E1,-4.2747815E2,-8.068864E2,-1.4496086E2,7.885352E0,-3.4366458E2,-7.760213E1,-7.002349E1,-2.4719583E2,-2.1297289E2,-4.1397238E2,-7.2645044E2,-6.023186E2,-1.0726398E3,-2.4386469E2,-1.1239717E2,-1.5982043E2,-1.1613809E2,-8.7155136E1,-1.7512245E2,1.8265419E2,-1.7707251E2,-8.9448944E2,-4.4648407E2,-1.961923E2,-6.678498E0,1.4656534E2,3.980611E0,-3.2862293E1,1.324915E2,-4.7998364E2,4.9839725E2,1.0504546E3,-5.6468983E1,7.875854E2,-1.3627455E2,3.1595732E1,1.8223552E2,-2.7450616E2,-4.863985E2,-2.3186111E2,-2.4541454E2,1.393596E2,1.5185329E2,8.0956696E2,3.770086E2,-1.9460466E2,-5.6226996E2,-9.19544E2,-5.590133E0,-3.398032E2,-4.541021E2,-2.3650739E2,2.0223909E3,8.834441E2,3.6565065E0,2.0413448E3,9.017939E2,4.691169E2,1.6002295E3,5.57109E2,1.032512E3,-1.6007359E1,-2.8957736E2,-5.912405E2,3.339265E2,-2.1926775E2,-1.9344654E1,2.1553494E2,8.251554E2,6.454738E2,3.4681372E3,2.362631E3,-2.7444415E2,5.9098096E2,6.009821E2,1.6419955E3,2.71474E3,4.3567963E2,3.4076047E2,-1.584047E2,1.3768011E3,-1.0840467E2,-4.5296643E2,-1.1679543E3,1.6503785E3,-4.1772876E2,-1.11008194E2,-4.7853604E2,1.4655513E2,1.325716E2,-9.669171E1,1.9869696E2,-3.155246E0,5.192555E2,2.3768855E2,4.6086713E2,3.4432843E2,4.6123096E1,-1.907818E2,4.8077274E1,-2.3072467E2,5.5631508E1,5.814618E2,1.4996902E2,-4.057573E1,-2.3672487E2,9.84357E1,-3.4919373E1,-2.4181276E2,-1.5768901E2,9.363977E1,-1.726535E2,1.7663101E2,1.16529495E2,-9.260166E2,-7.392977E2,-2.9252487E2,-3.1727808E2,-1.19054665E2,-1.5728738E2,-4.433478E2,-2.3457625E2,1.0687615E3,2.1194138E2,6.2749588E1,9.042284E2,-4.0744537E2,-7.449481E1,1.5994895E3,4.8563718E2,-2.2359306E2,-5.9607654E2,-3.7182098E2,-2.1458083E2,6.892979E2,-2.9840955E2,7.411989E2,-1.3098647E2,-9.697199E2,-5.1473425E2,-6.8217773E2,-3.0686023E2,-3.0943863E2,1.9999081E2,-1.3440613E2,-3.5189774E2,-9.7813225E0,4.1439163E2,-3.211507E2,5.81354E2,-8.366559E2,3.9556744E2,-1.8333348E2,-9.582943E2,-2.1949548E2,-7.439968E2,-7.225038E2,-1.3646353E3,-1.0984077E3,-5.981145E2,4.569943E2,-5.8245905E2,-9.6545575E2,-6.377491E2,-2.3870406E2,-6.525804E2,5.9248665E1,-3.1619778E2,-1.1880117E3,-1.02019055E3,-2.4604161E2,7.4103165E1,-2.3960249E1,2.7267963E2,-6.793876E2,-1.1985359E3,3.13905E2,-1.675535E2,-8.8618933E2,-1.2691707E3,-1.0345028E2,-2.4569994E2,-2.1728305E2,-3.9715274E2,-5.6991693E2,-8.471954E1,3.323533E1,-8.91317E1,-3.2436636E2,-8.798775E1,-1.174593E2,-2.206623E2,-2.4178233E2,-2.0266788E2,-3.3226416E2,-3.725897E2,-1.5169583E2,-2.8460953E2,-2.6246475E2,-2.1945113E2,-3.4424707E2,-1.9000456E2,-4.780849E1,-3.775627E2,-1.7601524E2,-3.537351E2,9.5427264E2,-2.1455467E2,-3.2336774E2,-1.934586E2,-9.4388104E2,-5.2278784E2,2.635324E2,-6.8842694E2,-2.025785E2,2.3786548E3,3.797664E2,-1.2769048E2,-8.103938E2,-2.5119638E2,-4.0955005E2,5.0453714E2,7.435139E2,6.304204E2,5.152466E1,-9.203688E2,-1.4278134E2,-3.0158084E2,-2.767632E2,2.0877919E2,-9.453615E2,-2.73035E1,-1.2740846E3,-9.845808E2,2.1199385E2,-8.9424E2,1.5650443E2,6.435923E2,-2.413235E2,-3.0281603E1,3.1628534E2,9.251498E2,-3.430016E2,1.852595E2,-1.676885E2,7.5832153E2,2.3208061E2,6.8611774E2,8.914196E2,3.508523E2,6.497652E1,-3.567349E1,-5.58035E1,9.056507E0,5.1195786E2,9.075691E2,5.095218E2,-1.13092964E2,1.2206569E3,1.9351787E2,1.9208641E3,3.7870288E2,1.0713734E3,5.8307983E2,1.5226558E3,2.2325344E1,2.1087535E2,7.491935E2,-8.764544E1,1.8950652E2,-4.6504665E1,-1.386035E2,4.9836227E2,2.1251514E1,2.9109009E1,2.097415E2,-6.928583E1,-2.0049583E2,3.023229E2,-2.4021352E2,-1.9048096E2,-2.1149052E2,1.5811534E2,8.830207E2,1.6443611E2,-4.4296692E2,1.7730757E3,1.0547013E3,1.4365253E3,-1.8619186E2,1.9237848E3,1.701211E2,8.905792E2,4.297699E2,1.4046077E2,2.0662014E3,1.6913373E2,1.0314851E2,-1.65112E2,7.42514E2,1.5676562E2,6.724072E2,1.2144485E3,6.9341693E2,1.412454E3,5.1325287E2,7.8405206E2,1.8362943E3,-6.1603374E1,-4.4802734E1,3.9697388E2,5.722828E2,2.8534814E2,1.8108136E3,1.8463545E2,1.1529894E3,9.48939E2,-1.3275819E1,1.2137638E3,4.5622906E1,-8.319466E1,5.569654E2,-7.217314E1,-1.2254651E1,1.1346656E3,-2.4101547E2,7.4407904E2,-2.028642E2,-1.2849073E3,-3.345398E0,1.00227747E3,1.4796976E3,-1.10945595E2,2.2567772E2,2.4788098E2,4.6540152E2,2.5207729E2,4.3063232E2,1.120266E3,7.516227E2,6.428921E2,-1.9005931E2,3.0325598E2,7.3280334E2,-5.609536E2,-3.1540057E2,-1.5112173E2,3.9782724E2,-3.874611E2,8.915187E1,-3.5307513E2,5.500138E1,1.1881158E3,8.494582E2,1.2363206E3,2.3472625E3,7.80446E2,6.353077E2,1.056731E2,-6.448147E2,4.6934048E2,9.871265E2,3.679127E2,1.9340287E3,1.6360896E3,-1.8367862E2,2.46865E1,-1.39984865E1,1.5936638E3,-1.7643494E1,1.4754314E2,7.2464636E2,3.475142E2,-1.7048288E2,-2.0613988E2,4.908905E1,2.2734978E2,-2.2430237E1,9.19793E2,2.4310152E2,2.402662E3,4.7733255E2,-4.0364662E1,8.565332E0,6.164754E2,8.648939E2,-4.803524E1,-2.8789276E2,1.6003535E2,-2.3761746E2,3.9419653E2,1.0333151E2,-2.3727757E2,-5.7684894E2,-4.113004E2,1.5059169E3,-4.4967438E1,-8.983464E2,-1.055688E3,-5.121569E2,1.6723699E3,-3.0814663E1,6.0359454E2,-2.385785E2,4.0184814E2,5.97129E2,-2.0826007E2,-3.4092438E1,-2.9333862E2,-1.8665999E2,-9.94535E1,2.902615E2,1.5790057E3,7.0622205E2,9.916565E1,1.3319711E3,1.2217885E3,5.7294446E2,-3.2076465E2,-5.223145E2,-3.0587587E1,-2.1112851E2,-9.839359E1,-1.05862114E2,-2.8099582E2,-4.192984E2,1.3002419E2,1.9672289E2,7.8674445E2,1.6155953E3,7.284215E2,1.5198479E2,1.8525536E3,8.0696204E2,-2.9441357E2,-6.9370105E2,-1.2629053E2,-2.1252142E2,2.997141E2,9.688979E1,-8.994654E0,-2.7877443E0,-7.781111E1,-3.891288E1,-2.636953E1,-8.1852745E1,-9.57039E1,-4.837405E1,-4.410274E1,-1.7229468E2,2.370041E1,9.4954185E1,2.1586572E2,1.3720216E2,-2.7525293E1,4.6415348E1,-2.6561646E2,1.2516041E2,-4.982429E2,-2.4605698E2,-1.8715082E2,-8.306775E1,-2.0048083E2,-1.7980093E2,-1.1836466E2,-3.1233282E2,-4.6110565E2,-9.1258124E2,-1.548935E2,-6.2663586E1,7.916536E1,5.730403E0,-9.827149E1,-1.9063434E2,-4.2524634E2,-2.273861E2,-2.3148487E1,-2.3278757E1,-1.7248851E2,1.1647614E0,7.351458E0,-1.0025469E2,-7.149329E1,-1.1544688E2,-1.0646224E1,-3.57607E2,-7.6442175E2,-5.3968335E2,-2.901797E2,-3.6050987E1,-5.586384E2,-8.239885E1,-1.2665098E2,-7.300568E2,-5.62569E2,-3.2234723E2,-4.3429138E2,-2.7787885E2,-2.6181744E2,4.3982535E2,5.832196E1,2.8303116E2,-3.893584E0,4.1391287E2,2.4534612E3,5.33626E2,1.0732537E2,4.036915E2,2.3023254E2,-6.925849E1,-5.6199547E1,8.4274185E1,-2.3787349E2,-1.0439641E2,6.073534E1,-1.410185E2,1.3049066E2,3.5304727E2,-2.8258466E2,-3.3882904E1,1.9391138E2,4.6690918E2,6.4575964E2,-1.5260956E1,2.1310164E2,3.8641336E2,8.528798E2,1.9634076E3,8.478885E2,6.8059827E2,6.008944E2,2.519742E2,-2.2702852E2,-3.0124368E2,1.7221542E2,-1.9388664E2,1.4966441E2,-4.0364662E1,2.628211E2,1.6474307E3,-2.8629172E2,3.1436478E2,3.6423514E2,-1.503035E2,2.149033E3,1.4231183E3,4.8037155E2,-2.696186E2,6.6718555E2,2.9565717E2,6.2840015E2,1.5011499E1,3.903683E2,8.513921E2,5.8043085E2,1.9092905E2,5.3689685E2,3.6163116E2,3.062126E2,3.2471504E1,1.6256508E1,-6.5274666E1,3.0557556E1,-3.3495468E2,2.2569904E2,-1.345997E1,2.495752E1,6.956536E1,3.411364E2,4.5191513E1,1.8625146E2,1.142865E1,1.4022203E3,6.792764E2,1.8924643E2,4.4396503E1,-4.0014725E2,-2.4322621E2,-2.7452023E2,-6.748173E2,1.1001116E3,6.2153674E2,1.4551737E3,4.1893143E2,1.0431282E3,5.934164E1,2.9357535E2,-4.227318E2,3.5788538E2,1.4008727E2,1.1541123E3,5.404726E2,-2.375585E2,2.7700153E2,6.259151E1,2.838069E2,4.3084726E2,1.9121504E1,-7.023466E1,2.1105148E2,8.3278305E1,7.027785E2,2.2515862E3,1.4676141E3,1.534475E3,9.0837445E2,8.730535E1,1.3608755E3,6.4081366E2,4.436176E2,-5.618155E2,-2.3253287E2,-9.7344666E1,7.0172264E1,6.657973E2,-6.958606E1,1.64562E3,6.854883E2,4.5022986E2,8.2042926E2,7.5644485E1,-2.1236281E2,-2.100896E2,-9.937822E1,4.765336E2,-1.8513863E2,-6.941095E1,-4.942186E2,3.7812753E2,4.4080148E2,1.724114E2,1.5938212E3,-3.5651746E2,8.455106E2,1.1085424E2,-2.130559E1,-8.399775E1,2.0087782E2,6.227178E2,-3.061642E2,2.6220135E2,-2.7692287E1,-5.9307735E1,3.5456918E2,2.847738E2,-1.3693849E2,1.134842E2,-3.2194656E1,-4.6759506E2,5.336499E0,1.9889569E2,1.1101658E3,-2.8997467E2,4.561726E1,2.0410243E2,1.0644596E2,9.345144E1,9.766242E1,5.412075E2,5.270861E2,3.674164E2,7.031678E2,5.8914386E2,1.3431039E3,5.9768494E2,1.1736624E3,6.314398E2,9.4539716E2,1.9105658E3,1.1089459E3,4.627583E2,2.5992712E2,-1.7496747E2,5.661649E2,8.3822186E2,3.9129895E2,1.7705968E2,-4.576412E2,9.399177E0,1.03692635E2,9.279977E1,4.1887457E2,1.0602832E3,1.9395345E3,1.5820775E3,9.2750226E2,7.801911E2,1.6521642E3,1.7491156E3,6.4455164E2,1.222246E3,2.9829514E2,1.1638257E3,1.6532898E3,5.020192E2,8.7702563E2,2.2856047E3,4.181811E2,7.5048895E2,1.6779551E3,1.2331073E3,2.3152485E3,2.2709072E3,2.9026726E3,2.3450479E3,9.999882E2,1.2299639E3,5.0182785E2,8.963507E2,1.3302085E3,9.181229E2,-9.5288025E1,2.3485444E3,1.2423429E3,1.0437961E3,8.23615E1,8.0289764E1,2.3951442E2,1.8213983E2,6.8614996E2,5.500084E2,7.605341E2,5.8849792E1,-6.2180943E1,3.147428E2,-4.6904663E1,-6.454159E1,8.869972E2,1.2356567E2,6.0002734E2,-7.677847E2,-1.1416752E3,-4.273153E2,1.0688441E3,-9.533179E0,2.1577255E2,-1.7036348E2,-2.2136156E2,-2.2428467E2,1.4579041E1,-5.186939E2,-7.8775024E2,-3.5148254E2,-2.6876752E2,9.791511E0,-1.012436E3,-7.525955E1,-2.8171854E2,-1.2506243E3,-3.1434658E1,5.484169E1,-4.774819E2,6.49557E2,3.1963757E2,4.899565E2,1.762684E2,8.9083E2,3.902842E2,4.662925E3,1.7140011E3,6.505994E2,-6.323027E1,-6.86285E1,2.0037892E3,-6.228063E1,4.050231E2,1.9813918E2,6.765656E2,1.8382776E2,-2.1699109E2,-1.3745355E2,-3.70325E2,8.388175E2,-9.622334E1,-1.5214609E2,-3.302313E2,-2.1645494E2,-3.1168375E2,-7.0552734E1,-1.5931743E2,-3.5142108E2,-1.5581941E2,-4.4311847E2,-1.05953995E2,-5.234995E2,-2.2194064E2,-1.3194221E2,-1.857648E2,-1.6209583E2,-3.394693E2,2.1869068E1,-8.087557E1,-7.0719183E2,-3.128689E2,-2.2452238E2,-2.4206448E2,-5.7835846E0,1.8041512E1,-3.7721155E2,-2.0436656E2,7.281976E1,2.0194534E2,3.6274417E2,1.1487535E2,-1.5226663E2,3.0641151E1,1.0389041E2,9.184553E2,-6.1535908E1,-7.5009865E1,-1.5058287E2,1.7417905E2,-2.8909097E2,1.0884414E3,-2.1316608E2,-2.6557727E2,-5.6374676E1,-1.6345027E2,7.714918E1,-3.319788E2,-3.1630249E1,8.53461E1,2.5425883E2,-8.4531425E1,2.8217712E1,4.5438715E2,-1.459535E2,1.8060419E2,-6.153253E2,-4.281381E2,-1.401116E2,-2.8425687E2,1.433719E2,-6.0887867E1,-2.689796E2,-1.5671622E2,-1.827213E2,-2.7193933E2,8.415506E2,1.4178983E3,2.5571284E3,1.6554152E3,1.1429503E3,6.621699E2,-2.5627875E2,1.4377592E3,1.6829099E3,5.342806E2,4.254724E2,-7.600582E1,1.4705085E3,1.0482919E2,-8.54816E1,1.2005902E2,-6.3969403E2,-1.3701128E2,4.4412537E2,1.7143001E2,9.395038E2,1.3410343E3,1.7035352E3,8.964107E2,-1.01721216E3,-7.612854E1,5.3229565E2,4.8028237E3,4.5221442E2,9.251571E2,-5.1884663E1,2.0021419E2,3.7866138E2,-1.4228113E2,4.6955707E2,4.615289E2,-1.9738454E2,-3.4348614E1,-1.0308573E3,-1.3984468E3,6.4025464E2,8.166443E2,4.577323E2,-4.702146E2,-1.4081157E2,-4.3280968E1,-1.9210466E2,-7.126274E1,-1.0990271E2,7.9439705E1,-1.643285E2,9.84357E1,5.6498846E2,3.2237885E2,3.3257263E1,1.9461041E2,3.4085745E2,-4.016966E1,4.0858005E2,2.834728E2,1.0473485E2,8.35615E1,-4.692675E2,1.7884212E2,-7.367466E1,3.954228E1,-2.7279684E2,6.4468155E1,9.839971E1,-3.4657867E1,-5.34254E2,-2.9198596E2,-6.138851E2,-7.938629E2,-1.154614E2,-2.7479597E1,4.39151E0,-5.418237E1,-4.5174017E2,-5.0064663E1,-4.3158218E2,-3.4990273E1,-2.4108492E1,4.1283978E2,9.163727E1,-2.4318495E1,3.668129E2,-8.959893E1,3.8539474E2,-1.1237586E1,-3.4323486E1,-1.2988884E2,1.7039713E3,1.0386682E3,2.2543419E2,-1.663835E2,-3.6238953E2,5.1181726E2,-2.0943428E2,-4.612802E2,1.3327126E2,5.10864E2,-1.4094032E2,-3.197585E2,-2.0068552E1,1.3762574E3,-1.2323805E3,-8.7069934E2,2.2045317E2,-7.1559607E2,1.4270316E2,-7.078251E2,-3.540361E2,6.1833484E2,-1.3218466E2,-2.2534662E1,-9.91385E1,2.239051E2,-4.068304E1,3.1369043E1,2.8846353E2,7.066985E2,1.5760611E2,-3.9408163E2,3.428253E1,2.011884E2,-1.565656E2,-9.0362115E2,-1.978186E2,5.6699164E2,-6.120359E2,7.4381836E1,-1.0742911E3,-8.1612775E2,-6.123808E1,-3.6347583E2,-3.9286093E2,-7.5780457E2,-2.6182816E2,5.4748254E2,-1.4173528E3,-8.5690405E2,-9.564012E2,-3.6746445E2,-6.685786E2,8.418922E2,-1.9743494E1,5.550972E2,-6.211891E2,-2.6076578E2,-5.1566595E2,-1.0562567E3,-4.658288E2,-6.906154E2,1.7008058E2,-2.901925E2,-8.0964496E2,-5.868916E2,-9.906114E1,5.5809436E2,-3.682154E2,-6.9957E1,-2.6947867E2,-1.2211555E3,-3.2156937E2,-7.4170746E2,1.3815478E1,7.423151E1,5.254919E1,1.1304534E2,-7.27211E2,-5.1431476E2,-3.6888892E2,-1.5264467E2,4.690791E2,2.963969E0,-2.7850708E2,8.8451515E1,-1.00642554E3,-1.2890775E3,-1.6755467E2,-5.3052742E1,-5.1987415E2,-6.360177E2,3.569895E2,5.634138E1,5.9785328E1,-2.4269711E2,-6.221912E2,-9.8687286E2,2.1667242E2,-6.690022E2,-6.422731E2,-9.578943E2,9.886148E2,1.1695415E3,3.6909424E1,-2.2625026E2,-1.0280803E3,-2.0442444E2,-2.871824E2,1.9498306E3,-2.287755E1,-6.521632E2,9.362006E2,1.3975255E2,5.448715E2,1.6572136E2,2.5082652E2,-2.5058907E1,-1.0049683E3,-6.207347E2,8.3361786E2,-1.9741695E2,-4.1739932E2,1.5303593E1,-7.798222E2,-1.1251284E3,-2.3919865E1,-1.2992539E3,-4.4017712E2,-1.1090032E3,-7.912138E1,5.558065E2,-1.2199579E3,-7.765781E2,-1.848485E2,1.5748842E2,4.813915E2,-1.726385E2,6.305535E1,1.601434E2,3.414369E2,2.7720755E2,7.585109E2,-2.1370096E2,-2.1224637E2,8.096086E2,4.8415472E2,7.05399E2,3.671391E2,-2.7381467E2,6.859647E2,4.4754282E2,9.1887994E2,1.3970659E3,7.351282E2,-5.287933E1,2.4701073E2,1.7180204E3,-2.9446823E1,-1.528235E2,8.72796E1,-4.0714676E1,4.0641394E2,-4.8333492E1,1.5847841E2,-2.2730583E2,3.9724005E2,-7.916822E1,1.3201146E3,6.0114166E2,-6.189908E1,4.33399E2,-3.432925E2,-2.7077365E2,2.053296E3,1.1387568E3,7.1904596E2,2.0584849E3,6.197582E2,1.5231712E2,2.7760693E2,-8.16891E2,2.4519688E3,3.6328552E2,1.01135297E3,5.340244E2,5.466611E2,2.515443E2,3.8801102E2,-4.9591328E1,-4.713524E1,3.204047E3,1.8674484E1,-2.2475542E2,-6.826759E1,8.389316E2,-4.6366634E1,2.9527823E2,8.3930994E2,4.8593414E2,1.1399453E3,4.6908298E2,9.4800116E2,5.885527E2,1.5502526E3,8.598235E2,9.657883E1,2.7608072E2,1.9295232E3,1.6215533E2,-2.6007734E1,7.795337E0,-2.2714487E1,7.8830695E2,6.483139E2,1.9432285E3,3.4997754E2,7.5011505E1,3.7781012E2,-5.8554653E1,2.8206417E1,-1.5074658E1,3.2470154E2,5.7121265E2,-3.7503772E2,-1.4479378E2,-2.0217712E2,6.642023E2,-2.818953E2,5.54209E2,-9.900167E2,-1.372321E3,-1.6423851E2,1.5259431E2,1.2114779E3,6.194246E2,2.4452917E2,4.6100864E2,-1.0798736E2,1.2324947E2,3.545535E1,1.6431688E2,5.59187E2,7.537275E1,1.935342E2,1.1779541E3,8.0910626E2,4.9889027E1,-1.5438501E1,2.2483115E2,-2.5364583E2,-1.2247537E2,4.1855457E2,-2.0077097E1,7.4439374E2,5.6065063E0,-5.9115027E2,1.4686151E2,-3.508569E2,-9.360761E1,-3.7624782E-1,-9.700457E1,-1.448285E2,4.310797E2,-3.365702E2,-3.085829E2,2.0819653E2,-2.782425E2,1.2196691E3,4.9617795E2,9.972191E2,5.511576E2,1.8935109E3,7.425006E2,2.4451396E3,2.670538E2,5.8983105E2,3.4217484E2,-5.0170048E1,5.9037036E2,-3.7367508E2,-2.7900143E2,2.0693268E2,1.084664E3,8.605269E2,1.5646918E2,-1.8163861E2,1.6506454E3,2.4592152E2,-1.9184024E2,-1.7643494E1,5.807764E2,3.5290164E2,-1.6313368E2,5.905113E2,3.7985907E2,-1.4314467E2,1.1263936E1,-7.320559E1,2.8516394E2,8.3690137E2,1.8010631E3,2.0263536E2,-1.7553497E1,7.3315067E0,2.7986862E2,-7.374886E1,-1.0938349E2,-1.7642331E2,-7.0454666E1,6.903372E2,-6.5463916E2,1.542138E3,7.975191E2,2.4592152E2,-1.8193466E2,-2.891538E2,-1.330736E2,-9.4730133E2,-1.4919735E3,-3.4275348E2,-7.224272E2,2.2985498E2,3.863722E2,1.3315657E3,-8.374175E2,7.413535E1,-1.316585E2,-3.345524E1,-1.530935E2,1.6017402E3,2.493845E2,-2.0198743E2,3.7853586E2,7.854392E2,1.1263136E3,1.5705753E2,1.4116095E3,1.077099E3,1.0507033E2,-3.648467E1,-1.736889E2,-4.3471355E1,-5.3186203E1,-1.8646485E0,-1.4815181E2,1.27613914E2,9.170651E1,8.435548E2,5.682366E1,6.599788E2,1.07489296E2,1.3420802E3,2.2249727E3,1.1004751E3,4.345723E2,-2.758365E2,-6.2643054E2,-8.322665E2,-4.0389392E2,9.419586E1,1.7126514E1,6.249476E1,5.1581097E1,-2.0741589E1,1.21615E1,-2.8504663E1,1.0776641E2,-5.9358606E2,-9.3813805E1,-4.8427536E2,-2.5189467E2,-7.2521736E1,-4.0318842E2,-1.0012582E2,1.2270422E1,-2.2363583E2,1.8674652E2,-9.3186145E2,-4.0969244E2,-6.906237E1,-4.028288E1,-2.8086514E2,-1.9313776E2,-7.38656E1,-1.998349E1,-8.528754E0,6.551514E0,4.808137E1,-1.8894667E1,-3.412362E1,-1.758559E1,-8.96794E1,-1.632776E2,-2.5518898E2,-1.9559451E2,-6.636968E2,-4.708626E2,-1.723939E2,-2.3787349E2,7.348251E1,-9.349142E1,-7.297274E1,-1.7069278E2,9.130574E0,-7.9277596E1,-2.6334247E2,-7.5150586E2,-1.2086722E2,-2.595656E2,-4.8065235E1,-1.7993774E2,1.7951782E2,-2.3787349E2,6.0637036E2,-3.805976E2,2.6354963E3,6.8676025E2,8.037535E1,1.7576515E1,-2.208349E1,1.4900493E2,-3.6723488E1,1.4178642E2,8.181534E1,-5.4460827E1,1.5364291E2,2.2140607E2,9.703242E1,-8.849083E1,7.596975E1,3.3086066E2,4.5556818E2,8.229712E1,9.1398065E2,2.0690942E3,3.8494772E2,1.5865087E3,-5.235546E2,1.06628174E2,4.874954E1,5.415533E2,-3.29263E2,8.877988E1,1.5329535E2,6.2637225E2,9.352152E1,6.687976E2,4.57509E2,2.0091042E2,-1.6076024E2,1.1930651E2,-3.2005402E2,4.4595563E2,5.979487E2,1.1574305E3,4.9973685E2,2.9400226E2,-9.341996E1,1.9224226E2,1.6796637E2,1.15615E1,-1.0658219E2,6.6296524E1,-1.4873743E2,-9.148608E1,1.472584E2,-3.2886078E1,-1.7963426E2,1.5463718E2,4.299534E1,-4.9518497E1,6.3769176E1,4.2565064E0,-2.4748446E1,6.140651E1,5.1144888E2,1.912804E2,6.184796E2,-3.0956857E2,3.8621774E2,-6.9121136E2,1.8297572E2,5.201242E2,-1.8640097E2,1.7543851E3,1.0055085E3,2.4307115E2,1.3269403E3,2.3260413E2,1.5369274E3,4.6466297E1,-1.6119612E2,7.409653E1,5.3137036E2,1.575365E3,3.1668415E1,9.495535E1,5.1358905E2,3.0001727E2,7.12667E2,3.1864117E2,7.649725E2,1.9999921E3,1.5760033E3,9.4407935E2,1.0089771E1,9.91942E2,4.1242667E2,7.92115E1,-1.5258491E1,-2.375585E2,-1.0198759E2,-1.2035239E1,7.338665E2,-3.9087746E1,-5.9754654E1,4.5007538E1,1.024151E1,1.7332502E3,4.0081787E2,1.2419237E3,3.3210522E2,8.222739E2,4.7717126E2,5.195329E2,1.9230861E2,1.615826E1,-3.348999E-2,-7.431583E1,3.648982E1,-2.0989714E2,2.0992142E2,5.377141E2,7.805115E1,-1.1598466E2,6.0751484E1,-2.7984247E2,-2.2069244E2,-2.3824849E2,-9.6264656E1,4.4423914E2,5.658112E2,1.1209657E3,-1.5505466E2,1.8671503E1,4.6063416E2,6.9888916E2,1.5205972E2,4.469161E1,2.475115E2,3.2711502E1,-3.6036307E2,-1.0953822E2,1.4930753E2,1.070665E2,-5.8217594E1,1.9464743E0,4.2077206E2,1.337785E2,-5.3154663E1,-1.4959337E2,4.5597748E2,1.3560489E2,3.895804E2,1.2781534E2,1.1304976E2,-9.1552734E1,1.0442258E1,3.861975E1,2.1202153E2,7.513534E1,3.567796E2,5.256966E2,4.148476E1,2.103036E2,1.6101608E3,1.01217194E3,8.5937964E2,5.67258E2,1.3379016E3,7.2123517E2,2.5954575E3,2.2440977E2,1.8674014E2,7.5011646E2,-6.6714886E2,1.9523651E2,6.4283826E2,2.3561426E1,9.1059735E2,5.788862E2,4.1943866E2,-4.247712E1,2.5093935E2,1.6329432E1,-2.2434537E2,-1.6747934E2,1.3368916E3,1.8401367E1,1.3024604E3,7.2224023E2,1.7788919E2,5.33977E2,1.8408972E3,8.7623926E2,3.1249774E2,5.1500964E2,1.4889142E3,2.0124603E3,2.043882E2,8.1145355E1,1.8012419E2,5.5482983E2,1.1405952E2,1.5618604E2,5.493464E2,8.02578E2,3.821386E2,6.410192E2,6.453924E2,9.273202E2,4.2119363E2,1.0275961E3,1.8450682E3,1.258164E3,2.3495537E2,7.2567834E2,1.4751749E3,2.3612544E3,1.2902201E3,3.0057727E3,2.5005536E2,7.632292E2,-5.891466E1,5.9766974E2,2.0276558E2,3.6952997E2,5.284151E1,2.754341E2,9.134061E2,1.5015043E3,1.6000326E3,2.004758E0,-7.5599594E1,1.4567108E1,9.4327924E2,5.920971E2,5.157797E2,9.151427E2,-2.0500698E1,2.5628522E2,8.429532E2,1.9776196E2,8.8172235E2,8.566046E1,-4.7070404E1,1.7149434E2,2.842615E2,2.1597192E2,8.1919525E2,7.3337537E2,4.376712E1,1.8076819E2,2.4362566E2,1.371821E2,-2.4299667E2,-9.96813E1,-3.2537305E2,-4.0429425E2,-1.18593575E2,-1.7587881E2,-7.4058495E1,3.3681772E2,-7.602693E1,1.7507463E1,-1.1628498E1,7.443791E0,-2.287715E2,-1.4519138E2,-2.9973038E2,-1.9941022E2,-3.108174E2,-2.437193E2,-3.4405765E2,-4.1088928E2,1.3263267E1,3.742347E2,-3.2899506E2,-8.836585E1,2.4290656E2,1.7827843E2,4.8039684E1,1.2649294E2,6.722584E2,1.6471239E3,-4.146083E1,5.904102E2,1.3442336E2,5.5541534E2,1.4762265E1,-3.346362E1,4.612736E2,8.039842E2,-6.698725E1,2.9992558E1,5.383947E2,-4.350787E1,2.0786142E1,1.5434862E2,2.1834116E2,1.1717906E2,6.796173E1,-2.00959E0,-1.0170052E2,-3.9507946E1,-3.1126997E1,-7.513463E1,-9.9847885E1,-1.6701595E2,3.4010062E2,7.4604573E0,-3.5726704E1,4.112284E1,-1.1739451E2,-7.079095E1,-5.337349E1,-4.04959E0,-5.6565296E1,-3.6503906E1,-9.082397E1,-1.1389088E2,-6.700467E1,-1.9865242E1,-1.3677121E2,-8.9340294E1,-1.13662605E2,-1.9774829E2,2.0517647E1,-3.2844654E1,-2.4121292E2,-1.502643E2,-1.01970825E2,-4.498288E1,-1.6716006E2,-7.537582E1,8.499761E0,-6.705987E1,8.624441E1,-3.0143585E1,1.2821713E2,3.0736505E2,-4.7600826E1,3.0171266E0,-3.8995898E0,-8.5475235E1,-7.850824E0,1.1392842E2,4.209535E1,-1.2419487E2,1.6317975E2,4.8997153E2,-8.68605E1,-1.9393566E1,-1.6081288E2,-7.2486694E1,1.2406536E2,-5.2952877E1,1.263139E1,8.246184E1,-7.340149E1,7.8762035E0,-3.4264664E1,-1.8769528E2,-1.4647385E2,-4.850824E0,1.6861387E1,6.147712E1,5.5103886E1,-3.406346E1,-1.365723E2,-4.7037148E1,-1.0548288E2,1.7315357E1,6.97734E2,1.6626714E2,3.2813535E2,8.129611E2,2.7845044E2,5.883085E2,2.909836E2,4.5392072E2,3.2184335E2,6.599906E1,1.13832405E2,-1.6455328E2,1.3074641E2,6.0992426E2,6.0040515E2,3.2125653E2,-7.981274E1,4.2698535E2,5.124484E2,1.7527536E2,5.728287E0,8.001977E1,-1.9998097E2,-1.03475586E2,8.39977E2,4.0685776E2,-3.5847186E2,-2.4644775E2,-5.5102375E1,2.452411E2,1.5535835E2,1.4980316E3,2.5990986E3,-5.5735917E0,-8.13035E1,1.8264977E2,3.6483417E2,-2.3030025E2,-5.89535E1,-3.1229453E2,-4.475001E2,-2.517317E2,-9.0840836E1,6.938854E2,2.834815E2,1.168605E2,4.464454E2,-1.456063E2,-4.6614532E1,-2.068158E1,-2.335288E1,4.016651E1,-1.0116524E2,6.894535E1,2.1926149E2,1.2786152E2,5.3529182E1,1.2377919E2,1.474407E2,7.587191E1,6.1298645E1,-4.908254E1,1.609481E2,3.934894E1,4.9259182E1,-3.1927462E0,6.33115E1,-2.2991467E2,-6.788466E1,1.0547918E2,-3.813583E1,-9.823727E1,-6.0044666E1,5.059972E1,9.363977E1,-9.154759E1,-3.513349E1,-1.7152737E2,-1.1546111E2,-1.9878432E2,-1.294616E2,-2.4361116E2,-1.0664094E2,-1.5363672E2,-1.656785E2,-2.8533491E1,-1.4439583E2,2.044835E2,6.6412384E2,4.3568814E2,5.0353537E2,1.848283E2,2.1819226E2,-1.322251E2,-1.5090303E2,-7.8496216E1,-1.7387025E2,1.1411093E2,-1.7774289E2,2.9003153E1,-8.596955E1,3.42884E1,4.285929E2,-2.1438501E1,-2.3542453E2,-4.0490433E2,-3.4089246E2,-2.3420346E2,-6.0869553E1,2.0075014E2,-2.5034012E2,1.9913441E2,3.419665E2,6.947999E-2,-2.3846172E2,-1.408513E2,-2.0540024E1,-1.4811456E2,5.8335354E1,2.1349974E2,7.380635E1,1.1274405E1,-5.919287E0,-2.4867746E1,5.0537925E0,2.43115E1,4.2160408E1,1.22666046E2,3.181898E2,1.8168906E2,-2.867516E2,8.68644E1,-2.9656784E2,-9.960753E1,-1.6228851E2,1.2190536E2,-7.492727E1,1.211418E1,-2.273886E2,-3.403756E2,1.0915152E2,-1.2875774E2,2.0215276E2,6.555642E1,-2.4244955E2,-6.475082E1,9.492236E1,-2.725796E2,-3.492059E2,-2.784802E2,-1.8828952E2,-2.6779044E2,2.4862318E1,-2.1956316E2,-2.6493097E2,5.144317E1,-2.7174817E2,-2.1434612E2,-4.78535E1,2.5089537E2,-4.0195557E2,-4.6958655E2,-2.8450854E2,-1.7349237E2,-2.1706715E2,-3.03246E2,1.3941641E2,-2.1050323E2,1.2879228E2,3.0107443E2,2.3444534E2,7.3959755E1,-1.9629573E2,-1.2920744E2,-8.856523E1,2.0195337E1,-1.3261938E2,-2.4300621E2,-2.69679E2,-3.5818884E2,-4.0532364E1,-3.017314E2,-2.7643292E2,-1.9229019E2,8.6095345E1,1.1964762E1,-6.743876E1,-1.2288006E2,-4.569288E1,-2.6359503E2,-1.4228433E2,-1.9354033E2,-7.608542E-1,-2.4520622E2,-3.633612E1,2.5346873E2,-1.357582E2,-9.393244E1,1.6360016E1,-4.535155E1,-3.197889E2,-4.076709E2,-1.1387141E2,-2.7165668E2,-2.1212561E2,-3.498103E2,-1.14261894E2,-1.9952814E2,2.5119774E1,1.8667975E2,1.6334479E2,-2.1601468E2,-1.7872885E2,-3.2194424E2,-2.384029E2,-3.892383E2,-8.207111E1,-1.6133467E2,-1.9521408E2,-1.050296E2,1.9299767E1,3.6565065E0,-8.471994E1,2.2925343E1,-1.5685359E2,-2.9280142E2,-3.7094986E2,-2.8304736E2,-2.2097353E2,-1.5353255E2,-1.9979475E2,-6.210305E1,-8.307612E1,-3.1943896E2,5.1282983E2,-1.4850351E2,1.1915535E2,-1.287863E1,-2.83216E2,-4.0476593E2,-2.5748425E2,6.592557E0,1.1628882E1,-1.2328961E2,-3.5845276E2,1.6478353E3,1.4656365E1,-1.863485E2,-3.08546E2,-3.385449E0,5.884405E2,2.0267859E2,2.5864386E1,4.7068152E2,-1.573535E2,1.4082227E2,-3.396674E2,-2.5365923E2,-1.0379429E2,-2.1280547E2,5.5897156E2,-1.838435E2,1.2129534E2,-6.906869E1,1.5581157E1,-1.6823914E2,-3.1403955E2,-1.064313E2,-3.489065E2,-8.91935E1,-2.2363393E2,-3.9482E2,-2.322369E2,1.8432765E2,-4.1191418E2,-3.019686E2,1.9860916E2,-2.1092744E2,-9.506467E1,-3.7331165E2,-1.4764568E2,-2.6417603E2,3.349535E1,1.1608151E2,2.872695E2,1.4114586E2,-2.860736E2,1.3154419E2,-2.249103E2,-3.32005E1,1.1691041E2,3.7187537E2,-3.3034976E0,2.3586711E2,2.0459137E2,-1.7634561E2,3.2674976E2,2.1478214E2,3.095397E2,4.8307755E2,3.7901337E2,1.6509297E2,-5.9153427E1,1.0221917E2,5.456633E2,1.9744725E2,-5.721954E1,4.6703888E1,-1.7024231E-1,4.2030407E1,8.951514E0,1.4272842E2,-1.05876E2,1.585278E2,-1.3881215E2,6.9248886E1,4.6624673E2,2.3004874E2,2.2201457E2,1.266847E2,-8.98415E1,2.9829065E1,1.8993846E2,4.627201E1,-1.2466879E2,1.0685401E2,3.3656018E2,6.5548737E2,-3.8457733E1,3.9775623E2,-4.1696407E1,2.933681E2,1.0173125E3,3.7969275E2,1.3073644E1,2.5553477E2,-2.7098114E2,-9.427467E1,9.544534E1,7.948329E2,8.132714E1,3.149386E2,1.6683609E2,6.0552418E1,2.3161894E2,1.2349934E2,-6.0991886E1,9.213339E1,-4.395986E1,1.8502109E2,-4.4284683E1,1.3675185E1,1.4605823E3,-2.501465E1,6.884479E1,-8.966148E1,-8.25113E1,-2.461317E1,-8.7422905E0,-3.2793495E1,1.366624E2,5.8676373E1,3.3579172E2,2.1124538E2,2.2588162E2,8.984572E1,1.2784274E2,3.5003787E2,1.1186418E2,3.0108517E2,1.4683894E2,2.5135893E2,2.599999E2,5.08236E2,3.8273373E2,1.575595E2,9.754116E1,-7.28156E1,6.054999E2,2.0828534E2,-2.7745376E0,-1.6220234E1,1.24670456E2,3.648092E2,3.645023E2,-9.701466E1,4.2178232E2,7.0104333E2,3.750977E1,1.21109184E2,-1.0573907E2,-3.3023343E2,2.4736383E1,-6.5771255E1,8.741533E1,-1.373636E2,3.1605533E2,8.9307625E1,-3.198577E2,2.285665E2,-4.1934506E2,-2.2197585E2,2.285665E2,-2.2780823E1,4.1723752E2,1.2937242E2,1.9805637E2,7.904535E1,-1.8851775E2,7.708418E1,8.549441E1,1.9820015E2,3.6647327E2,1.7670227E2,2.5881354E2,2.0587373E2,6.3289177E1,-4.601359E1,-4.6366344E1,8.031641E1,2.7599176E1,1.640861E2,7.312418E1,-2.404535E2,1.6486034E2,2.3914052E2,-1.9844731E2,-8.256909E1,-1.1526497E2,-4.374295E1,-1.2994737E2,1.40678625E1,-4.204651E0,1.656869E0,8.716969E1,1.8370813E2,-2.148538E2,-7.629276E1,-1.3364661E1,-1.468985E2,3.9232895E2,3.1850903E2,1.13481575E2,2.5312727E2,3.6286975E2,2.640516E2,-3.6989544E1,1.8482591E2,4.482434E2,7.443522E2,4.139705E2,1.5023921E2,5.8345917E2,7.986706E2,1.9747298E2,-4.7701714E1,-1.0804414E2,8.362865E1,2.324114E2,5.3208416E1,-1.2499799E2,-1.8854664E1,1.394978E2,-9.540926E0,8.05615E1,3.5825443E2,-1.9107526E2,2.4592152E2,5.013016E2,1.3844371E2,3.19436E1,1.6167424E2,-5.7670776E1,-6.147739E0,1.4153392E2,2.1992827E2,-8.705467E1,7.035977E1,-6.996465E1,1.8079727E2,2.2797227E2,6.1122577E2,4.2565064E0,-3.7443497E1,2.840692E2,-1.273535E2,-1.21659546E2,-2.1803712E2,2.0554118E2,4.716756E2,4.2157977E2,-1.3962524E2,2.434938E2,-2.927604E2,-2.4002641E2,-4.649073E2,-1.6981021E2,-5.044737E1,-3.5892972E2,-1.8731897E2,1.4713547E2,5.028687E1,4.7805643E2,1.3533534E2,-4.9743496E1,-3.018047E2,9.183534E1,4.871138E2,2.4592152E2,-1.336985E2,-9.619467E1,1.4389638E2,3.432441E2,5.3921505E1,5.988534E1,4.4065065E0,5.2629865E2,9.202843E1,1.7219418E2,4.3962643E2,1.0471834E1,1.3153151E2,-2.960959E1,-1.0561157E0,1.6415333E1,4.511476E1,4.6012125E2,2.3173076E2,-2.551256E2,4.1932587E1,1.646651E1,2.1449971E2,-1.5254647E1,6.1532104E1,4.3698776E2,-1.0958467E2,3.5014224E2,8.249954E2,3.191388E1,3.8028125E2,2.2044838E2,3.83762E1,-1.1469823E1,-8.946811E1,-1.0249829E2,-2.1090779E2,-1.2895084E2,-2.8619492E2,-2.3704662E1,-1.4019289E2,-1.9446656E0,2.0353275E1,-5.3714664E1,-2.2682774E2,-1.7128783E-1,-9.1040245E1,-1.5046979E2,-9.08139E1,7.084131E-1,-2.998999E1,-1.4888272E2,-3.5327595E1,-2.9139447E2,-1.7063863E2,-1.659035E2,-5.3274647E1,-3.715274E1,-1.0162082E2,2.0666512E1,7.69726E0,-9.42663E1,-2.1107127E2,-2.1312007E2,-1.3300471E2,-9.860025E1,-2.1812366E1,4.674534E1,-2.6028498E1,-1.1584668E1,-3.2315598E1,7.246533E1,-5.0240242E1,-1.3676466E2,4.714151E1,-2.0708728E2,-3.1654886E2,3.1865652E2,-2.3787349E2,4.7467154E2,1.1214457E2,4.3903244E2,8.01519E2,5.2403603E1,1.0419754E1,8.882535E1,-1.7528727E0,5.8763798E1,1.8765535E2,8.015442E1,1.658524E2,-1.4446534E0,4.123748E2,3.7672546E2,6.517938E2,1.9224012E1,1.9524687E2,1.8295535E2,5.565604E2,-1.150444E2,-2.6669742E2,1.435982E2,-1.7796083E2,1.1199529E2,-6.669796E0,8.85958E1,2.3248419E2,-6.0358376E1,-2.7559293E2,5.725321E1,-2.5559773E2,-1.9365172E2,1.6380536E2,2.110084E2,1.01380806E2,1.2164421E2,3.135986E2,3.6872028E2,1.6575342E1,9.8604965E1,2.4159712E2,4.3764763E1,-9.281024E1,-7.510849E1,2.7146503E1,4.4019764E1,-1.1358466E2,2.2481506E1,-2.0831593E1,4.5795338E1,-1.029236E2,2.0208406E1,7.4565346E1,4.9721504E1,-1.8111288E1,2.4841917E2,-2.054651E0,-1.8706786E2,-6.9773926E1,3.717265E2,-1.9792851E2,-1.7963983E2,-2.7195956E2,6.223241E1,-1.4506082E2,7.9873047E2,4.554096E2,1.6159232E2,3.7385E2,2.2460095E2,4.504089E1,4.660115E2,2.5786603E2,4.144642E2,-1.5733912E1,4.9554413E1,5.1097012E2,1.595592E2,2.017089E0,-2.1130812E1,2.9138834E2,1.2907153E2,4.8792853E2,9.473764E1,2.6095535E2,3.7761646E2,1.6019781E2,1.7241226E2,6.616834E2,4.8139102E2,2.2877443E2,3.3670117E2,6.4035355E1,4.6054773E2,2.0998108E2,2.6102957E2,1.3437209E2,-5.914661E0,3.5876514E1,5.420493E2,7.235651E1,3.4869705E1,2.4395015E2,2.2714117E2,5.8773535E2,6.757315E1,1.3618747E2,3.8623947E2,7.953638E1,-2.4318846E1,1.9270625E2,6.666918E1,1.9165101E0,1.8550457E1,-1.3463134E1,-4.0605835E1,3.5811092E1,-4.7439938E1,-1.3515466E2,8.3615364E1,2.1345348E1,1.9501048E2,8.388418E1,5.0996506E1,-1.58734865E1,7.449041E1,-8.162465E1,-2.375585E2,4.643534E1,4.234151E1,-1.1650466E2,5.9870148E1,1.5716339E2,3.539151E2,8.906535E1,3.5898715E2,1.4991483E2,2.7023888E1,-1.8848557E0,-6.523648E1,-1.24629005E2,-7.638075E1,2.533158E1,-4.53349E0,6.274534E1,-4.2974648E1,5.402158E0,1.4783061E2,9.08546E1,5.3923595E1,-6.267349E1,1.103655E2,2.8098224E2,5.6812782E1,-1.9973396E1,-1.0409774E2,8.386535E1,1.3708972E2,-5.16785E1,2.0994226E2,5.592202E2,3.3027924E2,1.658414E2,1.429175E2,3.101579E2,2.043051E2,1.292303E2,5.009889E2,2.3038922E2,2.387262E2,1.5748737E2,9.411254E2,1.455865E2,-2.387435E2,-6.1473488E1,1.2875348E2,2.4775282E2,-5.120023E1,1.20071526E2,1.635938E2,2.9958994E2,2.021038E2,8.7744415E1,9.127997E1,1.4570366E2,-4.66196E1,4.7965343E1,7.918335E1,-1.1228024E2,1.7498919E1,-9.9246216E1,-1.8605238E1,-9.280159E1,3.054328E2,6.8179535E2,1.0564726E2,-1.974935E2,2.2464919E2,4.4122113E2,6.4706445E2,3.9146503E1,1.3107729E2,3.049415E2,3.9899442E2,6.568447E2,3.8579834E2,6.5796405E2,7.578845E1,-9.786206E0,8.134638E1,3.3483188E2,2.2816264E2,7.409174E1,1.2855534E2,3.175145E2,6.6910065E2,4.9685602E2,3.1477744E2,4.818075E2,6.481002E1,4.8474127E2,7.286823E2,5.040611E2,2.309586E2,5.7284393E2,4.618228E2,9.204754E2,1.4341034E2,8.339463E1,5.7170654E2,1.8708273E2,5.531538E2,3.2547186E2,6.761354E2,-5.418349E1,1.4884057E0,6.879758E0,2.924236E2,1.1150534E2,-5.005141E1,1.9229057E1,2.0162355E2,5.3618725E1,4.1702263E1,2.7261426E2,7.0437827E0,1.6213727E2,8.96838E1,3.2684906E2,9.045338E0,-2.335083E1,1.42024145E1,9.637534E1,3.4662014E1,1.4651477E2,1.5131487E2,2.718398E2,3.5604412E1,-1.8245243E1,5.711499E0,5.958139E1],"categories":[],"categories_nodes":[],"categories_segments":[],"categories_sizes":[],"default_left":[0,0,0,0,0,0,0,0,0,0,0,0,0,0,0,0,0,0,0,0,0,0,0,0,0,0,0,0,0,0,0,0,0,0,0,0,0,0,0,0,0,0,0,0,0,0,0,0,0,0,0,0,0,0,0,0,0,0,0,0,0,0,0,0,0,0,0,0,0,0,0,0,0,0,0,0,0,0,0,0,0,0,0,0,0,0,0,0,0,0,0,0,0,0,0,0,0,0,0,0,0,0,0,0,0,0,0,0,0,0,0,0,0,0,0,0,0,0,0,0,0,0,0,0,0,0,0,0,0,0,0,0,0,0,0,0,0,0,0,0,0,0,0,0,0,0,0,0,0,0,0,0,0,0,0,0,0,0,0,0,0,0,0,0,0,0,0,0,0,0,0,0,0,0,0,0,0,0,0,0,0,0,0,0,0,0,0,0,0,0,0,0,0,0,0,0,0,0,0,0,0,0,0,0,0,0,0,0,0,0,0,0,0,0,0,0,0,0,0,0,0,0,0,0,0,0,0,0,0,0,0,0,0,0,0,0,0,0,0,0,0,0,0,0,0,0,0,0,0,0,0,0,0,0,0,0,0,0,0,0,0,0,0,0,0,0,0,0,0,0,0,0,0,0,0,0,0,0,0,0,0,0,0,0,0,0,0,0,0,0,0,0,0,0,0,0,0,0,0,0,0,0,0,0,0,0,0,0,0,0,0,0,0,0,0,0,0,0,0,0,0,0,0,0,0,0,0,0,0,0,0,0,0,0,0,0,0,0,0,0,0,0,0,0,0,0,0,0,0,0,0,0,0,0,0,0,0,0,0,0,0,0,0,0,0,0,0,0,0,0,0,0,0,0,0,0,0,0,0,0,0,0,0,0,0,0,0,0,0,0,0,0,0,0,0,0,0,0,0,0,0,0,0,0,0,0,0,0,0,0,0,0,0,0,0,0,0,0,0,0,0,0,0,0,0,0,0,0,0,0,0,0,0,0,0,0,0,0,0,0,0,0,0,0,0,0,0,0,0,0,0,0,0,0,0,0,0,0,0,0,0,0,0,0,0,0,0,0,0,0,0,0,0,0,0,0,0,0,0,0,0,0,0,0,0,0,0,0,0,0,0,0,0,0,0,0,0,0,0,0,0,0,0,0,0,0,0,0,0,0,0,0,0,0,0,0,0,0,0,0,0,0,0,0,0,0,0,0,0,0,0,0,0,0,0,0,0,0,0,0,0,0,0,0,0,0,0,0,0,0,0,0,0,0,0,0,0,0,0,0,0,0,0,0,0,0,0,0,0,0,0,0,0,0,0,0,0,0,0,0,0,0,0,0,0,0,0,0,0,0,0,0,0,0,0,0,0,0,0,0,0,0,0,0,0,0,0,0,0,0,0,0,0,0,0,0,0,0,0,0,0,0,0,0,0,0,0,0,0,0,0,0,0,0,0,0,0,0,0,0,0,0,0,0,0,0,0,0,0,0,0,0,0,0,0,0,0,0,0,0,0,0,0,0,0,0,0,0,0,0,0,0,0,0,0,0,0,0,0,0,0,0,0,0,0,0,0,0,0,0,0,0,0,0,0,0,0,0,0,0,0,0,0,0,0,0,0,0,0,0,0,0,0,0,0,0,0,0,0,0,0,0,0,0,0,0,0,0,0,0,0,0,0,0,0,0,0,0,0,0,0,0,0,0,0,0,0,0,0,0,0,0,0,0,0,0,0,0,0,0,0,0,0,0,0,0,0,0,0,0,0,0,0,0,0,0,0,0,0,0,0,0,0,0,0,0,0,0,0,0,0,0,0,0,0,0,0,0,0,0,0,0,0,0,0,0,0,0,0,0,0,0,0,0,0,0,0,0,0,0,0,0,0,0,0,0,0,0,0,0,0,0,0,0,0,0,0,0,0,0,0,0,0,0,0,0,0,0,0,0,0,0,0,0,0,0,0,0,0,0,0,0,0,0,0,0,0,0,0,0,0,0,0,0,0,0,0,0,0,0,0,0,0,0,0,0,0,0,0,0,0,0,0,0,0,0,0,0,0,0,0,0,0,0,0,0,0,0,0,0,0,0,0,0,0,0,0,0,0,0,0,0,0,0,0,0,0,0,0,0,0,0,0,0,0,0,0,0,0,0,0,0,0,0,0,0,0,0,0,0,0,0,0,0,0,0,0,0,0,0,0,0,0,0,0,0,0,0,0,0,0,0,0,0,0,0,0,0,0,0,0,0,0,0,0,0,0,0,0,0,0,0,0,0,0,0,0,0,0,0,0,0,0,0,0,0,0,0,0,0,0,0,0,0,0,0,0,0,0,0,0,0,0,0,0,0,0,0,0,0,0,0,0,0,0,0,0,0,0,0,0,0,0,0,0,0,0,0,0,0,0,0,0,0,0,0,0,0,0,0,0,0,0,0,0,0,0,0,0,0,0,0,0,0,0,0,0,0,0,0,0,0,0,0,0,0,0,0,0,0,0,0,0,0,0,0,0,0,0,0,0,0,0,0,0,0,0,0,0,0,0,0,0,0,0,0,0,0,0,0,0,0,0,0,0,0,0,0,0,0,0,0,0,0,0,0,0,0,0,0,0,0,0,0,0,0,0,0,0,0,0,0,0,0,0,0,0,0,0,0,0,0,0,0,0,0,0,0,0,0,0,0,0,0,0,0,0,0,0,0,0,0,0,0,0,0,0,0,0,0,0,0,0,0,0,0,0,0,0,0,0,0,0,0,0,0,0,0,0,0,0,0,0,0,0,0,0,0,0,0,0,0,0,0,0,0,0,0,0,0,0,0,0,0,0,0,0,0,0,0,0,0,0,0,0,0,0,0,0,0,0,0,0,0,0,0,0,0,0,0,0,0,0,0,0,0,0,0,0,0,0,0,0,0,0,0,0,0,0,0,0,0,0,0,0,0,0,0,0,0,0,0,0,0,0,0,0,0,0,0,0,0,0,0,0,0,0,0,0,0,0,0,0,0,0,0,0,0,0,0,0,0,0,0,0,0,0,0,0,0,0,0,0,0,0,0,0,0,0,0,0,0,0,0,0,0,0,0,0,0,0,0,0,0,0,0,0,0,0,0,0,0,0,0,0,0,0,0,0,0,0,0,0,0,0,0,0,0,0,0,0,0,0,0,0,0,0,0,0,0,0,0,0,0,0,0,0,0,0,0,0,0,0,0,0,0,0,0,0,0,0,0,0,0,0,0,0,0,0,0,0,0,0,0,0,0,0,0,0,0,0,0,0,0,0,0,0,0,0,0,0,0,0,0,0,0,0,0,0,0,0,0,0,0,0,0,0,0,0,0,0,0,0,0,0,0,0,0,0,0,0,0,0,0,0,0,0,0,0,0,0,0,0,0,0,0,0,0,0,0,0,0,0,0,0,0,0,0,0,0,0,0,0,0,0,0,0,0,0,0,0,0,0,0,0,0,0,0,0,0,0,0,0,0,0,0,0,0,0,0,0,0,0,0,0,0,0,0,0,0,0,0,0,0,0,0,0,0,0,0,0,0,0,0,0,0,0,0,0,0,0,0,0,0,0,0,0,0,0,0,0,0,0,0,0,0,0,0,0,0,0,0,0,0,0,0,0,0,0,0,0,0,0,0,0,0,0,0,0,0,0,0,0,0,0,0,0,0,0,0,0,0,0,0,0,0,0,0,0,0,0,0,0,0,0,0,0,0,0,0,0,0,0,0,0,0,0,0,0,0,0,0,0,0,0,0,0,0,0,0,0,0,0,0,0,0,0,0,0,0,0,0,0,0,0,0,0,0,0,0,0,0,0,0,0,0,0,0,0,0,0,0,0,0,0,0,0,0,0,0,0,0,0,0,0,0,0,0,0,0,0,0,0,0,0,0,0,0,0,0,0,0,0,0,0,0,0,0,0,0,0,0,0,0,0,0,0,0,0,0,0,0,0,0,0,0,0,0,0,0,0,0,0,0,0,0,0,0,0,0,0,0,0,0,0,0,0,0,0,0,0,0,0,0,0,0,0,0,0,0,0,0,0,0,0,0,0,0,0,0,0,0,0,0,0,0,0,0,0,0,0,0,0,0,0,0,0,0,0,0,0,0,0,0,0,0,0,0,0,0,0,0,0,0,0,0,0,0,0,0,0,0,0,0,0,0,0,0,0,0,0,0,0,0,0,0,0,0,0,0,0,0,0,0,0,0,0,0,0,0,0,0,0,0,0,0,0,0,0,0,0,0,0,0,0,0,0,0,0,0,0,0,0,0,0,0,0,0,0,0,0,0,0,0,0,0,0,0,0,0,0,0,0,0,0,0,0,0,0,0,0,0,0,0,0,0,0,0,0,0,0,0,0,0,0,0,0,0,0,0,0,0,0,0,0,0,0,0,0,0,0,0,0,0,0,0,0,0,0,0,0,0,0,0,0,0,0,0,0,0,0,0,0,0,0,0,0,0,0,0,0,0,0,0,0,0,0,0,0,0,0,0,0,0,0,0,0,0,0,0,0,0,0,0,0,0,0,0,0,0,0,0,0,0,0,0,0,0,0,0,0,0,0,0,0,0,0,0,0,0,0,0,0,0,0,0,0,0,0,0,0,0,0,0,0,0,0,0,0,0,0,0,0,0,0,0,0,0,0,0,0,0,0,0,0,0,0,0,0,0,0,0,0,0,0,0,0,0,0,0,0,0,0,0,0,0,0,0,0,0,0,0,0,0,0,0,0,0,0,0,0,0,0,0,0,0,0,0,0,0,0,0,0,0,0,0,0,0,0,0,0,0,0,0,0,0,0,0,0,0,0,0,0,0,0,0,0,0,0,0,0,0,0,0,0,0,0,0,0,0,0,0,0,0,0,0,0,0,0,0,0,0,0,0,0,0,0,0,0,0,0,0,0,0,0,0,0,0,0,0,0,0,0,0,0,0,0,0,0,0,0,0,0,0,0,0,0,0,0,0,0,0,0,0,0,0,0,0,0,0,0,0,0,0,0,0,0,0,0,0,0,0,0,0,0,0,0,0,0,0,0,0,0,0,0,0,0,0,0,0,0,0,0,0,0,0,0,0,0,0,0,0,0,0,0,0,0,0,0,0,0,0,0,0,0,0,0,0,0,0,0,0,0,0,0,0,0,0,0,0,0,0,0,0,0,0,0,0,0,0,0,0,0,0,0,0,0,0,0,0,0,0,0,0,0,0,0,0,0,0,0,0,0,0,0,0,0,0,0,0,0,0,0,0,0,0,0,0,0,0,0,0,0,0,0,0,0,0,0,0,0,0,0,0,0,0,0,0,0,0,0,0,0,0,0,0,0,0,0,0,0,0,0,0,0,0,0,0,0,0,0,0,0,0,0,0,0,0,0,0,0,0,0,0,0,0,0,0,0,0,0,0,0,0,0,0,0,0,0,0,0,0,0,0,0,0,0,0,0,0,0,0,0,0,0,0,0,0,0,0,0,0,0,0,0,0,0,0,0,0,0,0,0,0,0,0,0,0,0,0,0,0,0,0,0,0,0,0,0,0,0,0,0,0,0,0,0,0,0,0,0,0,0,0,0,0,0,0,0,0,0,0,0,0,0,0,0,0,0,0,0,0,0,0,0,0,0,0,0,0,0,0,0,0,0,0,0,0,0,0,0,0,0,0,0,0,0,0,0,0,0,0,0,0,0,0,0,0,0,0,0,0,0,0,0,0,0,0,0,0,0,0,0,0,0,0,0,0,0,0,0,0,0,0,0,0,0,0,0,0,0,0,0,0,0,0,0,0,0,0,0,0,0,0,0,0,0,0,0,0,0,0,0,0,0,0,0,0,0,0,0,0,0,0,0,0,0,0,0,0,0,0,0,0,0,0,0,0,0,0,0,0,0,0,0,0,0,0,0,0,0,0,0,0,0,0,0,0,0,0,0,0,0,0,0,0,0,0,0,0,0,0,0,0,0,0,0,0,0,0,0,0,0,0,0,0,0,0,0,0,0,0,0,0,0,0,0,0,0,0,0,0,0,0,0,0,0,0,0,0,0,0,0,0,0,0,0,0,0,0,0,0,0,0,0,0,0,0,0,0,0,0,0,0,0,0,0,0,0,0,0,0,0,0,0,0,0,0,0,0,0,0,0,0,0,0,0,0,0,0,0,0,0,0,0,0,0,0,0,0,0,0,0,0,0,0,0,0,0,0,0,0,0,0,0,0,0,0,0,0,0,0,0,0,0,0,0,0,0,0,0,0,0,0,0,0,0,0,0,0,0,0,0,0,0,0,0,0,0,0,0,0,0,0,0,0,0,0,0,0,0,0,0,0,0,0,0,0,0,0,0,0,0,0,0,0,0,0,0,0,0,0,0,0,0,0,0,0,0,0,0,0,0,0,0,0,0,0,0,0,0,0,0,0,0,0,0,0,0,0,0,0,0,0,0,0,0,0,0,0,0,0,0,0,0,0,0,0,0,0,0,0,0,0,0,0,0,0,0,0,0,0,0,0,0,0,0,0,0,0,0,0,0,0,0,0,0,0,0,0,0,0,0,0,0,0,0,0,0,0,0,0,0,0,0,0,0,0,0,0,0,0,0,0,0,0,0,0,0,0,0,0,0,0,0,0,0,0,0,0,0,0,0,0,0,0,0,0,0,0,0,0,0,0,0,0,0,0,0,0,0,0,0,0,0,0,0,0,0,0,0,0,0,0,0,0,0,0,0,0,0,0,0,0,0,0,0,0,0,0,0,0,0,0,0,0,0,0,0,0,0,0,0,0,0,0,0,0,0,0,0,0,0,0,0,0,0,0,0,0,0,0,0,0,0,0,0,0,0,0,0,0,0,0,0,0,0,0,0,0,0,0,0,0,0,0,0,0,0,0,0,0,0,0,0,0,0,0,0,0,0,0,0,0,0,0,0,0,0,0,0,0,0,0,0,0,0,0,0,0,0,0,0,0,0,0,0,0,0,0,0,0,0,0,0,0,0,0,0,0,0,0,0,0,0,0,0,0,0,0,0,0,0,0,0,0,0,0,0,0,0,0,0,0,0,0,0,0,0,0,0,0,0,0,0,0,0,0,0,0,0,0,0,0,0,0,0,0,0,0,0,0,0,0,0,0,0,0,0,0,0,0,0,0,0,0,0,0,0,0,0,0,0,0,0,0,0,0,0,0,0,0,0,0,0,0,0,0,0,0,0,0,0,0,0,0,0,0,0,0,0,0,0,0,0,0,0,0,0,0,0,0,0,0,0,0,0,0,0,0,0,0,0,0,0,0,0,0,0,0,0,0,0,0,0,0,0,0,0,0,0,0,0,0,0,0,0,0,0,0,0,0,0,0,0,0,0,0,0,0,0,0,0,0,0,0,0,0,0,0,0,0,0,0,0,0,0,0,0,0,0,0,0,0,0,0,0,0,0,0,0,0,0,0,0,0,0,0,0,0,0,0,0,0,0,0,0,0,0,0,0,0,0,0,0,0,0,0,0,0,0,0,0,0,0,0,0,0,0,0,0,0,0,0,0,0,0,0,0,0,0,0,0,0,0,0,0,0,0,0,0,0,0,0,0,0,0,0,0,0,0,0,0,0,0,0,0,0,0,0,0,0,0,0,0,0,0,0,0,0,0,0,0,0,0,0,0,0,0,0,0,0,0,0,0,0,0,0,0,0,0,0,0,0,0,0,0,0,0,0,0,0,0,0,0,0,0,0,0,0,0,0,0,0,0,0,0,0,0,0,0,0,0,0,0,0,0,0,0,0,0,0,0,0,0,0,0,0,0,0,0,0,0,0,0,0,0,0,0,0,0,0,0,0,0,0,0,0,0,0,0,0,0,0,0,0,0,0,0,0,0,0,0,0,0,0,0,0,0,0,0,0,0,0,0,0,0,0,0,0,0,0,0,0,0,0,0,0,0,0,0,0,0,0,0,0,0,0,0,0,0,0,0,0,0,0,0,0,0,0,0,0,0,0,0,0,0,0,0,0,0,0,0,0,0,0,0,0,0,0,0,0,0,0,0,0,0,0,0,0,0,0,0,0,0,0,0,0,0,0,0,0,0,0,0,0,0,0,0,0,0,0,0,0,0,0,0,0,0,0,0,0,0,0,0,0,0,0,0,0,0,0,0,0,0,0,0,0,0,0,0,0,0,0,0,0,0,0,0,0,0,0,0,0,0,0,0,0,0,0,0,0,0,0,0,0,0,0,0,0,0,0,0,0,0,0,0,0,0,0,0,0,0,0,0,0,0,0,0,0,0,0,0,0,0,0,0,0,0,0,0,0,0,0,0,0,0,0,0,0,0,0,0,0,0,0,0,0,0,0,0,0,0,0,0,0,0,0,0,0,0,0,0,0,0,0,0,0,0,0,0,0,0,0,0,0,0,0,0,0,0,0,0,0,0,0,0,0,0,0,0,0,0,0,0,0,0,0,0,0,0,0,0,0,0,0,0,0,0,0,0,0,0,0,0,0,0,0,0,0,0,0,0,0,0,0,0,0,0,0,0,0,0,0,0,0,0,0,0,0,0,0,0,0,0,0,0,0,0,0,0,0,0,0,0,0,0,0,0,0,0,0,0,0,0,0,0,0,0,0,0,0,0,0,0,0,0,0,0,0,0,0,0,0,0,0,0,0,0,0,0,0,0,0,0,0,0,0,0,0,0,0,0,0,0,0,0,0,0,0,0,0,0,0,0,0,0,0,0,0,0,0,0,0,0,0,0,0,0,0,0,0,0,0,0,0,0,0,0,0,0,0,0,0,0,0,0,0,0,0,0,0,0,0,0,0,0,0,0,0,0,0,0,0,0,0,0,0,0,0,0,0,0,0,0,0,0,0,0,0,0,0,0,0,0,0,0,0,0,0,0,0,0,0,0,0,0,0,0,0,0,0,0,0,0,0,0,0,0,0,0,0,0,0,0,0,0,0,0,0,0,0,0,0,0,0,0,0,0,0,0,0,0,0,0,0,0,0,0,0,0,0,0,0,0,0,0,0,0,0,0,0,0,0,0,0,0,0,0,0,0,0,0,0,0,0,0,0,0,0,0,0,0,0,0,0,0,0,0,0,0,0,0,0,0,0,0,0,0,0,0,0,0,0,0,0,0,0,0,0,0,0,0,0,0,0,0,0,0,0,0,0,0,0,0,0,0,0,0,0,0,0,0,0,0,0,0,0,0,0,0,0,0,0,0,0,0,0,0,0,0,0,0,0,0,0,0,0,0,0,0,0,0,0,0,0,0,0,0,0,0,0,0,0,0,0,0,0,0,0,0,0,0,0,0,0,0,0,0,0,0,0,0,0,0,0,0,0,0,0,0,0,0,0,0,0,0,0,0,0,0,0,0,0,0,0,0,0,0,0,0,0,0,0,0,0,0,0,0,0,0,0,0,0,0,0,0,0,0,0,0,0,0,0,0,0,0,0,0,0,0,0,0,0,0,0,0,0,0,0,0,0,0,0,0,0,0,0,0,0,0,0,0,0,0,0,0,0,0,0,0,0,0,0,0,0,0,0,0,0,0,0,0,0,0,0,0,0,0,0,0,0,0,0,0,0,0,0,0,0,0,0,0,0,0,0,0,0,0,0,0,0,0,0,0,0,0,0,0,0,0,0,0,0,0,0,0,0,0,0,0,0,0,0,0,0,0,0,0,0,0,0,0,0,0,0,0,0,0,0,0,0,0,0,0,0,0,0,0,0,0,0,0,0,0,0,0,0,0,0,0,0,0,0,0,0,0,0,0,0,0,0,0,0,0,0,0,0,0,0,0,0,0,0,0,0,0,0,0,0,0,0,0,0,0,0,0,0,0,0,0,0,0,0,0,0,0,0,0,0,0,0,0,0,0,0,0,0,0,0,0,0,0,0,0,0,0,0,0,0,0,0,0,0,0,0,0,0,0,0,0,0,0,0,0,0,0,0,0,0,0,0,0,0,0,0,0,0,0,0,0,0,0,0,0,0,0,0,0,0,0,0,0,0,0,0,0,0,0,0,0,0,0,0,0,0,0,0,0,0,0,0,0,0,0,0,0,0,0,0,0],"id":0,"left_children":[1,3,5,7,9,11,13,15,17,19,21,-1,23,25,27,29,31,33,35,37,39,-1,41,-1,-1,43,45,47,49,-1,51,53,55,57,59,-1,61,-1,-1,-1,-1,-1,-1,63,65,67,69,71,73,75,77,-1,-1,79,81,83,85,-1,87,-1,89,91,-1,93,95,97,99,101,103,105,107,109,111,113,115,117,119,121,123,-1,-1,-1,-1,-1,-1,-1,-1,125,-1,-1,127,-1,-1,129,131,133,135,-1,137,139,141,143,145,147,149,151,153,155,157,159,161,163,165,167,169,171,173,175,177,179,181,183,185,187,189,-1,-1,-1,191,193,195,197,199,201,203,205,207,-1,209,211,213,215,217,219,221,223,225,227,229,231,233,235,237,239,241,243,245,247,249,251,253,255,257,259,261,263,265,-1,-1,-1,267,-1,-1,269,271,273,275,277,279,281,283,285,287,289,291,293,295,297,299,301,303,-1,-1,305,-1,307,309,311,313,315,317,319,321,323,325,327,329,331,333,335,337,339,-1,341,343,345,347,349,351,353,355,357,359,361,363,365,367,369,371,373,375,377,379,-1,-1,381,383,385,387,389,391,393,395,397,399,401,403,405,407,409,411,413,415,417,419,421,423,425,427,-1,-1,429,431,433,435,437,439,-1,441,443,-1,-1,-1,445,447,449,451,453,-1,455,457,459,461,463,465,467,469,471,473,475,477,479,481,483,485,487,489,491,493,495,497,499,501,-1,503,-1,-1,505,507,509,511,513,515,517,519,521,523,525,527,529,531,533,535,537,539,541,543,545,547,549,551,553,555,557,559,-1,-1,-1,561,-1,-1,563,565,567,569,571,573,575,577,579,581,583,585,587,589,591,593,595,-1,-1,597,599,601,-1,603,-1,605,-1,-1,607,609,611,613,-1,-1,615,-1,617,619,621,623,625,627,629,631,633,635,637,639,-1,-1,-1,641,643,645,-1,-1,647,649,-1,651,653,655,657,-1,659,661,663,665,667,669,671,673,675,-1,677,679,-1,681,-1,683,685,687,689,691,693,-1,-1,695,697,699,701,703,705,707,709,711,713,715,-1,-1,-1,-1,-1,-1,717,719,721,723,-1,-1,725,727,729,731,-1,-1,733,-1,735,737,739,741,-1,743,745,747,749,751,753,755,757,759,-1,761,763,765,767,769,771,773,775,777,779,781,783,785,787,-1,789,-1,791,793,795,797,799,801,-1,803,805,807,-1,809,811,813,815,817,819,821,823,825,827,829,831,833,-1,835,837,839,841,843,845,847,849,851,853,855,857,859,-1,861,863,-1,865,867,869,871,-1,-1,873,-1,875,877,-1,-1,879,881,883,885,887,889,891,893,895,897,-1,899,901,903,-1,905,-1,-1,-1,907,909,-1,911,913,-1,915,917,-1,-1,-1,919,921,923,925,-1,927,-1,929,-1,-1,-1,-1,931,933,-1,-1,935,937,939,941,-1,-1,943,945,-1,-1,-1,-1,-1,-1,-1,-1,-1,-1,-1,947,949,951,953,955,-1,-1,957,959,961,-1,963,965,967,-1,969,971,973,975,977,979,981,983,985,987,989,991,993,995,997,999,1001,-1,1003,-1,1005,1007,1009,1011,1013,1015,-1,1017,1019,1021,1023,1025,1027,-1,1029,1031,1033,1035,1037,1039,1041,-1,1043,1045,1047,1049,1051,1053,-1,-1,-1,-1,1055,-1,1057,1059,1061,1063,1065,1067,1069,-1,1071,1073,1075,1077,1079,-1,1081,-1,1083,1085,1087,1089,-1,1091,1093,-1,1095,1097,-1,-1,-1,1099,-1,-1,1101,1103,-1,-1,1105,-1,1107,1109,1111,-1,1113,1115,-1,-1,-1,-1,1117,1119,-1,-1,1121,-1,1123,1125,-1,1127,-1,1129,1131,1133,1135,1137,1139,-1,1141,1143,1145,1147,1149,1151,-1,-1,1153,1155,1157,1159,-1,-1,1161,1163,-1,-1,1165,1167,1169,-1,1171,1173,1175,1177,1179,-1,1181,1183,1185,-1,1187,1189,1191,1193,1195,1197,1199,1201,1203,1205,1207,1209,1211,1213,1215,1217,1219,-1,1221,1223,-1,-1,1225,1227,1229,1231,-1,-1,-1,1233,1235,-1,-1,1237,1239,-1,1241,1243,1245,1247,1249,1251,-1,-1,-1,-1,1253,1255,1257,1259,1261,1263,1265,1267,-1,-1,1269,1271,1273,1275,-1,1277,1279,1281,1283,1285,1287,1289,1291,1293,1295,1297,1299,1301,1303,-1,1305,1307,-1,1309,1311,1313,1315,-1,-1,1317,1319,-1,1321,1323,1325,1327,1329,1331,1333,1335,1337,1339,1341,1343,-1,-1,1345,1347,1349,-1,1351,1353,1355,1357,1359,1361,1363,1365,1367,1369,1371,1373,1375,1377,1379,1381,1383,1385,-1,1387,-1,-1,-1,-1,-1,1389,-1,1391,1393,1395,1397,-1,-1,1399,1401,-1,1403,1405,-1,1407,-1,1409,-1,1411,-1,-1,1413,1415,1417,1419,1421,1423,1425,1427,1429,1431,1433,1435,-1,-1,-1,1437,1439,1441,-1,1443,1445,1447,1449,1451,1453,1455,1457,1459,1461,1463,1465,-1,-1,-1,1467,-1,1469,1471,1473,-1,1475,1477,1479,1481,-1,-1,1483,1485,1487,1489,1491,1493,1495,1497,-1,1499,1501,1503,-1,-1,-1,1505,1507,1509,1511,1513,1515,1517,1519,1521,1523,1525,-1,-1,1527,1529,1531,1533,1535,-1,1537,-1,-1,1539,-1,1541,1543,1545,-1,-1,1547,-1,1549,1551,-1,1553,-1,-1,-1,1555,1557,1559,-1,1561,1563,1565,1567,1569,1571,1573,1575,1577,1579,1581,1583,1585,-1,1587,-1,1589,1591,1593,-1,-1,-1,1595,1597,1599,1601,1603,1605,1607,1609,1611,1613,-1,-1,1615,1617,1619,-1,1621,-1,1623,-1,-1,1625,1627,1629,-1,1631,1633,-1,-1,1635,1637,-1,1639,-1,-1,1641,1643,1645,-1,-1,-1,-1,1647,-1,-1,-1,-1,1649,1651,1653,1655,1657,-1,-1,1659,-1,1661,-1,1663,1665,1667,1669,-1,-1,1671,-1,-1,-1,-1,1673,1675,1677,1679,-1,-1,-1,-1,-1,-1,1681,1683,-1,-1,-1,1685,1687,1689,1691,1693,1695,-1,1697,1699,1701,1703,-1,1705,1707,1709,1711,1713,-1,1715,1717,1719,-1,-1,1721,1723,1725,1727,-1,1729,1731,1733,1735,1737,1739,-1,1741,1743,1745,1747,1749,1751,-1,-1,-1,1753,-1,-1,1755,-1,1757,1759,1761,1763,1765,-1,1767,1769,1771,-1,1773,1775,1777,1779,1781,-1,1783,1785,1787,1789,-1,-1,-1,1791,-1,-1,-1,1793,1795,1797,1799,1801,1803,-1,-1,-1,-1,1805,1807,1809,1811,1813,1815,1817,-1,1819,1821,-1,-1,-1,-1,-1,1823,-1,1825,1827,1829,1831,-1,-1,1833,1835,1837,1839,1841,1843,1845,1847,1849,1851,1853,1855,1857,-1,1859,1861,1863,1865,1867,1869,1871,1873,1875,-1,-1,-1,1877,1879,1881,-1,1883,1885,-1,1887,1889,1891,1893,1895,1897,1899,1901,1903,1905,1907,1909,1911,1913,1915,1917,-1,1919,1921,1923,1925,-1,1927,-1,-1,1929,1931,-1,1933,-1,-1,1935,1937,-1,-1,1939,1941,-1,-1,1943,-1,1945,1947,1949,1951,1953,1955,1957,1959,1961,1963,1965,-1,-1,-1,1967,1969,-1,-1,-1,-1,-1,-1,-1,-1,1971,1973,1975,1977,1979,-1,1981,1983,-1,1985,1987,1989,1991,1993,-1,1995,1997,1999,2001,2003,2005,2007,2009,2011,2013,2015,2017,2019,2021,2023,2025,-1,2027,-1,2029,-1,2031,2033,2035,2037,-1,2039,-1,-1,2041,2043,-1,-1,2045,-1,-1,-1,-1,2047,2049,-1,2051,2053,-1,-1,-1,-1,-1,-1,-1,-1,2055,2057,2059,-1,-1,2061,2063,2065,2067,2069,2071,2073,2075,2077,-1,2079,2081,2083,2085,2087,2089,2091,2093,2095,-1,-1,2097,2099,-1,-1,2101,-1,-1,-1,-1,2103,-1,2105,-1,-1,2107,2109,-1,2111,2113,2115,2117,2119,2121,2123,2125,-1,2127,2129,2131,2133,-1,-1,-1,-1,2135,2137,2139,2141,2143,2145,2147,2149,2151,-1,2153,2155,2157,2159,2161,2163,2165,2167,2169,2171,-1,-1,-1,-1,-1,2173,2175,-1,2177,2179,-1,2181,2183,2185,-1,2187,2189,-1,2191,2193,-1,2195,2197,2199,2201,2203,-1,-1,2205,2207,-1,-1,2209,2211,2213,2215,-1,-1,-1,-1,-1,2217,2219,2221,-1,-1,-1,-1,-1,2223,-1,2225,-1,2227,2229,2231,2233,-1,-1,-1,2235,2237,-1,-1,-1,-1,2239,2241,2243,2245,2247,-1,2249,-1,2251,2253,2255,2257,-1,2259,2261,2263,2265,2267,2269,2271,-1,2273,2275,2277,-1,2279,-1,2281,-1,2283,-1,-1,2285,-1,2287,2289,-1,-1,-1,-1,2291,2293,-1,2295,-1,-1,-1,-1,2297,-1,-1,2299,2301,-1,-1,2303,-1,-1,2305,-1,2307,2309,-1,2311,2313,2315,2317,-1,-1,2319,2321,2323,-1,-1,-1,2325,2327,-1,-1,-1,2329,2331,-1,-1,2333,-1,2335,2337,-1,-1,2339,-1,2341,2343,-1,2345,-1,2347,2349,2351,-1,2353,-1,2355,2357,2359,-1,2361,-1,-1,2363,-1,-1,2365,2367,2369,2371,2373,2375,-1,2377,2379,2381,-1,2383,2385,-1,-1,-1,-1,-1,2387,-1,-1,2389,2391,2393,-1,2395,2397,2399,2401,-1,-1,2403,2405,2407,2409,2411,2413,2415,-1,2417,-1,-1,-1,2419,2421,-1,-1,2423,2425,-1,2427,2429,2431,2433,2435,-1,2437,2439,2441,-1,-1,2443,2445,2447,2449,2451,-1,-1,2453,-1,-1,2455,2457,2459,2461,2463,2465,-1,-1,2467,2469,2471,2473,-1,-1,-1,-1,2475,2477,2479,2481,2483,2485,2487,2489,-1,2491,2493,2495,2497,2499,-1,2501,-1,2503,2505,2507,2509,2511,2513,2515,2517,2519,-1,2521,2523,2525,2527,2529,2531,2533,2535,-1,2537,-1,2539,2541,2543,2545,-1,2547,2549,-1,-1,-1,2551,2553,2555,2557,2559,2561,-1,2563,-1,2565,-1,-1,2567,2569,-1,2571,-1,2573,-1,-1,2575,2577,2579,2581,-1,-1,2583,2585,2587,2589,2591,2593,-1,2595,2597,2599,2601,-1,2603,2605,2607,2609,2611,2613,2615,2617,2619,2621,2623,2625,2627,2629,2631,2633,2635,-1,2637,-1,-1,-1,-1,2639,2641,2643,2645,-1,-1,-1,-1,-1,2647,-1,-1,2649,2651,-1,-1,-1,2653,-1,-1,2655,2657,2659,2661,2663,2665,2667,2669,2671,2673,-1,2675,2677,2679,2681,2683,-1,2685,2687,2689,2691,2693,-1,2695,-1,-1,2697,2699,2701,2703,2705,2707,2709,-1,2711,-1,-1,-1,-1,2713,-1,2715,2717,2719,2721,-1,-1,2723,2725,-1,2727,2729,-1,2731,2733,2735,2737,2739,2741,-1,2743,-1,2745,-1,2747,-1,2749,-1,2751,-1,-1,-1,-1,2753,2755,2757,-1,-1,2759,-1,2761,-1,-1,2763,-1,2765,2767,-1,2769,-1,2771,2773,2775,2777,2779,2781,2783,2785,-1,2787,2789,2791,2793,-1,-1,2795,2797,2799,-1,2801,2803,2805,2807,2809,2811,-1,-1,2813,2815,2817,2819,2821,2823,2825,2827,2829,2831,2833,2835,2837,2839,2841,2843,2845,2847,2849,2851,2853,2855,2857,2859,-1,2861,-1,2863,2865,2867,2869,-1,2871,2873,-1,-1,-1,2875,2877,-1,-1,-1,-1,-1,-1,-1,-1,-1,-1,-1,-1,-1,-1,-1,-1,-1,-1,-1,-1,-1,2879,-1,-1,2881,2883,2885,-1,2887,-1,2889,-1,2891,2893,2895,2897,2899,2901,-1,2903,2905,2907,-1,2909,-1,2911,-1,2913,2915,2917,2919,-1,-1,-1,-1,-1,-1,-1,-1,-1,-1,2921,2923,-1,-1,-1,-1,-1,-1,2925,2927,2929,2931,2933,2935,2937,-1,2939,2941,2943,-1,-1,-1,2945,-1,-1,-1,-1,-1,2947,-1,-1,-1,2949,-1,2951,-1,2953,2955,2957,2959,2961,2963,2965,2967,2969,-1,2971,2973,2975,2977,-1,-1,2979,2981,2983,2985,2987,2989,2991,2993,-1,2995,-1,2997,2999,-1,-1,3001,-1,3003,3005,-1,-1,3007,-1,-1,-1,-1,3009,3011,3013,3015,3017,3019,3021,3023,-1,3025,-1,3027,-1,3029,3031,3033,3035,3037,3039,3041,3043,3045,3047,3049,3051,-1,-1,3053,3055,3057,3059,3061,3063,-1,3065,3067,-1,-1,3069,3071,3073,3075,-1,-1,3077,-1,3079,3081,-1,3083,-1,3085,-1,-1,-1,-1,3087,3089,-1,-1,-1,3091,-1,-1,-1,3093,-1,-1,-1,3095,3097,3099,3101,3103,3105,3107,-1,-1,3109,-1,-1,3111,-1,3113,3115,-1,-1,-1,3117,-1,3119,3121,3123,3125,-1,3127,-1,-1,-1,3129,-1,3131,-1,3133,-1,-1,3135,3137,3139,3141,3143,3145,-1,-1,3147,3149,-1,-1,-1,-1,-1,-1,-1,-1,3151,-1,-1,-1,3153,-1,-1,-1,3155,-1,3157,3159,-1,-1,-1,3161,-1,-1,3163,3165,-1,-1,-1,-1,-1,3167,3169,3171,-1,3173,-1,-1,3175,3177,-1,-1,-1,3179,3181,3183,3185,3187,3189,-1,3191,3193,3195,-1,3197,-1,3199,-1,3201,-1,-1,-1,3203,-1,-1,-1,3205,-1,-1,-1,-1,-1,-1,-1,3207,3209,-1,3211,-1,-1,3213,3215,3217,3219,-1,3221,3223,-1,-1,-1,-1,3225,3227,3229,-1,-1,-1,3231,-1,-1,-1,-1,3233,3235,-1,3237,-1,-1,-1,-1,3239,3241,3243,3245,3247,-1,-1,-1,-1,-1,3249,3251,3253,3255,3257,-1,-1,-1,3259,3261,3263,-1,-1,-1,-1,-1,3265,3267,3269,-1,3271,3273,3275,3277,-1,3279,-1,-1,3281,-1,-1,-1,-1,-1,-1,-1,-1,3283,-1,3285,3287,3289,3291,3293,-1,3295,-1,-1,3297,3299,-1,-1,3301,3303,3305,3307,3309,3311,3313,3315,-1,3317,3319,3321,3323,3325,3327,-1,-1,3329,3331,3333,-1,-1,-1,3335,3337,3339,3341,3343,-1,3345,-1,-1,-1,-1,3347,-1,3349,3351,-1,-1,-1,3353,3355,-1,3357,-1,-1,-1,-1,3359,3361,3363,3365,3367,3369,3371,-1,-1,3373,3375,3377,3379,3381,3383,-1,-1,-1,-1,3385,3387,3389,3391,-1,3393,3395,3397,3399,3401,3403,3405,-1,-1,3407,-1,3409,3411,-1,3413,3415,3417,3419,-1,3421,3423,3425,3427,3429,3431,3433,3435,-1,-1,-1,-1,3437,3439,-1,3441,3443,-1,3445,-1,-1,3447,3449,3451,3453,3455,3457,3459,3461,-1,-1,-1,-1,3463,3465,3467,-1,-1,-1,3469,-1,-1,3471,-1,3473,3475,3477,3479,-1,-1,-1,-1,3481,3483,3485,3487,-1,3489,3491,3493,3495,3497,3499,3501,3503,3505,3507,3509,-1,3511,-1,-1,3513,3515,3517,3519,3521,-1,3523,-1,-1,-1,-1,-1,3525,-1,3527,-1,-1,3529,-1,-1,3531,-1,-1,-1,-1,-1,3533,-1,3535,3537,3539,-1,3541,3543,3545,3547,3549,-1,-1,-1,-1,3551,3553,-1,3555,3557,-1,-1,-1,-1,3559,3561,-1,-1,3563,3565,3567,-1,-1,3569,-1,3571,3573,3575,3577,3579,3581,3583,3585,3587,-1,-1,3589,-1,-1,3591,3593,-1,-1,-1,-1,-1,3595,-1,3597,3599,3601,3603,-1,-1,-1,-1,3605,-1,3607,-1,-1,-1,3609,3611,3613,-1,3615,3617,3619,3621,-1,-1,3623,-1,-1,-1,3625,3627,-1,-1,3629,3631,3633,-1,3635,-1,3637,3639,-1,-1,3641,3643,-1,3645,3647,-1,3649,3651,-1,-1,-1,-1,3653,-1,3655,-1,-1,-1,-1,-1,3657,-1,-1,-1,-1,-1,3659,3661,-1,-1,3663,-1,-1,3665,3667,-1,3669,-1,3671,3673,3675,3677,3679,3681,3683,3685,3687,3689,-1,-1,-1,3691,3693,3695,3697,3699,3701,3703,3705,-1,3707,3709,3711,3713,3715,3717,3719,3721,3723,-1,3725,3727,-1,3729,3731,3733,3735,-1,3737,3739,-1,3741,3743,3745,3747,3749,3751,3753,3755,3757,3759,3761,3763,3765,3767,3769,-1,3771,-1,3773,-1,-1,-1,-1,3775,3777,-1,-1,3779,3781,-1,-1,3783,3785,-1,-1,3787,3789,-1,3791,-1,3793,3795,3797,-1,3799,3801,3803,-1,3805,3807,-1,3809,3811,3813,3815,3817,3819,3821,3823,-1,3825,-1,-1,3827,3829,3831,3833,3835,-1,3837,3839,-1,3841,3843,3845,3847,-1,3849,3851,-1,-1,-1,-1,-1,-1,-1,3853,3855,3857,3859,3861,-1,3863,3865,-1,-1,-1,3867,3869,3871,3873,-1,3875,3877,-1,3879,-1,3881,-1,-1,-1,3883,3885,3887,3889,3891,3893,3895,-1,3897,3899,3901,3903,-1,-1,3905,3907,3909,-1,3911,3913,3915,3917,3919,3921,-1,3923,3925,3927,-1,-1,3929,3931,3933,3935,3937,-1,3939,3941,3943,3945,3947,-1,3949,-1,-1,-1,3951,3953,3955,3957,-1,-1,-1,-1,-1,-1,3959,-1,3961,3963,3965,-1,-1,3967,3969,3971,-1,3973,3975,3977,-1,-1,3979,-1,-1,-1,3981,-1,-1,3983,3985,3987,-1,-1,-1,3989,3991,3993,3995,-1,3997,-1,3999,4001,4003,-1,-1,4005,4007,-1,-1,4009,4011,4013,4015,4017,4019,4021,4023,-1,4025,-1,4027,4029,4031,-1,4033,4035,-1,-1,4037,4039,-1,-1,-1,-1,4041,4043,4045,-1,-1,4047,-1,4049,-1,4051,-1,-1,-1,-1,4053,-1,-1,-1,4055,4057,4059,4061,-1,-1,-1,-1,4063,4065,4067,4069,-1,4071,4073,4075,-1,-1,-1,-1,4077,4079,-1,4081,-1,4083,4085,4087,4089,4091,-1,-1,4093,-1,-1,-1,4095,-1,4097,4099,4101,4103,4105,4107,4109,4111,4113,4115,4117,4119,-1,-1,4121,-1,-1,-1,-1,-1,4123,4125,4127,-1,4129,4131,-1,-1,-1,-1,4133,4135,-1,-1,4137,-1,-1,-1,-1,-1,4139,-1,-1,-1,-1,-1,-1,-1,4141,4143,4145,-1,4147,4149,-1,-1,4151,-1,4153,4155,-1,-1,-1,-1,4157,-1,4159,-1,4161,-1,-1,-1,-1,4163,-1,-1,-1,-1,-1,-1,-1,-1,4165,4167,4169,-1,4171,4173,4175,4177,4179,4181,4183,4185,4187,4189,-1,-1,-1,-1,-1,-1,-1,-1,4191,4193,4195,4197,4199,-1,4201,-1,-1,-1,4203,-1,-1,4205,-1,4207,4209,4211,-1,-1,-1,-1,4213,-1,-1,-1,4215,4217,4219,4221,-1,-1,4223,4225,4227,4229,4231,4233,4235,4237,-1,-1,4239,4241,-1,-1,4243,-1,-1,-1,4245,4247,4249,4251,-1,4253,-1,-1,-1,-1,-1,-1,4255,-1,-1,4257,-1,4259,4261,4263,4265,4267,-1,4269,4271,4273,-1,-1,4275,4277,4279,4281,4283,-1,4285,4287,4289,-1,-1,4291,-1,4293,-1,-1,-1,4295,-1,4297,-1,-1,4299,4301,4303,-1,-1,4305,4307,4309,-1,-1,4311,4313,-1,-1,-1,4315,-1,-1,-1,-1,4317,-1,-1,-1,4319,4321,4323,4325,4327,4329,4331,-1,-1,-1,4333,-1,4335,4337,4339,4341,4343,4345,4347,4349,4351,-1,4353,4355,4357,-1,-1,-1,4359,4361,-1,-1,4363,4365,-1,-1,-1,-1,-1,4367,-1,4369,-1,-1,-1,-1,4371,4373,4375,4377,-1,-1,4379,4381,4383,4385,-1,-1,-1,-1,-1,4387,-1,-1,4389,4391,4393,-1,-1,4395,-1,-1,-1,4397,4399,4401,4403,4405,4407,-1,4409,4411,-1,4413,4415,-1,4417,4419,-1,-1,-1,-1,-1,-1,-1,-1,-1,-1,-1,-1,-1,-1,-1,-1,-1,-1,-1,-1,-1,-1,-1,-1,-1,-1,-1,-1,-1,-1,-1,-1,-1,-1,-1,-1,-1,-1,-1,-1,-1,-1,-1,-1,-1,-1,-1,-1,-1,-1,-1,-1,-1,-1,-1,-1,-1,-1,-1,-1,-1,-1,-1,-1,-1,-1,-1,-1,-1,-1,-1,-1,-1,-1,-1,-1,-1,-1,-1,-1,-1,-1,-1,-1,-1,-1,-1,-1,-1,-1,-1,-1,-1,-1,-1,-1,-1,-1,-1,-1,-1,-1,-1,-1,-1,-1,-1,-1,-1,-1,-1,-1,-1,-1,-1,-1,-1,-1,-1,-1,-1,-1,-1,-1,-1,-1,-1,-1,-1,-1,-1,-1,-1,-1,-1,-1,-1,-1,-1,-1,-1,-1,-1,-1,-1,-1,-1,-1,-1,-1,-1,-1,-1,-1,-1,-1,-1,-1,-1,-1,-1,-1,-1,-1,-1,-1,-1,-1,-1,-1,-1,-1,-1,-1,-1,-1,-1,-1,-1,-1,-1,-1,-1,-1,-1,-1,-1,-1,-1,-1,-1,-1,-1,-1,-1,-1,-1,-1,-1,-1,-1,-1,-1,-1,-1,-1,-1,-1,-1,-1,-1,-1,-1,-1,-1,-1,-1,-1,-1,-1,-1,-1,-1,-1,-1,-1,-1,-1,-1,-1,-1,-1,-1,-1,-1,-1,-1,-1,-1,-1,-1,-1,-1,-1,-1,-1,-1,-1,-1,-1,-1,-1,-1,-1,-1,-1,-1,-1,-1,-1,-1,-1,-1,-1,-1,-1,-1,-1,-1,-1,-1,-1,-1,-1,-1,-1,-1,-1,-1,-1,-1,-1,-1,-1,-1,-1,-1,-1,-1,-1,-1,-1,-1,-1,-1,-1,-1,-1,-1,-1,-1,-1,-1,-1,-1,-1,-1,-1,-1,-1,-1,-1,-1,-1,-1,-1,-1,-1,-1,-1,-1,-1,-1,-1,-1,-1,-1,-1,-1,-1,-1,-1,-1,-1,-1,-1,-1,-1,-1,-1,-1,-1,-1,-1,-1,-1,-1,-1,-1,-1,-1,-1,-1,-1,-1,-1,-1,-1,-1,-1,-1,-1,-1,-1,-1,-1,-1,-1,-1,-1,-1,-1,-1,-1,-1,-1,-1,-1,-1,-1,-1,-1,-1,-1,-1,-1,-1,-1,-1,-1,-1,-1,-1,-1,-1,-1,-1,-1,-1,-1,-1,-1,-1,-1,-1,-1,-1,-1,-1,-1,-1,-1,-1,-1,-1,-1,-1,-1,-1,-1,-1,-1,-1,-1,-1,-1,-1,-1,-1,-1,-1,-1,-1,-1,-1,-1,-1,-1,-1,-1,-1,-1,-1,-1,-1,-1,-1,-1,-1,-1,-1,-1,-1,-1,-1,-1,-1,-1,-1,-1,-1,-1,-1,-1,-1,-1,-1,-1,-1,-1,-1,-1,-1,-1,-1,-1,-1,-1,-1,-1,-1,-1,-1,-1,-1,-1,-1,-1,-1,-1,-1,-1,-1,-1,-1,-1,-1,-1,-1,-1,-1,-1,-1,-1,-1,-1,-1,-1,-1,-1,-1,-1,-1,-1,-1,-1,-1,-1,-1,-1,-1,-1,-1,-1,-1,-1,-1,-1,-1,-1,-1,-1,-1,-1,-1,-1,-1,-1,-1,-1,-1,-1,-1,-1,-1,-1,-1,-1,-1,-1,-1,-1,-1,-1,-1,-1,-1,-1,-1,-1,-1,-1,-1,-1,-1,-1,-1,-1,-1,-1,-1,-1,-1,-1,-1,-1,-1,-1,-1,-1,-1,-1,-1,-1,-1,-1,-1,-1,-1,-1,-1,-1,-1,-1,-1,-1,-1,-1,-1,-1,-1,-1,-1,-1,-1,-1,-1,-1,-1,-1,-1,-1,-1,-1,-1,-1,-1,-1,-1,-1,-1,-1,-1,-1,-1,-1,-1,-1,-1,-1,-1,-1,-1,-1,-1,-1,-1,-1,-1,-1,-1,-1,-1,-1,-1,-1,-1,-1,-1,-1,-1,-1,-1,-1,-1,-1,-1,-1,-1,-1,-1,-1,-1,-1,-1,-1,-1,-1,-1,-1,-1,-1,-1,-1,-1,-1,-1,-1,-1,-1,-1,-1,-1,-1,-1,-1,-1,-1,-1,-1,-1,-1,-1,-1,-1,-1,-1,-1,-1,-1,-1,-1,-1,-1,-1,-1,-1,-1,-1,-1,-1,-1,-1,-1,-1,-1,-1,-1,-1,-1,-1,-1,-1,-1,-1,-1,-1,-1,-1,-1,-1,-1,-1,-1,-1,-1,-1,-1,-1,-1,-1,-1,-1,-1,-1,-1,-1,-1,-1,-1,-1,-1,-1,-1,-1,-1,-1,-1,-1,-1,-1,-1,-1,-1,-1,-1,-1,-1,-1,-1,-1,-1,-1,-1,-1,-1,-1,-1,-1,-1,-1,-1,-1,-1,-1,-1,-1,-1,-1,-1,-1,-1,-1,-1,-1,-1,-1,-1,-1,-1,-1,-1,-1,-1,-1,-1,-1,-1,-1,-1,-1,-1,-1,-1,-1,-1,-1,-1,-1,-1,-1,-1,-1,-1,-1,-1,-1,-1,-1,-1,-1,-1,-1,-1,-1,-1,-1,-1,-1,-1,-1,-1,-1,-1,-1,-1,-1,-1,-1,-1,-1,-1,-1,-1,-1,-1,-1,-1,-1,-1,-1,-1,-1,-1,-1,-1,-1,-1,-1,-1,-1,-1,-1,-1,-1,-1,-1,-1,-1,-1,-1,-1,-1,-1,-1,-1,-1,-1,-1,-1,-1,-1,-1,-1,-1,-1,-1,-1,-1,-1,-1,-1,-1,-1,-1,-1,-1,-1,-1,-1,-1,-1,-1,-1,-1,-1,-1,-1,-1,-1,-1,-1,-1,-1,-1,-1,-1,-1,-1,-1,-1,-1,-1,-1,-1,-1,-1,-1,-1,-1,-1,-1,-1,-1,-1,-1,-1,-1,-1,-1,-1,-1,-1,-1,-1,-1,-1,-1,-1,-1,-1,-1,-1,-1,-1,-1,-1,-1,-1,-1],"loss_changes":[1.5303131E10,1.5845274E9,1.2915788E10,1.2111124E9,6.88453E7,1.6072704E7,1.0617753E10,4.6076314E8,1.4193211E8,7.728284E6,9.330572E6,0E0,2.0646144E7,4.744086E9,9.004349E9,1.6674168E7,1.564713E8,5.1468E7,2.3177244E7,3.6281938E5,5.4664E4,0E0,5.33014E6,0E0,0E0,2.883965E9,2.9399534E9,3.871122E8,4.3541E9,0E0,3.635934E6,7.778509E7,1.313608E7,3.905312E6,1.117248E7,0E0,1.160171E6,0E0,0E0,0E0,0E0,0E0,0E0,1.6536384E9,2.170194E8,1.6912585E9,1.943758E9,2.096512E8,5.475825E7,1.0004444E9,1.9505388E9,0E0,0E0,2.2652688E6,2.0596736E7,5.6154703E4,5.480468E6,0E0,1.9226176E7,0E0,4.8316E6,3.5478853E5,0E0,1.3671892E9,2.942213E8,1.1323592E7,1.2592077E8,3.2958848E8,4.548287E8,1.606509E9,9.3696134E8,5.7956E7,4.889613E7,8.57128E6,3.852997E6,3.7935834E8,6.08181E8,4.6013414E8,7.67702E8,0E0,0E0,0E0,0E0,0E0,0E0,0E0,0E0,5.25162E5,0E0,0E0,1.917128E6,0E0,0E0,1.3761637E9,7.6293875E8,6.6852264E7,2.227543E8,0E0,3.550708E6,3.688928E7,9.662003E7,1.2413056E8,4.3412096E7,1.1040454E8,1.7056642E8,8.533631E8,1.9998223E9,1.043849E9,1.044605E9,4.0560256E7,3.2627952E7,2.0937568E7,3.5609856E7,3.436475E5,2.217456E6,9.6452E4,1.3351376E6,8.671974E7,6.811835E7,3.973248E8,3.623456E8,2.6523546E8,2.4572992E8,4.715909E8,2.896585E8,0E0,0E0,0E0,3.7376E5,2.4395302E8,4.6494643E8,6.9990104E7,1.1505661E9,4.4926892E7,8.756744E6,1.3298074E8,8.744909E7,0E0,2.71517E5,6.019744E6,1.2169088E7,2.467008E7,2.6337792E7,1.130761E8,1.04160664E8,3.3263548E7,1.0802176E7,7.219888E7,2.540576E7,9.486915E7,1.823576E7,2.8303744E8,5.1606797E8,2.7107277E8,1.9368192E8,1.5928458E8,4.8907418E8,5.0431597E8,4.789854E8,1.7264688E7,2.4279552E7,1.2595168E7,1.3897488E7,7.344E4,7.944952E6,1.2853888E7,5.540672E6,0E0,0E0,0E0,6.2008E4,0E0,0E0,1.0083575E5,1.11599125E5,5.255859E7,2.7266218E7,4.181278E6,1.0921948E7,7.091955E7,2.882415E8,7.626432E7,2.8365427E8,1.3610189E8,7.842458E7,1.667656E8,4.924627E7,6.873562E7,2.745764E8,3.3372608E7,1.876568E8,0E0,0E0,9.678592E6,0E0,3.097344E8,2.9259584E8,6.334656E6,6.967086E7,4.9000294E8,3.0574886E8,1.4482578E7,1.2500278E7,5.5019106E5,4.853816E6,5.495171E7,7.16393E7,3.425536E7,7.166848E6,6.78615E5,1.37265E6,2.277552E6,0E0,1.0151472E7,1.2436224E7,8.89152E6,6.280064E6,1.9140352E7,8.253184E6,1.7323277E8,6.387456E7,7.889852E6,2.9832208E7,3.698648E6,9.670185E5,4.061056E6,3.51088E5,2.042948E7,7.999123E7,5.074677E5,2.0622752E7,2.959988E7,3.2063884E7,0E0,0E0,1.2032448E8,8.723712E7,2.4018507E8,2.9702336E8,2.2303744E7,3.6765104E7,6.5106816E7,2.8928E4,1.2552641E8,9.554424E6,9.460659E7,1.1692082E7,3.5395494E8,1.3567152E8,3.2993642E8,1.2842074E8,6.448024E6,1.3842708E7,8.443029E6,2.3554036E7,8.516528E6,5.4064E6,4.2157585E6,1.502112E6,0E0,0E0,2.260224E6,3.899272E6,3.561152E6,1.01856E7,2.167296E6,3.92032E5,0E0,8.1168E4,2.8244125E4,0E0,0E0,0E0,6.6336E7,4.914112E6,2.348412E6,1.5507122E7,7.7586275E5,0E0,2.200012E6,6.788054E6,4.215526E6,2.6372736E7,2.337648E7,9.982888E7,2.1603328E7,3.502829E6,2.6092088E8,6.793664E6,8.595558E7,7.038221E7,3.0575648E7,3.8138176E7,3.446181E7,1.406014E8,7.55828E6,2.5147456E7,7.050093E7,6.143936E6,1.9385446E8,2.5209088E7,1.6877768E7,1.3232E6,0E0,8.640669E7,0E0,0E0,2.2917197E8,1.2557286E8,1.3139008E8,2.1875744E7,3.392716E6,2.726064E6,4.7453344E7,2.5534232E7,2.223961E8,1.905582E8,2.247414E8,1.1807293E8,2.776392E6,2.100629E6,1.0175702E7,3.024428E6,9.417214E5,8.513436E4,1.108912E6,1.44464E6,1.0767736E7,7.535026E7,4.893856E7,4.263424E7,2.6347008E7,3.0532544E7,1.782308E6,2.979712E6,0E0,0E0,0E0,3.0476062E4,0E0,0E0,3.751028E6,6.6779675E5,5.537552E6,4.624528E6,6.594688E6,3.3915E5,3.32836E6,3.422752E6,1.3118132E7,5.385984E6,8.798E4,6.82752E5,1.0599603E8,2.4713546E8,3.2315776E7,6.051667E7,2.76374E5,0E0,0E0,7.457854E7,2.683485E5,2.305464E6,0E0,3.606797E5,0E0,1.366656E6,0E0,0E0,4.73732E5,1.28445E7,2.9863488E7,4.923219E7,0E0,0E0,4.8928E5,0E0,4.918199E6,8.728464E6,7.263388E6,3.6247588E7,6.082912E7,9.044928E7,6.393907E7,1.6258432E7,1.5165122E8,1.5222048E7,1.5133354E8,3.796174E8,0E0,0E0,0E0,6.621248E6,3.100453E7,5.686067E7,0E0,0E0,3.771792E6,5.1159656E7,0E0,2.7442275E5,6.995712E7,2.606992E6,7.493788E6,0E0,2.4910122E8,3.0307053E8,9.578294E7,8.611348E6,1.8088736E7,1.6508E8,1.8772056E7,2.1118912E7,2.20492E5,0E0,1.1974808E7,6.962843E6,0E0,2.0290285E6,0E0,1.5138034E7,8.350308E6,4.764012E6,5.40024E6,2.975909E6,1.2104249E6,0E0,0E0,5.17768E5,5.32E5,8.46576E5,2.665344E6,6.91912E5,8.08524E5,5.3472E5,7.35312E5,4.160688E6,6.38752E5,1.09952E6,0E0,0E0,0E0,0E0,0E0,0E0,1.6320288E7,8.600832E6,4.885984E6,9.64854E5,0E0,0E0,1.1969911E7,9.416792E6,3.34238E5,2.7137662E5,0E0,0E0,7.029324E6,0E0,8.216355E5,9.360515E5,1.3340928E7,4.9247895E6,0E0,5.668288E6,5.0715464E7,2.9652928E7,2.2982752E7,2.411232E6,1.4578068E6,2.39144E6,7.940192E6,2.0206422E8,0E0,5.64776E5,3.0779456E7,1.8606592E7,8.261645E7,2.1179696E7,7.078544E6,1.8659424E7,8.235872E6,3.0812448E7,1.4141896E7,3.3539204E7,4.560445E7,5.9281664E7,9.89712E5,0E0,1.7820704E7,0E0,5.0180416E7,5.91392E5,2.599808E6,3.63134E5,3.2040294E8,1.3159066E8,0E0,4.023857E6,1.6897392E7,3.646485E5,0E0,1.867136E6,5.082736E6,3.2030512E7,1.1922483E8,7.081363E7,4.86745E5,1.7506656E7,9.803876E7,5.0462988E7,2.149428E6,1.2396256E7,7.60798E5,1.403681E6,0E0,1.714048E6,4.419297E6,3.0884376E7,1.894534E7,1.1520296E7,1.1805363E8,3.6909344E7,7.573709E7,8.679936E6,1.2024378E8,6.77231E7,2.7026812E7,6.9101144E7,0E0,6.90756E5,1.3302578E6,0E0,6.332416E6,8.2075265E6,7.6421275E5,2.7942228E6,0E0,0E0,1.787915E5,0E0,2.38822E5,1.35078E6,0E0,0E0,7.103752E6,3.983258E6,4.8193052E7,5.5586344E7,2.5853376E7,3.8893948E7,3.2666112E7,3.620352E7,1.3407616E7,1.452808E7,0E0,1.40448E7,8.57592E5,3.4547975E6,0E0,1.655136E6,0E0,0E0,0E0,1.823816E6,1.9594588E5,0E0,1.206384E6,8.60881E5,0E0,3.20704E6,4.954368E6,0E0,0E0,0E0,4.18932E5,3.6342E5,5.27968E5,1.989232E6,0E0,2.138156E6,0E0,1.903744E6,0E0,0E0,0E0,0E0,4.0501184E7,6.465434E7,0E0,0E0,3.8528184E7,1.9247488E7,1.27219E7,1.030334E6,0E0,0E0,8.89724E6,8.80312E5,0E0,0E0,0E0,0E0,0E0,0E0,0E0,0E0,0E0,0E0,0E0,1.5676511E6,1.7526272E7,1.2162305E6,2.4130564E7,2.5533888E7,0E0,0E0,3.766458E6,3.615395E6,2.328928E6,0E0,7.48338E5,6.426383E6,3.4165684E7,0E0,4.593235E7,3.2476644E7,9.801472E6,5.6068416E7,2.2330544E7,1.0119296E7,3.2536128E7,7.806002E7,9.473833E7,3.457339E7,6.96288E6,2.95299E6,2.671E7,3.5415864E7,2.1480212E7,9.17111E7,2.405358E6,0E0,2.425975E6,0E0,6.315776E7,2.4142825E6,1.79572E5,1.8602655E6,6.33432E6,1.114996E7,0E0,1.7957625E4,6.170888E6,2.1212416E7,4.056924E6,5.147832E6,8.41702E5,0E0,1.0732558E7,3.5701536E7,1.7413666E8,2.2153638E8,2.0775446E7,2.8195808E7,2.8377285E6,0E0,4.0481368E6,5.07248E6,1.4507104E7,1.3965088E8,3.4571738E5,1.103364E6,0E0,0E0,0E0,0E0,1.0153064E7,0E0,4.62324E5,2.4605375E5,1.023257E6,1.65102E5,1.560113E7,4.573791E6,6.243704E6,0E0,1.6209569E6,2.6482E6,2.262672E6,3.79626E5,2.9516125E5,0E0,1.1116185E6,0E0,1.29369E5,2.1383E5,4.52585E4,5.380725E4,0E0,3.11705E5,2.85684E5,0E0,1.8746E5,2.9568E4,0E0,0E0,0E0,2.4896E5,0E0,0E0,4.025816E6,2.50344E6,0E0,0E0,3.77056E5,0E0,1.1619392E7,8.447136E6,2.839424E6,0E0,3.21312E6,5.060536E6,0E0,0E0,0E0,0E0,4.514985E6,7.6282585E6,0E0,0E0,1.8673956E5,0E0,9.341856E5,1.905748E6,0E0,4.9603805E4,0E0,1.078527E6,1.0661632E7,6.790144E6,7.9591875E4,2.454925E5,9.173936E6,0E0,3.5459904E7,1.5165168E7,9.058432E6,2.1092832E7,1.939732E6,3.94336E6,0E0,0E0,6.448545E5,4.418675E4,1.2468905E6,2.247718E6,0E0,0E0,1.1391495E8,1.0681444E8,0E0,0E0,1.4331456E7,2.0181264E7,3.909472E6,0E0,3.2838912E7,3.1631104E7,8.666688E6,1.481002E7,6.21975E4,0E0,2.0445096E7,8.912E5,1.672632E6,0E0,1.03203E7,2.7480616E7,7.943634E6,1.3525158E7,5.163836E6,1.6927448E7,8.174194E6,6.488832E6,1.824752E7,2.7703848E7,7.237193E4,4.05932E5,5.89715E4,1.852608E6,2.4635072E7,2.9272E7,1.669848E6,0E0,4.28104E5,6.16384E5,0E0,0E0,1.4912205E8,1.1873016E7,8.542333E7,2.6689024E7,0E0,0E0,0E0,2.4050735E6,5.177828E4,0E0,0E0,6.74016E5,1.33912E6,0E0,1.7642452E7,1.2196616E7,1.8191256E7,9.075699E7,2.1238848E7,5.070656E6,0E0,0E0,0E0,0E0,9.387793E7,1.0967485E8,5.7832984E7,1.1433824E7,7.1639E5,5.56168E5,3.640224E6,6.3716E5,0E0,0E0,2.1747205E6,7.493775E4,1.227112E6,1.7295478E6,0E0,1.564169E6,9.25168E5,9.590438E6,6.235698E6,4.8577705E6,4.37988E6,3.903685E6,5.744E6,1.7357744E7,5.705057E6,8.33072E5,4.853504E6,2.2146944E7,2.56448E6,0E0,1.0434696E8,6.381933E7,0E0,7.224432E6,1.0229728E7,2.9401142E6,4.4479736E7,0E0,0E0,2.93326E5,1.3967408E6,0E0,6.875104E5,1.55974E6,3.7115935E6,3.573113E6,2.7421278E6,1.03472175E6,1.9182875E4,2.3982625E5,5.5253453E4,3.2099172E4,1.354245E5,3.1320902E4,0E0,0E0,7.4076E5,1.47662E5,3.449794E6,0E0,6.1055E6,6.135416E6,2.075556E7,1.702567E7,1.1401536E7,2.0179776E7,1.1546035E7,2.3695064E7,1.8157824E7,2.3919488E7,1.3476736E7,2.594008E7,8.140128E6,1.600044E6,2.9482762E5,1.3081072E7,4.843776E6,1.42704E5,0E0,9.514221E5,0E0,0E0,0E0,0E0,0E0,8.27704E5,0E0,7.729884E4,1.099456E6,1.4504E5,1.48315E5,0E0,0E0,9.23712E5,7.3568E5,0E0,7.8138E4,1.847728E6,0E0,1.5306E5,0E0,1.64624E5,0E0,2.492688E6,0E0,0E0,1.329024E6,5.37344E5,1.3881978E7,1.1848832E7,1.2734912E7,5.909848E7,5.839568E6,1.4997312E7,1.1714726E7,1.2818816E7,1.0058876E7,1.0703104E7,0E0,0E0,0E0,2.3433796E7,8.433912E6,2.476824E6,0E0,2.7949725E6,7.886922E6,3.046304E6,3.20353E5,4.239072E4,1.5865452E7,1.0411497E7,2.0047072E7,6.111008E6,1.7663605E6,6.0521735E6,2.2519592E6,0E0,0E0,0E0,2.4302E4,0E0,3.8536E6,1.9043245E6,3.376202E7,0E0,2.3115648E7,5.246797E7,6.4587196E7,6.6847245E6,0E0,0E0,2.279328E7,3.1229888E7,1.3871774E7,5.071168E6,3.4544E6,5.69184E5,5.7511696E7,9.928896E6,0E0,4.1909305E6,5.3004576E7,4.1460096E7,0E0,0E0,0E0,4.571832E6,3.3321148E6,4.0798E5,1.0612312E7,2.0276756E7,1.7829848E7,1.59392E5,1.772868E7,4.944311E6,8.450048E7,4.8342012E7,0E0,0E0,1.600954E6,4.7516385E6,2.6935936E7,2.597056E7,3.753635E5,0E0,2.882973E5,0E0,0E0,3.6234575E5,0E0,5.093592E6,1.1592192E7,3.863234E6,0E0,0E0,6.30795E5,0E0,1.6402784E7,9.290752E6,0E0,2.207596E6,0E0,0E0,0E0,1.23384625E5,4.850965E6,1.714493E6,0E0,5.497768E6,2.176748E6,9.468565E7,2.1591667E8,5.1458624E7,3.0403908E7,2.588014E6,2.8281984E7,2.180474E7,1.635495E5,1.7527324E6,1.37149E6,2.1489065E6,0E0,4.171E5,0E0,3.275968E6,6.5431136E7,2.04928E6,0E0,0E0,0E0,3.19878E5,5.31432E6,1.3396082E6,2.4543312E4,2.5369E4,2.0020643E4,3.8719938E4,8.027253E5,8.3592E4,2.5059584E5,0E0,0E0,1.1620289E7,1.34226E5,1.4859625E6,0E0,1.862676E6,0E0,3.4115575E5,0E0,0E0,1.0271465E6,1.39824E5,1.1223956E5,0E0,2.2768269E5,2.4302377E5,0E0,0E0,2.754125E3,5.09015E4,0E0,1.3122375E4,0E0,0E0,1.5145703E2,9.351192E4,1.33564E5,0E0,0E0,0E0,0E0,1.54497E5,0E0,0E0,0E0,0E0,2.746736E6,1.3552076E6,3.75882E5,2.668704E6,2.1328E5,0E0,0E0,2.6838198E6,0E0,5.511002E6,0E0,6.0928E5,2.210592E6,3.8509865E6,3.49234E6,0E0,0E0,1.276583E6,0E0,0E0,0E0,0E0,2.4501638E5,1.0532532E6,2.039948E6,1.104717E6,0E0,0E0,0E0,0E0,0E0,0E0,6.17536E6,7.4816E4,0E0,0E0,0E0,2.01875E4,8.73832E5,1.2795629E6,9.948847E6,4.792588E6,1.2757538E7,0E0,2.104752E6,1.7663165E6,8.702216E6,1.415048E7,0E0,5.23402E5,1.95392E5,2.209154E6,1.565675E5,1.118065E6,0E0,7.625375E3,1.8973975E6,7.075952E5,0E0,0E0,4.828728E6,5.665235E7,1.9744448E7,1.0277385E8,0E0,7.226855E5,3.703223E6,4.244624E6,7.546624E6,4.655488E6,2.1036992E7,0E0,1.3226855E6,1.4825536E7,2.075904E6,1.435578E6,4.0133338E5,5.301836E6,0E0,0E0,0E0,4.9090938E4,0E0,0E0,9.84608E5,0E0,6.950724E6,3.9089092E6,4.468569E6,1.2713312E7,6.461125E5,0E0,3.86432E6,2.040822E6,1.938144E6,0E0,5.055642E6,6.617888E6,2.099627E6,1.043398E7,1.172064E6,0E0,1.3714288E7,9.055216E6,1.3412772E7,1.5863004E7,0E0,0E0,0E0,9.15813E5,0E0,0E0,0E0,1.743136E6,1.3469984E7,1.954176E6,9.535518E6,1.318264E6,3.40656E5,0E0,0E0,0E0,0E0,2.543232E6,3.2825472E7,7.229594E7,4.932932E6,1.991336E6,1.499264E6,3.024096E7,0E0,1.8943768E7,2.80636E5,0E0,0E0,0E0,0E0,0E0,9.605325E4,0E0,1.1039868E7,2.6628482E6,6.00948E5,3.96528E6,0E0,0E0,7.832064E7,3.1194472E7,1.1917501E7,1.2538464E7,4.475136E6,5.055936E6,6.6609384E7,5.041664E6,8.09677E7,5.4624508E7,1.7099368E7,1.478724E7,7.35864E6,0E0,6.2104344E4,1.81363E5,3.7975E2,5.5107E5,7.76656E5,1.15348E6,8.5734E4,1.1673E4,3.0354962E6,0E0,0E0,0E0,3.602E5,3.30512E5,2.1213512E5,0E0,4.354279E4,1.432649E6,0E0,3.31599E5,8.6616E6,2.6090428E5,2.571849E6,4.2498E4,2.032033E6,6.6314095E6,2.2039512E6,4.251552E6,2.4630925E6,3.25188E5,6.059872E6,3.960816E6,2.665328E6,7.23712E6,6.876057E6,0E0,5.48156E5,4.5174755E6,1.1566505E6,7.396892E6,0E0,3.0481792E7,0E0,0E0,8.537635E7,2.6183872E7,0E0,2.2143096E7,0E0,0E0,8.450124E6,6.884696E6,0E0,0E0,6.625816E6,5.3640308E7,0E0,0E0,6.355719E5,0E0,5.923111E5,1.1611599E6,8.00776E5,1.90386E5,5.839066E6,1.6672542E6,9.0585506E5,1.295258E6,2.461323E6,4.5492494E5,1.3762656E6,0E0,0E0,0E0,1.0502328E6,2.7889075E5,0E0,0E0,0E0,0E0,0E0,0E0,0E0,0E0,6.282E5,2.0073725E6,7.7672875E4,1.5891E5,1.379741E6,0E0,7.046675E6,4.447825E4,0E0,5.309088E6,4.55434E6,4.0992E4,1.5917402E7,1.4316384E7,0E0,1.111104E7,1.817824E7,1.1232262E6,8.82662E5,3.014538E6,1.6023838E7,2.5364104E7,2.0220608E7,1.1351296E7,9.786176E6,2.0317632E7,7.004352E6,8.538336E6,6.690968E6,8.1961305E6,1.224E6,0E0,3.026124E6,0E0,3.0517403E5,0E0,7.141792E6,1.295713E6,3.323584E6,6.42622E5,0E0,6.0677E4,0E0,0E0,3.92588E5,3.1545988E5,0E0,0E0,1.008076E6,0E0,0E0,0E0,0E0,2.574275E5,1.76576E5,0E0,1.298624E6,1.91748E5,0E0,0E0,0E0,0E0,0E0,0E0,0E0,0E0,2.13008E5,4.11008E5,8.3136E5,0E0,0E0,7.648E3,6.667951E6,2.5345948E6,6.175936E6,1.1656784E7,1.1449616E7,1.8569048E7,4.5614816E7,2.570642E7,0E0,2.991944E6,1.0517592E7,3.955375E6,4.864323E6,5.5037E5,1.4861312E7,1.4398608E7,4.119139E6,6.006072E5,0E0,0E0,1.34236E6,1.427357E7,0E0,0E0,8.2356895E6,0E0,0E0,0E0,0E0,2.4690675E5,0E0,3.659584E6,0E0,0E0,1.0938E5,3.8648805E4,0E0,6.14579E5,9.206043E6,9.785434E6,2.309152E6,1.364408E7,3.769496E6,2.933088E6,9.257971E5,0E0,1.6620156E4,1.837143E6,7.2661125E5,3.5331675E5,0E0,0E0,0E0,0E0,1.8889402E6,1.328627E6,2.0199476E7,1.2871061E7,1.4996384E7,2.7090426E7,1.4345632E7,2.9340816E7,2.8510932E7,0E0,8.4324E4,4.7162675E6,5.374724E6,2.9568832E7,1.2030784E7,2.1932E6,8.056331E4,1.9216082E7,6.551936E6,5.69408E5,0E0,0E0,0E0,0E0,0E0,3.3446125E6,5.977735E7,0E0,6.081885E6,4.750797E4,0E0,2.9863668E7,5.859101E6,1.0913808E7,0E0,2.630352E6,1.4416889E6,0E0,3.16846E5,3.14474E5,0E0,2.964936E6,4.9402755E6,2.698754E6,2.313586E6,3.265314E6,0E0,0E0,8.028208E6,5.5823E6,0E0,0E0,1.7488832E7,8.089114E7,1.2570616E7,9.543242E6,0E0,0E0,0E0,0E0,0E0,4.452984E6,2.1138256E7,1.3773952E7,0E0,0E0,0E0,0E0,0E0,1.6205002E4,0E0,2.503228E6,0E0,8.921164E6,5.8829665E6,2.3270885E6,1.2531379E6,0E0,0E0,0E0,7.66336E5,8.086672E6,0E0,0E0,0E0,0E0,3.6531742E4,2.18917E6,9.20234E5,1.0091672E6,2.323425E4,0E0,4.58684E5,0E0,1.0703734E8,1.880064E6,1.6016051E8,5.103331E7,0E0,3.415544E6,2.394784E6,1.0382425E6,1.23767E5,1.5526876E6,8.815456E6,2.4309416E7,0E0,3.403134E6,3.320745E5,4.2985506E5,0E0,1.7381625E5,0E0,7.404265E5,0E0,7.95805E4,0E0,0E0,3.244192E6,0E0,3.369461E7,4.296224E7,0E0,0E0,0E0,0E0,4.203904E6,4.92502E5,0E0,4.0384925E5,0E0,0E0,0E0,0E0,3.4909497E2,0E0,0E0,3.2553312E4,8.627575E4,0E0,0E0,1.16358125E5,0E0,0E0,5.0738444E5,0E0,1.0600744E5,1.529425E5,0E0,1.3886756E5,1.8100631E6,1.26194E6,2.746325E4,0E0,0E0,7.5422E5,1.64784E5,5.17452E5,0E0,0E0,0E0,3.2307312E4,9.829324E4,0E0,0E0,0E0,7.2989625E4,1.990975E4,0E0,0E0,4.1199814E3,0E0,4.0385262E5,4.731403E4,0E0,0E0,4.9149E4,0E0,6.15994E5,2.643064E6,0E0,3.2030094E5,0E0,2.25892E5,2.675194E6,2.45724E6,0E0,3.4875E5,0E0,4.85089E6,3.7026862E6,6.2354E6,0E0,9.54752E5,0E0,0E0,4.6252075E5,0E0,0E0,2.764481E5,7.8931475E5,1.56954E5,5.371914E5,1.7784388E5,1.7119025E6,0E0,2.588238E6,3.458386E6,1.95437E5,0E0,1.3209728E7,2.5564256E7,0E0,0E0,0E0,0E0,0E0,1.628936E6,0E0,0E0,2.128822E6,9.635157E6,6.7425494E5,0E0,1.02033E6,1.0147808E7,3.863555E6,2.989248E6,0E0,0E0,4.918277E6,5.396496E6,3.531338E6,9.197988E6,8.98511E5,1.832449E6,5.42509E5,0E0,7.381414E4,0E0,0E0,0E0,3.3751262E5,3.1472078E5,0E0,0E0,5.83371E4,5.36813E5,0E0,1.2904993E5,3.54128E5,4.963325E4,5.7064E5,1.3882344E7,0E0,3.356112E6,5.722059E7,1.0463775E8,0E0,0E0,4.4125775E6,1.972015E5,4.756656E6,2.936149E6,1.575665E5,0E0,0E0,1.361991E6,0E0,0E0,4.094908E5,4.995285E5,1.0041952E7,8.01752E6,1.527552E6,7.3792E4,0E0,0E0,1.22276625E5,5.344787E5,2.48953E6,9.25686E6,0E0,0E0,0E0,0E0,4.375808E6,4.354643E5,1.5547831E6,1.5974552E6,5.5383125E5,2.012418E6,5.116688E6,4.690736E6,0E0,7.349685E5,7.60953E5,2.468656E6,3.6479103E5,1.029364E6,0E0,2.704192E6,0E0,4.1891725E5,2.36725E5,5.502912E6,2.0201545E6,9.542095E5,1.1766203E5,2.182112E6,4.83072E5,3.13328E6,0E0,2.684976E6,5.765664E6,2.57588E5,1.127784E6,1.712219E6,6.098932E6,7.8039725E6,2.907973E5,0E0,2.453412E6,0E0,6.812768E6,8.490464E6,1.1939488E7,1.1914048E7,0E0,6.518846E6,5.24144E5,0E0,0E0,0E0,5.3152E4,6.409216E6,3.0488672E7,4.189744E6,8.178893E7,8.55424E5,0E0,2.58039E6,0E0,1.291176E6,0E0,0E0,4.4588075E6,9.863312E6,0E0,7.775104E6,0E0,2.70039E5,0E0,0E0,7.999912E6,4.26146E6,7.877456E5,5.0320462E5,0E0,0E0,5.043816E6,2.341509E6,7.039408E6,6.676557E7,1.4167175E7,2.1094E4,0E0,1.3124421E6,7.179312E6,4.50248E5,1.155456E6,0E0,2.613698E6,2.358304E6,4.3394576E7,1.052824E7,6.454345E5,4.78664E6,8.040838E7,3.610227E6,5.634548E6,5.643129E6,6.870668E6,2.2334835E6,1.178848E7,2.5707336E7,5.91844E5,1.627688E6,1.6534062E4,0E0,9.9685E4,0E0,0E0,0E0,0E0,8.4472E4,4.28336E5,3.5216E4,6.74632E5,0E0,0E0,0E0,0E0,0E0,5.269296E5,0E0,0E0,5.133E5,1.114939E6,0E0,0E0,0E0,8.996499E3,0E0,0E0,7.97801E5,1.0467475E5,3.84461E5,2.7385172E5,4.288862E6,1.6315897E5,4.6781406E5,6.294322E6,4.456773E6,5.4596E4,0E0,1.6950702E6,5.5493525E5,2.6842748E6,8.938065E6,1.6529634E6,0E0,6.33224E5,2.15816E5,4.8649088E5,3.250145E5,3.9896075E5,0E0,6.90576E6,0E0,0E0,3.131984E6,3.692764E6,1.6529392E7,4.653248E6,7.338463E6,3.076407E6,5.4650456E5,0E0,4.0306E4,0E0,0E0,0E0,0E0,1.315349E6,0E0,7.914112E6,2.0878464E7,2.0250304E7,1.6156656E8,0E0,0E0,1.144984E6,1.2435814E6,0E0,2.215277E6,6.60944E6,0E0,1.1735165E6,1.591976E6,1.2331184E7,1.7675972E7,5.042353E4,8.1865E4,0E0,5.1002844E5,0E0,1.2424212E6,0E0,2.32032E5,0E0,4.5403688E5,0E0,3.370906E6,0E0,0E0,0E0,0E0,2.881268E6,2.898461E4,1.1186136E6,0E0,0E0,2.4310861E5,0E0,6.3131544E5,0E0,0E0,5.5506825E5,0E0,6.46696E5,1.35388E5,0E0,2.0881688E5,0E0,3.8728375E4,3.5982E4,1.5878022E5,1.8766245E6,1.6176347E5,4.0656775E6,5.06344E6,1.0283875E4,0E0,6.3256E5,2.3523218E6,1.5884492E7,8.60848E5,0E0,0E0,1.104463E7,1.0605438E7,2.6617334E7,0E0,6.755616E6,1.0642404E7,1.0742496E7,7.988057E6,1.2059184E5,5.433514E5,0E0,0E0,2.925176E4,2.814534E6,1.1759028E7,1.002634E6,7.373024E6,2.0448552E6,4.1334025E6,1.023808E7,6.834055E6,1.1609856E7,6.584184E6,4.326112E6,1.971536E6,1.7000816E7,3.9555338E5,2.304936E6,1.1380992E7,7.96216E5,1.0596452E6,2.48592E6,7.87353E6,1.7931E6,4.20416E5,1.940896E6,0E0,6.640226E4,0E0,1.52359375E4,3.723168E6,1.7724E4,7.2235975E5,0E0,2.066556E6,8.88896E5,0E0,0E0,0E0,1.1453006E5,1.48992E5,0E0,0E0,0E0,0E0,0E0,0E0,0E0,0E0,0E0,0E0,0E0,0E0,0E0,0E0,0E0,0E0,0E0,0E0,0E0,0E0,0E0,3.95403E6,0E0,0E0,4.7380362E5,6.10736E6,8.31095E6,0E0,3.72528E6,0E0,5.013336E6,0E0,1.987079E6,3.2108112E7,2.9470212E7,4.1128005E6,1.6087974E7,3.417884E6,0E0,1.4473018E6,2.874328E6,2.991917E6,0E0,1.7268822E6,0E0,1.93904E5,0E0,9.996928E6,2.9857568E7,6.355793E6,8.403808E6,0E0,0E0,0E0,0E0,0E0,0E0,0E0,0E0,0E0,0E0,1.814064E6,4.3997675E6,0E0,0E0,0E0,0E0,0E0,0E0,1.96975E4,1.137826E6,6.64478E6,6.5760665E6,2.710904E6,4.1764058E6,4.068E4,0E0,5.868176E6,1.0095312E7,3.640216E6,0E0,0E0,0E0,4.02285E5,0E0,0E0,0E0,0E0,0E0,1.0772464E5,0E0,0E0,0E0,4.031537E5,0E0,4.476999E6,0E0,4.91112E6,7.954164E6,3.740249E6,3.446698E6,1.0281984E7,1.9409224E7,1.005714E7,6.954677E6,1.2091072E7,0E0,8.459968E6,8.654016E6,2.6068515E6,2.3271552E7,0E0,0E0,1.4840205E6,1.2591089E7,7.171005E5,4.50956E6,6.30784E6,4.167384E6,6.967616E6,3.302982E6,0E0,1.856352E6,0E0,2.0044184E4,4.45233E6,0E0,0E0,5.513216E6,0E0,3.1014E5,3.797479E6,0E0,0E0,3.72048E4,0E0,0E0,0E0,0E0,9.352432E6,1.6813456E7,1.4356912E7,1.111899E7,2.069776E6,7.623342E5,1.732464E6,6.03608E5,0E0,1.4652906E6,0E0,1.9251812E5,0E0,3.6685925E5,1.9946E5,4.71954E6,6.3040675E5,2.8200062E6,8.6583975E5,4.9098E5,1.938903E6,1.429854E6,3.8931453E5,1.4379415E6,3.862892E6,0E0,0E0,1.2577895E6,8.062464E6,1.1527536E7,5.0519456E7,1.4651968E7,6.878468E6,0E0,3.7309195E6,1.662964E6,0E0,0E0,3.698557E6,1.434152E7,1.3952384E7,2.8109275E6,0E0,0E0,3.507287E6,0E0,2.6733755E6,5.426776E6,0E0,4.5125912E5,0E0,7.615389E5,0E0,0E0,0E0,0E0,1.029056E6,4.641647E5,0E0,0E0,0E0,7.20179E5,0E0,0E0,0E0,5.6351734E4,0E0,0E0,0E0,2.3181E4,1.0102483E7,2.952544E6,2.4391945E6,3.17138E5,2.9654528E7,1.11672E8,0E0,0E0,9.40095E5,0E0,0E0,1.1650912E7,0E0,5.6375156E5,1.4034275E5,0E0,0E0,0E0,2.865216E6,0E0,5.649902E6,1.001208E7,3.618352E6,4.8403265E6,0E0,2.47375E5,0E0,0E0,0E0,8.141853E4,0E0,