{"learner":{"attributes":{"scikit_learn":"{\"_estimator_type\": \"regressor\"}"},"feature_names":[],"feature_types":[],"gradient_booster":{"model":{"gbtree_model_param":{"num_parallel_tree":"1","num_trees":"6"},"iteration_indptr":[0,1,2,3,4,5,6],"tree_info":[0,0,0,0,0,0],"trees":[{"base_weights":[8.3243714E-5,1.678157E5,-1.2973789E3,4.1449253E5,-1.4246079E3,-1.4670604E3,4.2431543E4,7.830167E5,3.3559225E5,-1.0832583E2,-2.2111746E3,-4.634572E2,-2.077327E3,3.2565344E5,6.399504E3,3.0250644E5,5.6821594E5,3.785742E5,1.2999125E5,-1.0490723E3,4.652676E2,-2.3838261E2,-2.6007075E3,1.5130481E2,-2.6344678E3,-8.2196246E2,-2.340376E3,1.28490625E5,4.2934706E5,2.436234E3,1.4101534E5,1.8510127E5,1.0381202E5,3.9875088E5,1.00594875E5,1.5293062E5,4.3707725E3,-5.369406E2,-2.098963E3,-5.499739E2,7.19346E2,-6.123228E2,-7.176081E0,-1.6803783E3,-2.9525059E3,4.2145E2,-1.7036616E3,-1.3422223E3,-2.9677607E3,-7.5232254E1,-1.8515839E3,-2.4975361E3,-2.418852E2,1.7769375E5,-5.934169E2,4.3776512E5,3.764026E0,-3.9761196E1,8.4283836E4,1.05915875E5,5.575486E3,4.1219353E5,9.9050934E2,4.6543438E3,5.5029918E4,9.4953836E4,1.8847472E5,2.624717E3,-1.2573771E3,3.079098E2,-1.0302756E3,-6.6924567E2,-3.927505E2,-7.0989166E2,-2.2288924E2,1.0391276E3,3.128654E2,5.3644214E2,-3.8871277E2,-1.0435065E3,-2.1729065E3,-3.1108835E3,-1.1361952E3,1.2551068E3,-1.353814E2,-1.3231335E3,-2.7964736E3,-1.5598699E3,-3.6901212E2,-3.169065E3,-2.6107979E3,-3.5733087E2,2.1480269E3,-1.8767426E3,3.3748835E3,5.430788E2,-2.5872715E3,2.0640442E3,-9.378802E2,5.649634E4,1.534673E4,-1.4393057E3,9.2605414E2,8.454388E4,4.5617088E5,2.2811992E4,-1.6368555E3,1.1705454E5,-7.6665546E2,6.102503E3,-3.325598E1,3.6775738E5,5.469094E5,-5.800044E2,1.328785E3,9.425534E3,1.8033141E3,1.3665962E5,2.0468741E3,1.929675E5,-3.325598E1,-6.10239E2,-4.9883976E1,6.762527E2,-1.300728E2,-8.5980206E2,-6.010046E2,-1.1679727E2,-3.9468134E2,1.5261414E3,8.73445E2,-2.1461148E2,4.9605774E2,1.6153674E2,7.720538E2,-2.9990277E2,-2.1770372E2,-5.838878E2,-7.1419684E2,-8.8534814E2,-1.9909792E3,-1.0381431E3,-2.7350142E3,-7.5136816E2,-1.8394737E2,1.7714381E3,2.0669888E2,-9.7654877E2,3.7201608E2,-1.9340345E3,-7.988608E2,-2.798495E2,-2.9569084E3,-2.7049624E3,-1.4351049E3,1.00834064E3,-5.026182E2,-3.2341162E3,-2.8989832E3,-2.6829893E3,-6.142065E2,5.567795E3,-3.9379028E2,9.13859E3,1.5182407E3,-2.0026606E3,-1.4484933E3,1.6017592E3,1.8669922E3,4.282314E3,-9.814736E2,-2.7045378E3,-1.8809679E3,1.5428597E3,4.902924E3,-2.1486614E3,-4.907498E2,-4.785492E1,-6.793816E2,5.0549597E5,1.0705213E5,1.2480583E4,3.3027504E4,4.4387017E3,-2.7078237E3,1.6669498E5,5.069202E4,-5.56966E2,-5.320957E1,2.826275E3,2.2712642E3,4.0706472E5,2.7892466E5,1.065808E5,5.995993E5,-3.325598E1,-2.27746E2,6.308941E2,-2.0845215E1,3.201531E3,6.66089E2,1.495612E2,1.0281465E3,5.1564953E4,7.451051E4,-5.5426636E1,1.2946365E3,1.4600784E5,2.1123275E5,1.0503095E2,3.2764978E2,-3.7175604E2,1.8824854E2,-1.011187E3,-5.127561E2,-2.3370898E2,-2.4606348E1,1.7140465E3,-5.179131E1,9.978219E2,-1.5835076E1,3.8089355E2,-5.7226245E2,2.5198138E2,5.857726E2,6.351319E1,-2.790132E1,5.410082E2,3.371555E2,-3.7587296E2,1.5631902E2,-2.2861781E2,-1.900617E3,-6.8580194E2,-4.289419E2,-2.80779E2,-2.766432E3,3.2147406E2,-7.927307E2,2.1004832E3,4.516801E2,-2.167666E3,3.8762976E2,-3.9124747E2,-1.7792051E3,1.662629E3,5.8439182E1,8.616862E2,-2.0166399E3,-3.2371814E2,-1.7802107E3,-3.3572037E1,-1.4956895E3,-3.3947278E3,-2.245966E3,-6.893661E2,-8.472566E2,-1.7810662E3,-1.2240231E3,1.1148436E3,-1.5653398E2,-3.76629E2,-1.6365469E3,-3.3940203E3,-3.1411565E3,-9.488948E2,-2.772872E3,-2.282403E3,-2.83904E3,-2.0774146E3,6.797655E1,-1.635412E3,8.108811E3,-2.0540244E2,-1.2237197E3,1.3933916E4,6.2539375E3,2.0724402E2,3.357486E3,-2.0521702E3,-8.1376196E2,-8.310672E2,-1.6615358E3,2.368225E3,3.4128494E2,1.0301257E4,1.7129161E3,6.1216907E2,-1.9662957E3,-2.5915935E3,-3.1675854E3,-2.0169393E3,3.99004E3,1.7703843E3,-1.1396342E3,3.359915E3,6.9168174E3,-1.6999442E3,-2.8071711E3,-2.5768647E3,-2.1270709E2,3.779901E1,-4.4341312E1,1.0762552E5,1.7121392E5,2.224128E4,1.4842605E3,8.237434E3,2.2859626E3,-1.668721E3,-8.761164E2,7.9371375E4,2.2389066E4,1.641171E3,2.4972143E4,1.0764811E3,-3.325598E1,1.4457308E5,3.6728356E5,-6.926713E2,2.856482E5,6.073873E5,1.4006805E4,1.03116035E2,-2.2186598E2,1.00558525E2,-4.4341312E1,-3.325598E1,2.5155611E4,-4.4341312E1,5.055141E4,1.7938017E5,8.053251E4,-2.0611507E2,-3.29071E2,-3.7011362E2,-6.9157947E2,-2.96981E2,-2.784196E2,-5.0729156E1,9.939826E1,3.7550323E2,6.580033E2,7.273836E1,1.0620826E3,-1.1439281E3,1.4239426E2,1.0134531E1,1.253816E2,4.3129367E2,1.1111567E3,6.9350784E1,2.453469E2,-3.2677164E2,-1.642335E2,-2.0824232E2,6.2497406E2,-3.385126E2,2.1230853E2,-3.7047162E2,-7.27209E2,-7.6159937E2,-9.184641E2,-1.2715577E1,5.7111115E2,-4.0936273E2,-5.2144604E2,1.5480306E3,3.049891E3,-3.4099777E2,1.1333773E3,-2.4317542E3,-3.505169E2,-5.657949E1,1.2478337E3,-1.6743638E3,-1.48971E2,7.055314E2,-1.9747972E3,1.2712856E3,3.9797227E3,4.544173E2,-2.0902417E2,9.173729E2,1.3336125E2,-1.9292834E3,-3.5314675E3,-4.4039966E2,4.4596255E3,4.2607204E1,-1.9949819E3,4.13987E2,-2.5313268E2,-3.0983276E2,-5.531551E2,-3.4169688E3,9.931973E1,-1.7218608E3,-2.6747605E3,-1.8683964E3,-3.004513E2,-1.1474325E3,-1.6489835E3,8.711137E2,1.4410043E3,-4.034669E2,1.0488608E3,-3.137943E2,-1.7694796E3,-3.2538455E3,-1.0579308E3,8.3675476E2,-3.1453955E3,-6.8693567E2,-2.8211084E3,-2.3343606E3,-3.686947E2,-9.204158E2,-2.8514622E3,-8.001542E2,-1.2947584E3,6.2832336E2,-2.2917787E2,-6.934131E1,-5.421718E2,1.2498505E4,6.855757E3,-2.2334348E3,-1.3690683E2,-1.3482284E1,-1.5117859E3,2.9055615E3,4.9405337E3,7.1694424E3,-1.5085308E3,-1.2103514E3,1.4365437E3,7.7752246E3,2.221947E3,-2.3629216E3,-1.8749603E3,-1.1647341E3,1.3634214E3,-1.2867878E3,-2.8497845E2,-1.7767369E3,-6.9505786E2,3.404901E1,2.5109739E3,5.880818E2,-2.3762988E2,1.3303955E4,4.3189624E3,-1.3977498E3,2.3738354E3,1.7029385E3,-1.1279243E3,-2.0940842E3,6.6985815E2,-3.0861326E3,-2.4934326E3,-3.1729531E3,1.0121895E4,-2.0505693E3,5.781884E3,1.1407212E4,-2.4955928E3,-9.045505E2,1.8014072E3,-2.4983896E3,-1.6951143E2,1.7956499E3,4.38059E3,7.0102803E3,-3.64426E2,-1.8794647E3,-1.2790094E3,-2.9430127E3,-6.8616425E2,-2.7627537E3,5.5991376E2,-2.4632341E2,3.5682383E3,1.1012207E4,5.551074E3,9.4218545E3,-1.4566133E3,1.3565102E2,2.7257148E3,4.1382456E3,4.825972E2,-8.1092035E2,-1.4558304E3,3.878441E5,2.7407822E5,2.936538E5,1.563663E4,1.894467E5,1.1617673E5,5.3210684E3,5.8638523E4,-1.185498E1,-8.324422E1,-2.700856E2,-1.6015271E2,-9.738996E1,1.0790039E0,1.1849564E3,5.739555E2,-1.02826E2,-3.6036923E2,1.2845853E2,-3.4417576E1,4.8376407E2,1.8508419E1,4.5247787E2,6.174388E2,-1.18953835E2,-1.6726598E2,-2.5348589E2,3.6629005E1,-5.898158E2,1.2947731E2,1.873124E2,4.571902E1,7.009562E1,-6.1516516E2,1.3109956E3,3.1063447E3,2.6800017E3,4.536844E3,-1.4434641E3,9.0923416E1,1.539878E3,-3.83264E2,-1.7809253E3,-2.7464404E3,2.0569233E3,-1.3401747E3,-6.047852E2,6.228292E2,3.8920754E3,1.0114159E3,-6.273002E2,-1.8981389E3,-3.2731537E2,9.840583E2,1.2638628E3,-5.884109E2,-1.6801696E3,-2.440963E3,-1.0284072E3,1.5426399E3,4.997335E3,-1.2956656E3,9.112558E2,-2.7427847E2,5.9102856E2,-4.681899E2,6.174994E2,3.0443158E2,2.4093481E2,-6.067599E1,-2.5237825E3,-1.7588845E3,-4.0364362E2,-1.1139033E3,-5.3923047E2,2.0482124E3,1.3920995E3,1.9018416E3,2.8261276E2,-9.99784E2,-2.0319185E3,4.2695347E3,1.5753148E2,6.8485886E1,6.7408325E1,-3.0934464E2,-2.929277E3,-3.5600376E3,-2.0896963E3,-1.1388705E3,-7.295599E2,-3.2063508E3,-1.7526992E3,-2.2878687E3,-9.985749E2,-1.2403523E3,-3.4831262E2,-1.7122118E3,6.940462E2,3.4675323E2,4.5676404E2,1.4957867E2,-1.1415029E3,-3.5345193E2,3.9384836E2,1.1720853E2,-1.3719773E3,-2.7288516E3,-8.9896344E2,-9.8680133E2,4.0930402E2,1.0913105E2,-3.1470503E3,-2.1771147E2,-2.8410664E3,-2.0454396E3,-2.192533E3,-2.7066772E3,-7.3362177E2,6.1844345E1,-9.356886E2,-2.8122834E3,-8.324559E2,-1.5324918E3,2.902357E2,7.601976E2,-7.1117444E2,-8.094153E0,5.268703E3,5.3343604E2,4.4594907E2,2.088209E3,-2.3066343E3,8.253802E2,-2.3641454E2,9.1036127E2,5.228989E2,-1.370079E3,-2.0362367E3,-8.233375E2,5.948367E3,9.375229E3,-7.733056E2,2.0504504E2,-1.7288016E3,1.4438652E3,3.7933281E3,8.345323E2,1.2366349E4,5.818032E3,4.965668E3,1.9940306E3,2.8214692E3,-2.3806433E3,-2.6247395E3,-1.7985408E3,-1.3258628E3,-1.7163446E2,7.232799E2,2.992833E2,-1.7993406E3,-1.0097412E3,2.043476E2,-8.791065E2,-1.5396532E3,-2.03862E3,-1.0452317E3,1.7229814E2,9.6708844E2,1.8322842E3,1.1249956E3,2.216112E2,-6.2409673E0,-9.089131E1,1.5054616E4,3.4394067E3,-1.5609634E3,6.525619E3,1.1736649E3,-1.9635052E3,1.8370664E3,4.4433774E3,2.0105905E3,-9.647905E2,-1.3812275E3,5.12904E2,-2.5060645E3,-1.2992169E3,-3.1097937E3,-1.2206748E3,-2.4974668E3,7.0035557E3,-3.3696594E3,-2.9879495E3,-7.046614E2,5.0833486E3,-1.6379503E3,-2.5015889E3,1.8798817E3,2.7542117E3,1.4547649E3,1.4991557E4,1.0214086E3,-2.6421592E3,1.845348E3,-8.328362E2,-8.764806E2,-5.660329E2,-5.942384E2,5.329428E2,2.5118472E3,1.4898302E3,2.3061038E3,4.979124E3,7.1346016E3,2.24292E3,-1.788046E3,-2.8489724E3,-1.3368157E3,5.2891644E2,-6.258197E2,-2.992876E3,-3.0837703E3,-1.50661E3,-1.8283163E2,8.827238E2,-6.254871E2,2.0203824E2,1.0238946E3,9.873475E3,3.935689E3,7.752388E2,-8.986255E2,5.1010867E2,4.610875E3,6.387541E2,1.2452992E3,2.0333301E2,-1.7442168E2,-4.5828055E2,3.9406175E5,1.4010506E5,2.8482962E5,7.93934E2,2.2546269E5,3.1680784E5,4.5208668E1,-7.4925995E1,1.3460436E3,1.5562924E2,8.134053E2,2.8154785E1,3.8623828E2,6.109341E2,3.784402E1,1.4775443E2,6.7857945E-1,-2.7853912E2,-1.4322101E2,-1.7556136E2,-1.8219788E2,-3.5940968E1,-3.7329324E2,2.7240445E2,-6.855982E0,3.8399014E1,-2.0495396E2,-5.146597E1,1.0835848E3,3.011956E3,3.5071854E2,3.4730422E3,1.6584615E3,3.125816E3,4.895452E3,8.723443E2,-1.6509026E3,1.1367257E3,-2.4493174E3,3.005808E2,1.1911636E3,2.0835574E3,2.9064865E2,-7.288439E2,-1.9441361E3,1.31785E2,-2.874479E3,-1.9074415E3,1.2303435E3,3.977811E2,-6.9828613E2,-2.3957654E2,3.6477066E2,-9.265676E2,4.1448276E2,2.9429314E3,4.145091E3,-4.3949423E2,8.183121E2,2.56669E3,-4.1808167E2,-6.365205E2,3.8346982E2,-1.9685549E3,1.0790751E3,-4.107525E2,1.0347511E3,7.897258E2,2.9525442E3,7.057872E2,-1.8309028E3,4.346594E2,-2.690384E3,-1.9026884E3,-4.5584396E2,-3.029921E3,1.4837761E3,7.6192495E3,7.0291523E3,3.2580674E3,6.465063E2,-2.076984E3,2.4168574E3,8.3757214E2,-1.00900104E3,1.0313193E2,-8.03103E2,1.1227518E3,2.5113026E1,-1.0474468E3,4.7684036E1,1.9053699E2,1.3518872E2,-1.4721314E1,-2.1131326E3,-2.7897092E3,-1.8267028E3,-5.55346E2,4.9023354E3,-5.7683765E2,3.1035295E3,-6.924912E2,-1.4844098E2,1.5321998E3,-9.0647224E1,8.8285034E2,-3.6353113E2,-2.0626529E2,-3.233661E2,-2.1611267E3,2.3481387E3,-2.1337132E2,-2.3269177E2,-1.4947183E2,-2.9752176E2,-2.992633E3,-3.5817964E3,-7.1029065E2,-1.7470443E3,-2.2391426E3,-1.3833853E3,-5.474407E2,-8.5811584E2,-1.0495038E3,-1.7749268E3,-1.1783293E3,-8.356475E2,-2.107786E3,-4.5564713E2,-9.4046295E2,-8.7162195E2,-1.2621909E3,-4.905682E2,-6.349219E2,2.4574152E2,-4.2379883E1,-3.8763193E2,-4.8055565E1,-3.1348206E2,-5.9402936E2,-4.6232138E2,-2.9274683E2,-2.24401E2,-8.556408E2,-1.0275681E3,-3.1255352E3,-7.603251E2,-8.689485E2,-4.5899258E2,-2.3558127E3,-2.2349885E3,-5.271854E2,-7.4271124E2,-8.5228156E2,-2.8615916E3,-2.5105762E3,-1.1925452E3,-3.936388E2,-6.141617E2,-3.0572174E2,1.4138873E2,2.0689409E2,1.7249012E1,2.3580173E2,-2.5453873E2,-2.9577704E2,-6.272052E2,6.0875835E1,-1.8327217E3,-2.4975718E3,-4.2627145E2,8.595961E2,-1.1745723E2,-1.5128019E3,3.3530722E2,2.4410354E3,3.12073E2,3.9174739E3,-1.7566398E3,-8.6129553E2,-2.0785632E3,2.694319E3,-1.5119524E3,-3.538834E2,1.8410265E3,7.873486E2,2.567245E3,1.0425623E4,6.2840333E0,7.782866E1,-2.0876423E3,-4.4404645E2,2.5326543E3,-3.3584433E2,2.665528E3,2.1649832E3,3.996911E3,2.5164806E2,7.923876E3,4.286234E3,-1.2113414E2,6.359792E3,1.4219755E3,5.495371E3,9.508741E2,5.7704006E1,-1.5246426E3,-2.456825E3,-1.024237E3,-2.7418215E3,-1.6122316E3,-2.1068618E3,-7.2008185E2,-1.2267605E3,-4.082312E2,2.0556317E2,-3.0095398E2,6.0619385E2,-1.2671835E3,-6.2836096E2,4.247373E2,-1.0638226E3,-1.1633773E2,7.962192E2,-3.321029E2,-1.0872175E3,-9.3540393E2,-1.667486E3,-1.012302E3,-2.166445E3,-1.2648552E3,-3.804063E2,5.9116566E-1,1.8892202E3,1.3389944E3,7.6108875E2,4.0529007E1,4.6571902E2,1.09948524E2,-1.36313E1,6.4947847E3,1.2260662E4,2.2520627E3,5.3841694E3,-7.693559E2,2.4375261E2,3.969948E3,1.0062507E4,-2.637796E3,-4.0973322E2,6.272295E2,2.0563772E3,7.7678193E3,1.093505E3,2.7828474E3,1.3666567E3,-3.499322E2,4.02996E2,-8.5914484E2,-1.0645612E3,-9.8294556E2,-2.565445E3,5.0904758E2,-1.4586025E3,-5.042477E2,-3.117389E3,3.7277603E2,-2.5580781E3,-2.5149707E3,-2.8303986E2,-6.5483386E2,7.7064155E3,-3.3917925E3,-2.5426445E3,-3.0048042E3,8.453815E2,-1.65426E3,5.6193047E3,-2.5875156E3,-9.583354E2,-1.5657628E3,3.0503884E3,-7.2550903E2,3.8533572E3,2.4281367E3,5.09338E3,-6.501615E2,-8.924526E2,-6.543475E1,1.8789869E3,-1.5291976E3,1.881831E2,-8.6673004E1,-1.2910348E3,3.4880942E3,4.6612793E2,3.880938E2,2.1794177E3,9.568073E2,1.1039142E3,5.116175E3,5.138536E2,7.521236E3,1.756096E3,2.6067868E2,9.54734E2,-1.425808E3,-2.0218966E3,-2.89089E2,-8.8668536E2,-1.3626166E3,3.492787E2,-8.9960187E2,-3.6496133E2,-3.1942632E3,-1.9363934E3,8.907213E2,-1.8381305E3,4.591523E2,4.0482162E2,-2.3886626E3,-5.002406E2,3.1315402E2,-2.2268125E3,3.8190448E2,-3.325598E1,-3.325598E1,3.719181E3,4.457587E2,-5.320957E1,1.0380933E3,1.6591394E3,-7.036619E1,7.889609E2,1.4510433E5,1.0980912E5,6.3970574E4,4.464993E4,1.4397255E5,7.701155E4,1.0037509E5,8.814708E4,7.753356E4,1.0358846E5,4.7556674E2,3.3674814E2,4.6335602E2,1.9042793E2,-2.2941098E2,4.175451E2,1.5274493E2,7.109824E1,1.0571241E2,2.1737337E2,5.8794727E1,-3.1683567E1,-2.1990967E1,-8.850922E1,2.8094019E1,-6.627547E1,6.156451E2,-3.269356E2,1.4238358E3,4.4138696E2,1.8422028E3,2.6136626E3,-2.572015E2,8.385777E2,2.0756301E3,3.303144E3,-7.476482E1,1.9515292E3,3.8414863E3,2.523581E3,5.0235024E3,1.0637981E3,-1.7706073E2,9.0807086E2,-1.2061049E3,-2.2696953E3,1.9559358E3,-1.2492343E3,-1.8168829E3,-8.764271E2,5.7491284E2,-8.852394E2,-1.1577614E3,1.2220925E3,2.2350037E3,-7.302971E2,2.5527061E2,1.0749223E2,-1.0700048E3,-5.745869E2,-6.7353314E2,-1.6898153E3,7.8322406E2,-1.1315576E2,-2.6185632E3,-9.340245E2,-6.0768726E2,-1.27808975E2,7.437526E2,-7.606704E2,-1.4940193E3,-4.819045E2,1.197802E3,1.789597E1,1.6490714E3,3.5187727E3,1.3359264E3,2.9706707E3,9.4493494E2,-1.8571818E3,5.064424E3,1.5033353E3,-9.218842E2,2.9380117E1,-2.045457E3,-6.5848865E2,3.4183264E2,1.498869E3,-2.77302E2,-1.8955999E3,-4.1853384E2,9.6671014E2,6.8936255E2,1.0357373E3,9.682501E2,9.883483E1,-2.4052197E3,-1.5341523E3,-2.2429314E3,1.047956E3,-2.126872E3,-2.7777646E3,-2.0017786E3,5.0474146E2,5.738301E2,-1.0869952E3,-6.9107996E2,-9.567053E2,2.1868267E3,1.0442117E3,3.058061E3,2.5819932E3,2.5920256E3,6.279427E3,2.5224111E3,4.448716E3,1.1821201E3,-1.1573555E3,-1.2761184E3,-9.04075E2,4.232215E3,8.599059E2,7.420707E2,1.6521261E3,-1.0837349E3,5.7227655E2,3.073898E2,-1.5041595E3,-1.1330836E3,-4.861485E2,2.7975279E1,1.7985243E3,6.094948E2,-2.2645569E2,-1.1989835E3,1.1342946E3,-2.500068E3,-1.6071414E3,-2.8948352E3,-2.386128E3,-1.4569011E3,-1.9873607E3,-2.190706E3,-3.031002E2,6.916778E3,2.4753372E3,-1.1900493E3,-2.9643942E2,1.7582543E3,1.6192349E3,7.886586E1,-3.0861182E2,4.743788E2,1.1207901E2,-5.7309686E2,4.7752605E1,1.0156271E3,3.0149445E2,7.0190187E0,-8.085899E1,-9.9409515E2,2.7124847E2,-2.5133413E3,-1.6385151E3,-2.9771262E2,-4.0677246E-1,-6.509807E2,-3.0442446E3,-1.077316E3,-1.4510052E3,-3.1120798E2,-5.728885E2,-7.306845E2,-6.057692E2,-5.1262585E2,-1.4865431E3,-2.150369E2,-1.6312267E2,-1.6269009E3,-5.5946735E2,-1.4853157E2,-3.8401416E2,-6.400845E2,-3.7068164E2,-3.797409E2,-9.742211E2,-2.481299E0,-9.1158545E2,-1.2504978E3,-5.359888E2,-1.05585976E2,5.3438698E1,-3.2298904E2,-9.371796E1,-7.4988495E2,-2.3703122E2,-9.427244E2,-8.777499E2,-1.9311098E2,-7.2963824E2,-7.354053E2,-2.1806914E3,-6.8172925E2,-2.875791E3,-7.552796E2,-2.3737132E2,-5.602599E1,-4.191915E2,-1.4051318E1,-5.553299E2,8.106603E1,4.234545E1,-3.4121315E1,-1.0375357E2,-2.0771397E2,-5.497599E1,8.7371185E1,1.7967993E1,-5.817696E2,-1.142806E3,-6.4021924E2,-7.809831E2,-2.2372556E2,6.3301996E2,-1.2557747E2,-1.8572524E3,-3.832024E2,8.8818854E2,1.6183885E3,2.0170977E3,-7.4451E2,6.162835E2,1.4515455E3,1.1077549E3,-7.984888E2,-5.5002423E2,-9.767844E2,7.142786E1,-2.161078E3,-9.412708E2,3.4171445E3,3.5056235E2,-1.7891893E3,-2.5899008E2,-4.3711464E1,-1.1709374E3,1.0118187E3,2.2619019E1,6.3992827E3,3.9880684E3,-7.51223E2,-2.2976143E3,-1.8673503E3,-1.8916606E2,-1.1080882E2,3.191227E3,-5.3623926E2,-1.8535782E1,1.4476123E2,2.900605E3,3.012783E3,1.5677643E3,-4.8422815E2,4.469382E2,3.8007434E3,1.8579612E3,-5.4386523E2,1.8713872E2,5.72621E3,1.1741244E4,1.0903273E3,5.1525566E3,4.9944785E3,4.746255E3,-2.1448281E3,-1.2122573E3,-2.4793875E3,5.5809505E1,-1.6722507E2,-3.6022354E2,-2.8040083E3,-1.3344937E3,-1.6501451E3,1.196557E3,-2.1976848E3,-1.429549E3,-1.4391896E3,-7.811098E2,1.1483852E2,-5.7034143E2,-1.3783133E2,3.682395E2,4.9936642E2,3.4408203E1,-4.6297293E2,-8.841062E2,5.648088E2,-1.6049557E2,-1.1854703E3,-2.8961044E2,5.261046E1,-7.9541864E2,2.9641412E2,9.198024E2,-2.4605774E1,-4.2882443E2,-8.019642E2,-4.520494E2,-1.3212705E3,-2.4062732E2,-1.259025E3,-1.7527742E3,1.265947E2,-1.0866223E3,-3.834333E2,-2.1992908E3,-2.724242E2,-1.4607584E3,-1.1818343E2,-4.08813E1,-1.4451207E2,7.260229E2,-2.6160975E1,7.731287E2,1.4035358E2,5.304345E2,3.4382969E3,1.8006572E4,2.7519248E3,6.4495056E1,2.2235984E3,-1.3986131E2,3.7894016E3,6.930497E2,3.9531245E3,-1.3176164E2,-2.7197761E3,2.92964E2,1.2009275E3,-1.1923005E3,4.811875E2,5.798985E2,2.8471978E3,1.6564113E3,6.5687437E3,5.344986E3,-2.0615633E2,1.6374495E3,4.349948E2,2.9214666E3,-1.5077742E2,1.6978087E3,-2.024538E2,-3.5373547E2,3.912087E2,-1.2090216E3,-2.4297358E3,-8.794427E2,-2.3313638E3,-1.2693394E3,-6.167265E2,-2.4616016E2,-2.3982468E3,-3.1413652E3,5.785236E2,-2.8792297E2,-2.3108247E3,-9.1832874E2,1.1529994E4,-2.5166587E3,-1.9275671E3,3.7789736E3,-3.4779792E3,-3.2495657E3,-2.2253015E3,-9.268174E2,-3.3396196E3,-2.8478528E3,-2.2493098E3,5.5876543E3,-2.4779292E3,-1.3572782E3,-2.6707178E3,-7.5022034E2,-1.8830239E3,-7.365768E2,-6.3016956E2,-1.525044E2,8.3887415E2,4.9568643E3,2.0496548E3,4.9894745E2,2.6431934E3,-1.13515045E2,7.1270105E2,-6.042673E2,2.9322573E3,1.8207366E3,-2.8373798E2,-6.4704156E2,5.323636E2,-2.7022665E2,-3.750216E2,1.9600967E2,-1.5177969E3,-2.840718E2,1.1406058E3,4.4647873E2,2.8258405E2,1.825748E2,2.8219385E2,2.364687E2,7.718832E2,1.3318341E3,3.9540695E2,4.53245E2,1.6038344E3,7.9329694E2,8.174248E3,1.8229886E3,-3.9648236E2,-5.1109268E2,-6.589672E2,-1.7932568E3,-1.4138113E3,-1.466275E1,-2.707661E3,-1.01570905E3,-1.5388623E3,-9.2385596E2,7.3121405E2,-1.4527452E3,-2.1098608E3,4.9152335E2,7.930185E1,3.90314E2,-2.6077603E3,1.3955372E3,6.379952E2,-7.4353687E2,1.9545584E2,2.0286233E3,1.948487E2,-2.3284333E3,-1.3197838E2,3.2276236E2,-4.9883976E1,3.882884E2,-3.325598E1,2.0125727E4,-5.320957E1,5.023189E4,2.4940445E1,1.09034035E2,3.187587E2,-2.2761098E2,4.8135133E0,3.446902E1,-3.1815968E1,-9.130707E0,-3.9405983E1,2.725287E2,-2.8900496E3,1.5129094E3,1.4732229E3,1.7275104E2,1.5159681E3,3.1349111E3,-5.21333E2,6.962216E2,3.5108855E3,1.5993999E3,4.3110236E2,-5.210458E2,3.085878E3,1.8237804E3,2.2123948E3,4.136768E3,-1.3645518E3,2.5986401E3,4.319842E3,5.4385073E3,5.749634E2,7.204494E2,6.882165E2,-3.7733533E2,1.20262E3,-1.2539957E3,-8.714662E2,-2.1224434E3,6.997727E2,3.834816E2,-4.1926523E2,-6.6483136E2,-5.784763E2,-6.1090485E2,-4.3108252E2,7.543533E2,-1.4422452E3,8.567853E2,-5.014517E2,1.2806871E2,5.7916565E2,1.1407295E3,3.2662168E3,2.0585833E3,-1.3558811E3,8.0393726E2,2.0265776E2,-6.1290576E2,-3.4036536E2,-7.28031E2,-4.2565643E2,-6.875767E2,-1.3694602E3,-6.149849E2,-3.235013E2,-7.9098004E2,1.7599546E3,2.649972E2,-1.6923E3,-4.609369E2,-1.941347E3,-5.6322327E2,-1.2633389E3,-2.1992287E2,1.9354307E3,7.038153E2,-3.2039938E2,5.649179E2,1.722879E3,2.1421045E2,9.391325E2,1.4513727E3,4.7635043E2,9.293642E2,4.7559683E2,1.4185651E3,-1.5282978E1,-2.219272E3,1.8654431E3,1.3589368E3,7.1039154E2,1.904958E3,-1.7210057E3,-7.9510333E2,-9.127905E1,9.07254E2,-2.0907239E3,2.8484058E2,-1.1531821E3,6.479247E2,6.9737524E2,-8.2113806E2,1.5791442E3,-8.113388E2,-3.4897498E2,5.8809494E1,-2.0034225E3,-2.1170172E2,-6.1715576E2,8.246273E2,1.01055054E3,-5.6202515E2,4.8609647E2,8.6741254E2,-5.0106342E1,2.7518332E2,-3.0372349E3,-2.1210325E3,-1.1196116E3,-1.9197107E3,1.23022415E2,-7.909733E2,-2.763433E1,2.4237542E3,-2.1758552E3,7.8308905E2,-2.7203481E3,-9.9141125E2,-1.1515619E3,-2.0828926E3,1.4277258E2,3.225283E2,1.3814082E3,4.2533105E2,-1.425696E3,-7.247691E2,2.4205093E3,1.4138263E3,8.862076E2,3.4930986E3,5.0036844E2,1.501334E3,3.120666E3,6.7117197E3,1.4435011E2,2.802148E3,5.9674624E3,3.951628E3,1.3136328E3,-1.7776598E2,-4.621815E2,-7.817132E1,-7.6395996E1,-3.900244E2,2.279603E3,5.5561094E3,4.778505E2,1.8188536E3,1.326011E3,5.827471E2,1.8804958E3,1.5396431E3,2.6962296E2,-1.2213212E3,1.7526439E2,8.1536414E2,1.05724724E2,-2.0953315E3,-6.572665E2,-1.317745E3,-1.9944383E2,-7.8142316E2,-5.918513E2,9.0030273E2,2.52778E3,9.4209064E2,1.1134373E3,5.156042E2,-2.4968048E2,2.0325283E3,-8.381061E2,-1.6243132E3,4.407247E2,7.3897305E3,-2.6639482E3,-1.7458063E3,-9.056064E2,-2.0941345E3,-2.7027278E3,-9.8532806E2,-7.809097E1,-7.2458307E2,-7.4102814E2,-1.652758E3,-2.3602334E3,-1.8686741E3,-1.1990913E3,-8.947417E2,-7.407349E2,3.6471893E1,1.2812744E3,3.021914E3,1.09469025E2,8.298784E2,-1.9263469E3,-7.443142E2,1.8257308E3,-3.3960373E2,8.637038E2,8.731782E2,9.8797406E2,-3.0172165E2,-2.999388E2,-2.2522166E2,-8.523859E1,1.5015826E2,7.269524E2,1.2039708E3,-4.7391308E1,5.168749E2,-6.402556E2,-7.03028E2,-2.9298105E2,5.9622375E2,-1.0783608E3,-2.36513E3,1.245327E2,-1.7448627E3,-1.07148384E2,-5.5005665E1,-8.612286E2,-9.9230963E2,-6.7869135E2,-1.5603767E2,-1.632984E2,-3.4095997E1,-1.2404739E3,-1.747675E3,8.18831E0,-1.0742663E2,-5.0423526E2,-4.1740845E2,-2.0459944E2,-1.701068E2,-7.721878E2,-1.0434941E3,-7.95379E2,-3.5319998E2,-1.4008499E3,-1.2232882E3,-4.0548898E2,-3.044639E2,-2.8780527E2,-1.185992E1,-9.2119037E2,-5.830229E2,7.568872E1,-3.0541733E2,-6.801086E2,-6.179794E2,-2.880629E3,-1.9128846E3,-6.5109744E0,-2.177913E2,-4.1702988E1,1.9518413E2,-4.47853E2,-4.8562207E2,7.3607367E2,-2.934814E2,4.378873E3,4.2090384E2,-5.9950543E2,5.6230347E1,-2.244719E3,-9.15673E2,-8.4481865E1,-8.81254E2,1.5885925E3,5.1638226E2,1.6254724E3,3.2507114E3,-2.9190472E2,-4.0881458E2,1.0447916E3,4.515446E2,3.6493356E2,1.0094905E2,-3.834413E2,-7.173897E1,-1.2579062E3,-7.252438E2,-4.371157E1,1.73564E2,6.986532E1,-2.1985903E3,-1.4161621E2,-1.3175664E3,1.3311587E3,1.7978201E3,2.7116904E2,-1.1341597E2,-1.6526453E3,-7.414484E2,7.2937354E2,-4.8729337E2,1.7542319E3,-1.8710728E2,-5.3303735E2,-1.5591322E3,2.1512458E3,3.404901E1,-1.6620942E3,3.1692776E3,-2.4596262E3,-8.704362E2,-6.499767E2,-2.854965E2,3.800128E1,-8.084775E2,2.2421838E2,3.712671E3,-2.437967E2,3.9824417E0,-1.0318357E2,3.8824405E2,1.8314905E2,8.798715E2,1.304728E3,1.1552687E3,3.648772E2,7.974021E2,1.0948868E2,7.5396606E2,-2.333513E2,-3.8581326E1,4.660382E3,6.8159224E3,9.39239E2,3.8511526E3,3.3138446E2,1.9637131E3,6.8356123E3,2.4791023E3,5.557225E2,5.663373E3,-2.3711523E3,-2.7632907E2,-1.4109143E3,-6.8745917E2,2.5925833E2,-2.4898452E3,3.081538E2,-2.137156E2,-3.2478503E3,-2.6145627E3,-4.21564E2,-1.6789131E2,-1.2022236E3,-1.8665742E3,1.3858604E3,-3.8037994E2,-8.528354E2,-2.1327478E3,-1.2948975E3,-7.2595856E2,-5.958673E2,-1.5752352E3,2.5961902E2,-8.2441846E2,8.348872E1,-7.020461E2,8.159452E1,1.7805338E2,-2.8898383E2,-1.9353777E2,-5.64828E2,-1.2927598E3,8.551932E1,-4.4910617E2,-1.3181831E2,3.731687E2,-4.6243958E2,-4.1828098E2,-7.3597413E-1,9.896826E1,-2.9709961E0,2.8448264E2,-1.08089905E1,-1.0545263E1,-8.733931E1,-5.4005145E2,-1.13967415E2,-2.571473E2,-4.1512375E2,-2.9373584E2,-4.8114062E2,2.1643161E2,2.5618405E2,-1.2899304E3,-1.6277704E3,-1.9472905E3,-1.06501335E2,1.6979869E2,-6.5869836E2,-1.1743947E3,-2.4151204E3,-2.0471417E3,-1.5812064E3,-9.4757263E2,-2.2008376E2,1.0588043E2,1.8333467E2,4.165487E2,4.2484402E2,5.971007E3,1.076154E3,4.5706122E2,-2.4881325E1,7.601902E1,2.1419514E3,1.2276748E2,-2.57694E2,-2.808897E3,9.5037445E2,-1.00624524E3,-2.4735596E2,-7.925631E2,6.3453784E2,-5.2956274E2,2.961779E3,6.458843E1,9.823453E2,1.9358098E3,-1.5319131E2,6.954781E3,5.2945776E2,7.4872784E2,8.807714E2,3.6627875E2,3.669306E2,-1.9051836E2,1.0842672E3,1.8376818E3,-1.309979E3,-1.5690158E2,-4.071787E2,-7.3805084E2,-2.697315E2,-7.1698334E2,-1.2146324E3,-7.292818E2,2.83664E2,-3.316503E2,2.9970602E2,-2.4344631E3,-2.8349846E3,-3.187864E3,-3.7156137E2,7.6833887E2,-7.191075E2,-1.4511913E3,5.7392686E3,-7.343613E2,-2.538762E3,-1.419847E3,-2.2434517E3,-1.6953293E3,-3.2141068E2,6.685729E3,-2.7806653E3,-3.4916274E3,-3.388269E3,-3.144338E3,-4.817819E2,-6.999344E2,-3.361864E3,-3.040596E3,-2.8565635E3,4.8726943E3,9.841788E2,-8.3413086E2,-2.4986506E3,2.8716587E3,-5.0154114E2,-1.6931929E3,-1.2510083E3,-2.7357883E3,6.71173E2,-2.05969E3,-2.269086E3,-9.914747E2,1.0404117E2,-8.045909E2,-3.83791E2,3.15164E2,5.0949954E2,-5.197913E2,2.997523E3,2.1439487E3,5.7009424E2,-4.3570648E2,-7.4822375E2,2.7644907E2,3.3161833E3,7.5779407E2,1.853152E3,8.2831305E2,1.860464E2,8.568898E1,-5.0138174E2,-1.6543134E2,2.4149905E2,-5.2283974E1,-2.0716553E0,4.2743408E2,5.6858826E2,-5.60896E2,4.07414E2,-9.0311325E1,6.2884385E3,2.718864E3,-5.4978107E2,-3.283668E2,-2.1988582E3,-1.3116754E3,-8.3927484E2,-6.554452E2,-5.2818506E2,-2.1513596E2,-6.639315E2,2.3830402E2,-1.0816927E3,-7.042761E2,-2.6551484E3,-6.8817993E2,6.1471643E2,-4.7651318E1,-6.6201654E2,1.308483E3,7.303294E1,-9.0430945E2,1.7702386E3,1.06492355E2,2.7960312E3,1.5855287E3,-7.045703E2,-1.6201598E2,2.5328712E1,-1.6430612E2,-3.325598E1,1.7849905E2,6.3740115E0,-4.9516745E0,-3.828055E2,-9.27782E2,3.8849304E3,1.4072456E3,2.0970808E3,1.0423088E3,-1.7472527E2,1.3297051E3,1.8907921E3,3.7553107E2,2.874788E3,4.3576772E3,-5.1334674E2,-3.4519415E2,2.6771823E2,4.0089426E2,8.9588295E1,3.6053123E3,6.987784E2,8.295536E2,3.7049E2,2.0744664E2,2.6683428E3,1.2216725E3,1.5923058E3,2.557417E3,1.7677872E3,1.045927E3,4.554688E3,3.5888171E3,-1.1914328E2,-1.9377994E3,3.5912964E3,2.3339116E3,3.7260222E3,4.656438E3,5.291527E3,6.524153E3,2.631944E2,2.7814322E2,3.0668845E2,2.1649483E2,-2.4450777E2,-2.1339597E2,-1.7484097E2,5.9760864E2,-4.4478043E2,-9.545356E2,-2.0413132E2,-6.430895E2,-5.5531326E1,-1.5410129E2,-4.1971597E2,3.5448708E1,2.0888077E2,-7.251398E2,1.2772123E3,4.204843E2,-1.9216965E3,-8.4050446E2,1.00853235E3,-7.003878E1,8.1799567E2,1.240372E3,6.109932E2,3.5215203E3,7.2118555E2,1.8737338E3,-7.485696E2,-2.2433054E3,5.1814874E2,8.92147E1,1.4462979E2,5.1895416E2,-3.256474E2,2.0822871E2,-2.5178362E2,7.4354004E1,-3.718362E2,-1.727804E2,-2.2325404E2,-4.701339E2,-4.473113E2,-7.1196826E2,4.7200278E2,2.193385E3,8.3243665E2,-1.20815834E2,-1.8601883E2,-5.747673E2,-9.4869104E2,4.5419056E1,4.534459E2,-2.0353197E3,-1.5032125E3,1.2874468E3,-2.0224248E3,-9.028261E2,5.630772E2,-4.9100372E2,1.69757E3,9.00513E2,2.1135468E2,1.7971323E3,-1.7767014E2,-8.172121E2,1.1781278E3,9.572756E1,4.1755237E2,5.764312E2,-1.872445E2,8.2173895E2,1.162041E3,2.5437595E3,-9.425797E1,1.1574336E2,-3.9488092E2,-7.111567E2,3.1814313E2,4.9126865E2,3.7592822E2,5.931365E2,-1.6410975E1,-5.7673676E2,-1.5706317E2,-1.1977943E3,-1.2684827E2,-1.239642E1,3.064086E2,1.73192E3,-2.1089155E3,-1.9213074E2,-1.3058057E3,5.519646E2,-4.0475616E2,-1.7543839E3,3.5754738E1,9.160275E2,3.35203E2,1.6709412E3,1.01573956E3,-7.3095435E2,1.1229297E3,2.0831255E3,-9.508647E1,-3.6002133E2,2.3624913E2,-3.9825565E2,3.7182587E2,-2.9449588E2,-2.06282E3,-1.0888926E3,-9.882383E1,-1.4887164E2,-8.591216E2,-1.975992E2,3.2302826E2,1.5351032E1,1.7635059E3,8.960796E2,7.443378E2,2.8235367E2,-7.584066E0,-5.163174E1,5.1124245E1,3.1380875E2,-9.2618695E2,-6.526413E2,-1.2760001E3,-2.255133E3,-8.565387E2,-1.5205945E3,-4.2168774E2,-2.1178818E3,-8.153697E2,5.4344653E2,4.0138278E2,3.1960027E3,-8.068659E2,-6.772546E2,-6.934796E2,-2.7787734E3,-1.5696413E2,-1.3641973E3,-5.753401E2,-6.7753705E2,-8.580896E1,8.571642E1,1.4848523E3,1.5214868E2,9.0537186E1,1.5042122E2,-1.9390121E3,-1.2592687E3,4.0073742E1,-9.84985E2,2.2616445E3,2.624513E3,7.8076166E2,1.6669258E3,7.3259875E2,2.59725E3,1.804229E3,5.044552E3,2.2666484E3,8.337708E2,1.640553E3,2.123267E3,5.0935358E2,-3.4475223E2,2.9555444E3,5.807054E2,4.614487E2,1.919423E3,1.4796193E3,4.2153687E3,2.2066823E2,6.350855E2,-3.013413E2,2.5320237E3,1.7615356E3,1.1686903E3,-3.3522134E2,5.4623004E2,5.7337994E2,2.5676105E2,1.0466302E3,2.5302668E3,2.4921191E3,5.205479E2,1.9556798E3,9.6488324E2,4.1199353E2,-3.8106165E2,-2.0255543E3,-1.086076E3,-3.7825397E2,3.0576358E2,9.900383E2,3.3999216E2,8.783997E2,-1.8638137E3,-1.311917E3,-6.9260034E2,-3.363116E2,-9.256157E2,-1.2107955E3,-5.7944336E2,-9.094581E2,-4.3235527E1,-4.7452023E2,-6.6184033E2,6.508522E2,-7.6255975E2,1.2524426E3,-3.2277493E2,4.0497063E3,1.770629E3,1.1656526E3,-6.237287E2,6.370625E2,9.395385E2,3.1053714E2,6.699123E2,-3.8236798E2,2.9225732E2,-8.841457E2,2.5808037E3,-2.4193186E3,-1.3931814E3,2.0554883E3,-3.293387E2,1.0700884E3,2.550067E3,-2.70831E3,-3.232365E2,-1.8686663E3,-3.4480435E2,-1.9252591E2,-1.1279348E3,-5.3209094E2,-7.356804E2,-8.499799E2,-6.9954456E2,2.8786517E2,-1.2308926E3,-2.381777E3,-1.5350831E3,-1.0118748E3,-2.1580132E3,-1.1358905E3,-1.9377119E3,-4.1359665E2,-1.8255981E1,-5.7255066E2,-2.603302E2,4.2532706E2,-6.518885E2,-2.2129294E3,2.0263774E2,-8.099011E2,2.4727085E3,-2.3423373E2,-1.5225763E3,6.434958E2,-2.8219177E2,-1.8668976E1,-1.5507132E2,2.129148E2,-1.372952E2,1.0574854E2,2.4378162E2,3.9663913E2,1.1081866E2,2.2059607E2,-5.3535976E1,-8.65143E2,5.3614796E1,-1.0681028E2,-5.117664E1,1.3514992E2,3.1994855E2,-2.4188975E3,4.9790674E2,3.7882837E2,-4.10383E2,-6.5871277E2,-1.5806132E3,-7.815099E1,7.9340334E0,-4.1907278E2,4.018644E1,-1.9167355E3,-3.3079843E2,-3.676508E1,-8.4258835E1,-2.9493976E2,-2.1554353E2,-3.3599377E2,-9.0647437E2,-1.03945564E2,-2.5360431E2,-3.8184192E2,-4.7186954E2,-3.4634802E2,-4.0065045E2,-3.3315027E2,-1.3243884E2,-3.484279E2,-2.858712E2,2.7178686E1,-1.7108133E2,-8.112804E1,3.4558407E1,-1.3646556E2,-3.0456384E2,3.1608717E1,-1.9511778E2,-9.51301E1,-1.6020996E1,-2.7638984E3,-8.771372E2,-5.1524524E2,-7.261248E2,-1.9348071E2,1.2902439E1,6.786262E1,2.7628529E1,-2.0682149E2,-1.56112795E1,-1.22564926E2,1.5282944E3,-1.7011711E2,-7.5371326E2,1.5595981E3,7.1272573E3,1.5816397E2,2.5393145E3,-4.7147263E2,8.185191E2,-2.4833005E3,-7.635644E2,-1.4038594E3,2.863517E2,-1.9987447E2,1.2659486E3,-1.2051743E3,-1.7678036E2,-1.6979634E2,2.3300862E3,3.211372E2,1.0039615E3,2.7980325E3,1.2379741E3,3.6930137E3,1.5987341E3,-1.8604585E2,-5.3007275E2,5.7948685E1,1.0749937E3,3.9668756E2,4.8042838E2,-1.3348132E2,-3.995156E2,-2.3693687E2,-4.5566275E2,7.167441E2,-3.713596E2,9.467541E2,-2.2095857E3,7.5032007E2,-3.431532E2,-8.465423E2,-4.3390692E2,8.281287E2,-1.6350099E2,-2.4771826E2,-1.7071156E3,-5.5351843E2,-1.528932E2,-1.9325488E2,2.0895493E3,6.218041E0,-1.2650514E3,-6.626649E2,-2.2644899E2,-1.4156857E3,-5.97244E2,1.5311113E2,-6.370654E2,1.1424884E3,-3.8709962E0,-2.6263358E2,-2.4941914E3,6.767445E2,-1.4312794E3,1.3125204E2,-1.0424994E2,-6.2863567E1,-1.027096E3,2.0028704E3,2.6831995E3,1.5084197E3,5.1198364E1,1.4932742E2,1.0287195E3,1.41029E2,4.7731147E3,7.154063E3,4.8401877E2,-5.677253E2,5.847358E2,3.7124075E3,1.6322788E3,1.5155682E3,2.5221797E3,9.881734E2,4.2796118E2,3.9359646E3,7.900525E3,-7.985751E2,-5.6402783E2,-1.3368521E2,-1.4694464E3,1.26719025E2,-7.312378E2,-1.9172864E3,-2.5530688E3,1.3910153E2,2.8139874E2,-2.1835599E2,-9.80329E2,-3.820965E2,-7.8803424E2,-1.6349406E3,-8.911466E2,-2.3675632E3,-1.7309631E3,1.4720936E3,6.15887E1,-5.9043784E0,-2.25571E2,-1.8100479E3,-2.254867E3,3.1339404E2,-1.3187297E3,-9.111898E1,-1.9021385E2,-5.832741E2,-1.340948E3,-4.8687122E2,-9.7638074E2,-2.5939816E2,-2.0388525E2,4.6206024E1,-1.26513195E1,-7.3246E1,-1.3845997E1,2.303587E2,-7.2831573E2,-1.5036398E3,-1.1254314E3,3.9636906E1,-3.6105984E1,-4.2253593E1,-1.5993643E2,-6.554742E1,-2.235015E2,3.0357632E2,2.9606903E2,-1.1314322E2,-2.4685358E2,-1.2513183E0,-4.0213137E0,-1.20551765E2,-2.3240129E2,-6.585957E2,-2.5450613E2,-1.3410602E3,6.639604E1,-1.1687336E3,-1.7071288E3,-2.7540546E2,-1.9860985E3,3.5289508E2,-9.974659E2,-1.4710624E3,-1.0099202E3,-7.8883417E2,-2.46088E3,-1.504416E3,-2.1016707E3,-4.808664E2,-1.13596E2,-3.94871E2,-3.055878E2,-5.755721E2,-1.2958322E2,3.54495E2,-7.5196E1,2.7452446E3,-2.21671E2,-4.676259E2,2.1026524E2,-6.3710583E2,-9.00125E2,-5.232913E2,6.722892E1,6.2920685E2,-1.6003853E3,1.9648413E2,7.447143E2,1.3374756E1,-3.773813E2,1.5697365E3,2.7953237E3,8.4034814E2,8.0676605E2,-4.22836E2,1.9715596E3,3.3389027E1,7.1367314E3,-1.9132599E2,3.4607242E2,2.5273705E2,1.9335611E1,5.2797797E2,5.031282E2,1.3383864E3,1.8749071E3,-2.5716995E2,-4.8474933E2,-1.057841E3,-1.390108E3,-1.746749E2,-1.6489377E2,-2.5425044E3,-4.1506836E2,-3.0276719E3,-2.4083206E3,-3.3783079E3,-3.121553E3,-2.4444896E2,-1.4122151E1,8.287036E2,-8.779131E1,-1.2265133E2,-5.359096E2,-2.2355364E3,-2.6254875E3,-1.034079E3,-2.7579924E3,-2.359613E3,-4.9671326E2,-1.7688214E3,-8.5718616E2,5.963523E3,-1.3866089E3,7.556078E3,8.926354E2,9.8938995E1,-8.4648627E2,-3.504188E3,-3.125901E3,-8.140208E2,-1.02067084E3,-3.25143E3,-2.9515398E3,-3.3161018E3,-1.055607E3,-9.150932E2,-2.0691098E2,-2.870719E3,1.2137771E3,2.4425989E3,7.771305E2,-2.6917915E3,-1.4050208E3,-2.6583225E3,-1.6054156E2,-2.0580405E3,-1.1346576E3,-7.043801E2,-2.1956846E3,-2.8773215E3,-2.2854817E3,1.3789662E3,-2.024417E2,7.4411127E2,-2.1869583E3,-6.945741E2,-2.8302133E2,2.1599012E1,-1.0545562E3,-2.3162988E2,1.8145636E2,8.5027E2,-8.309024E2,1.2464836E3,3.2721597E2,-1.14822105E2,5.249687E2,-9.8769295E1,-4.3845166E2,8.020319E2,3.8743145E3,4.9151868E2,3.328443E2,1.9014331E3,1.1074407E3,-4.018113E2,9.9521716E2,-5.5729572E1,1.6048792E2,3.68639E2,2.0186084E2,2.1704182E3,1.167745E3,-1.6353461E3,-8.302164E2,-1.3276674E3,-4.0326514E2,2.4367406E2,-3.67629E2,3.8866357E2,-1.7839642E3,-8.1216705E2,-5.016955E2,-4.9096133E2,3.2353406E2,-1.3402324E3,2.2641677E3,2.7373604E3,1.1531481E3,3.536916E1,1.2651589E3,-8.483122E2,-2.1465752E3,1.9874745E3,-7.09599E2,-1.6289413E2,6.1358295E2,5.307198E2,8.894947E2,1.9174512E2,1.6555217E3,-6.139566E1,2.3685427E0,2.1187868E2,-3.3117148E2,4.3350415E3,5.585821E2,-9.673209E2,1.4801771E3,1.8928536E3,9.744672E2,2.2120172E2,1.1476351E3,-2.7548508E1,-1.2771188E3,1.9060743E3,9.8649603E2,2.3056086E3,1.7113411E3,8.363738E1,9.0288794E2,9.7017175E2,2.5954644E3,1.3511833E3,8.7438824E2,-4.561684E2,-1.2226559E2,2.1224832E2,-3.0778598E2,1.1695858E2,-5.6355984E1,5.200678E3,3.429851E3,5.1202704E2,3.6870874E2,3.2369354E2,-7.584947E2,3.3479404E2,8.487275E2,5.2488226E2,1.7063746E3,6.2089386E2,2.7179E3,1.3644943E3,1.4778553E3,4.4011284E3,1.6485444E3,3.8618352E3,2.4615796E3,-5.60521E2,1.19299736E2,-1.1176888E3,-6.708258E2,4.2722886E3,2.5159685E3,2.0401451E3,2.606219E3,3.246367E3,4.4418306E3,1.5242302E3,3.8307114E3,1.6527743E3,1.4401925E3,5.4001743E3,2.3156555E3,-6.5109744E0,9.428837E1,-7.297129E1,1.812187E2,-3.171106E2,1.578658E2,-1.014042E3,4.147201E2,-3.7613213E1,3.8899384E2,-5.7456824E2,-4.0644934E2,2.5177012E3,1.086166E3,-4.975793E2,6.6698615E2,-6.920024E2,-4.9857492E2,3.7168405E2,-9.0687244E2,1.1586443E2,3.25927E2,-8.983133E1,3.5856045E1,4.0387857E2,8.536638E2,1.2023373E3,6.5337006E2,2.2822406E2,3.5669753E3,2.8127786E2,1.9084894E3,-1.379717E2,-3.0089557E2,-2.2086131E2,-8.438415E2,-1.8536131E2,2.2996867E2,3.6794934E2,4.305951E1,-1.20005226E2,2.894784E2,-2.967199E2,-1.2632843E2,1.0421484E2,-1.9250325E2,-2.923636E2,-6.1726486E1,8.815442E1,6.553884E2,1.2512339E3,2.342621E3,1.8067002E3,6.5774884E2,-3.701865E2,4.91917E2,-8.1667957E2,-3.962018E2,6.3176575E2,-4.991767E2,-9.6916315E2,-1.8805488E3,-2.5764124E3,-9.6239667E2,1.02116003E3,9.207592E2,-8.628544E2,-1.6551641E3,-1.0215593E3,5.77419E2,3.330854E2,1.9021057E3,-1.4137131E3,-3.2585156E2,5.3390283E2,1.8537994E3,-3.9372452E2,5.0428946E2,2.4321304E3,1.1388916E3,-2.5321434E2,6.9741864E2,-3.1105298E2,-1.1490728E3,6.7100665E2,1.0320536E3,3.6151047E2,-7.175689E2,5.0374826E2,-5.6780884E2,1.3019302E3,4.2607632E2,1.3349858E3,7.920962E1,-5.608995E2,2.8904219E3,1.7061496E2,8.751367E1,-1.5150826E3,-4.6538364E2,-7.041179E1,3.675961E1,-6.1426487E1,2.22291E2,5.918087E2,1.51439E2,-2.1550513E3,-1.4748044E3,-1.1327853E3,3.0951605E2,-1.1271897E2,-5.366116E2,-4.1106726E2,4.2981836E2,-3.3388843E2,-6.468678E2,-1.245099E1,1.9633522E1,5.429161E2,5.0268364E1,-2.3836713E2,7.49942E2,2.4887589E2,9.670083E2,-4.4871133E2,1.7400276E3,4.580257E2,1.385636E3,2.9313503E3,1.6512797E3,-1.4382184E3,6.557824E2,-3.6652014E2,-9.7352936E2,5.166194E2,4.1060177E1,-4.4721466E2,-8.723496E1,2.9621902E2,-2.0761016E3,-3.8633127E2,-3.4392212E2,-1.7808838E1,-3.4485428E1,-9.837989E2,-7.184536E0,-5.1533105E2,3.830559E1,5.7760596E2,4.4879156E2,1.0246183E3,1.7288422E2,2.3203276E2,1.1768837E2,1.48349285E1,-1.0260279E1,5.778124E1,1.18640015E2,-3.5769894E2,-1.451458E3,-6.566137E2,-2.344837E3,1.249258E2,-9.984538E2,-1.0990306E3,-1.9490208E3,-6.758005E2,-2.5236716E2,-2.2500889E3,-1.1232251E3,1.7422897E3,-1.8308975E2,-1.9702481E2,1.0377288E3,3.3409844E3,-4.55731E2,-7.049717E2,3.6184644E2,-2.8509414E3,-7.589006E2,-3.384644E2,-5.382408E2,4.7840524E2,1.8713872E2,-6.7813544E2,-3.470674E2,-4.213606E2,-9.7679376E2,4.443229E2,-1.6491324E2,-3.4608908E2,-8.224501E2,2.3338572E3,1.9900673E3,7.239122E2,8.374619E2,-3.843062E2,1.1690398E3,1.366297E3,5.4308563E2,1.4510208E2,1.169898E3,2.9571123E3,-8.9711804E2,3.1506085E2,2.094186E3,1.6586204E3,1.1890751E3,1.0705125E3,-2.3342842E2,-9.439325E1,-1.8633165E2,2.6241228E3,1.0658647E3,9.8838873E2,3.2551123E2,1.3789188E3,3.0709492E3,2.0492688E3,1.1476399E3,6.97516E1,5.876354E2,1.151679E3,-4.9500046E2,6.474591E2,3.0189272E3,-6.617836E2,2.7920935E3,1.762445E2,8.6864294E2,1.27665E3,2.3010442E3,2.1984292E3,6.2691077E2,-7.105386E1,6.3831915E2,-1.524385E3,-7.1534686E2,-1.1812805E3,-3.4404733E2,5.785838E2,-4.842342E2,3.2159286E2,-5.7651666E2,7.665884E2,9.351094E2,8.439074E2,1.2025896E2,1.1062792E3,6.753749E2,-6.3948926E2,2.0249905E2,-8.265918E2,-1.6774261E3,-2.37974E2,-2.8132358E2,-6.411967E2,-1.1450585E3,-1.2546842E3,-1.487557E2,-4.9130743E2,-6.2340625E2,-2.5126678E2,2.621177E1,-9.977964E2,-4.3799875E2,5.4172787E1,1.1154633E3,-3.594903E2,-1.9614633E3,-2.002999E2,1.5349109E3,-4.3684378E2,-6.3741947E1,4.2109253E3,7.8736084E2,2.0126259E3,3.449364E1,2.610056E2,1.6079258E3,-1.3458229E3,-2.5558206E2,1.1633405E3,7.3006555E2,4.261675E2,-4.3347954E1,8.118852E2,2.9263626E2,-6.016579E2,-1.4592546E2,2.6435962E2,2.5564314E2,-1.1455673E3,-3.6375613E2,9.209622E2,1.9015758E3,-2.3114714E2,-2.52882E3,-5.5211633E2,-1.5003478E3,2.673189E3,1.1443953E1,2.0347224E3,-6.414103E2,-4.5192667E2,-8.298123E2,-6.593009E2,-3.9596878E2,-2.3940968E1,-1.3122101E2,2.0115868E2,-1.4763171E2,-3.5456744E2,4.9334034E1,3.751983E2,-4.3728443E1,-5.844588E2,-3.2924908E2,-1.117181E3,-2.7016113E3,-1.5802567E3,-6.6428394E2,-2.3619263E3,-1.5113796E3,6.73188E2,-1.637898E3,-7.4417426E2,-1.870193E3,-6.280124E2,-8.590438E1,-3.2769766E2,8.7853595E2,-4.8628958E2,-2.290214E2,-2.4289182E3,-7.852823E2,7.3941574E1,3.3652872E2,-1.2598243E3,-5.214207E2,7.916684E2,2.21339E2,-1.4306561E2,-1.0627822E3,-1.2107538E3,-7.378897E2,-1.0440438E2,1.3777872E2,9.172736E0,-1.2937508E2,-1.2467397E2,-2.7703873E2,-3.9351295E1,6.61587E1,-9.967521E2,-2.5072332E3,-2.6478897E2,4.5082642E2,-1.1423074E2,-2.2105666E2,-5.980864E2,-1.4533889E3,-4.0167175E2,-6.365906E2,1.1969019E1,-2.746079E2,-5.8671757E1,-1.1591655E2,-3.547003E2,-4.029148E1,-3.0959113E2,-2.1943478E2,-2.6813108E1,-1.0451319E1,-6.727129E2,-2.8084805E3,-2.5851132E2,2.962321E0,-7.205163E1,-1.0681324E1,-1.2767559E1,4.206676E1,-1.649887E3,1.7411975E2,1.1136244E3,2.3657698E3,6.545778E3,-1.7951633E2,-1.4481036E3,-4.0416513E2,4.920936E2,-3.241597E1,2.6152405E2,2.2150881E3,-2.1277979E3,3.234676E2,5.002111E3,1.2641349E3,-1.0293121E3,1.166407E2,3.9902533E2,1.0651351E3,-2.211457E3,-2.9222913E3,-1.4553774E3,-4.811604E2,-5.809503E2,-1.6434702E3,-2.6819623E2,7.365437E2,9.055031E2,-3.0122427E2,-6.2945263E1,2.0343086E3,-4.2029337E2,-8.3888806E2,1.258988E2,-2.7341425E2,-7.5284125E2,9.057213E2,1.7094937E3,2.884105E3,-2.0674693E2,5.151834E2,1.2090485E3,6.838894E2,1.2655433E3,2.3626206E3,6.344825E2,1.9346536E3,4.2937437E3,6.795146E2,1.755808E2,1.1305187E3,-7.509146E1,-1.2274843E2,-1.6955754E2,-5.7609744E0,2.3865018E2,3.4847644E2,4.9170517E2,2.2182626E2,-2.8043875E2,-2.26051E2,9.53383E1,3.7071603E2,-8.135507E2,-2.135321E3,1.0141871E2,2.98064E2,-2.736213E2,-2.0649277E2,-1.7316548E2,-3.520665E2,-3.536165E1,-1.27451324E2,-1.7767969E3,-3.4157507E2,-3.1541013E2,5.5170506E1,-1.2200132E2,6.704905E1,4.120646E2,8.4385706E2,-1.9844553E2,5.5635913E2,-1.7435321E3,3.4474408E2,-5.374117E2,-2.3859682E2,-4.0946143E2,8.581116E1,-1.4609717E3,-2.0662358E2,8.298487E2,-5.5348645E2,-1.707031E3,-7.624446E2,2.7368243E2,-7.513598E1,-4.656849E2,-1.289513E2,6.8816314E0,1.6147644E2,-7.226819E0,-8.273558E1,-1.3322131E2,-3.35203E2,4.3930643E2,8.780532E2,5.4569824E2,1.1812126E3,1.1488854E1,5.901236E2,4.679893E2,1.1962235E2,5.573187E2,1.4703833E3,2.1883987E3,5.45864E2,-3.565893E2,-2.5931784E2,7.136547E2,-4.5121942E2,2.0977873E2,1.1936277E3,2.4904045E3,9.370458E2,5.4033755E3,2.5018582E3,3.9775786E3,5.009619E3,1.4339026E1,-5.7301468E1,-1.1487775E3,-5.35668E2,-4.0542807E2,-8.127582E2,-8.0249426E2,-1.7030121E3,-2.6723677E3,-2.1634897E3,1.6524951E2,-1.2991667E2,-1.6818024E3,-4.8182147E2,-1.4951576E3,-6.1234314E2,-2.0785576E3,-2.790047E3,-1.5885665E3,-2.2076917E3,4.9820218E2,3.2433368E2,2.7539026E1,-3.0195997E1,-1.8435261E3,6.289487E2,-2.0926433E3,-2.4150044E3,-1.38423E3,-4.1284232E2,-1.4857356E2,-1.3882852E3,-2.2729471E2,-1.9229431E2,-7.7610626E2,-4.086968E2,-6.272992E1,-1.1527599E2,-8.7692035E2,-3.772182E2,-4.7655643E2,-3.2861932E2,-3.9345997E1,-3.4127646E2,4.483239E1,-1.16265564E2,9.676926E1,1.164019E2,-6.409454E1,8.855904E1,-1.3191174E2,-2.2489182E2,-1.3914664E2,-1.286393E2,-6.134947E2,-1.4023195E3,-2.648146E2,-4.174506E2,-1.6287411E3,-2.185873E3,-2.1004463E3,-5.0638516E2,2.9624012E1,1.214087E2,-5.850099E1,-3.1948843E2,-9.794059E2,-5.889831E2,-3.3513315E2,-7.343445E2,-3.6162216E2,-5.0281598E2,-2.5408704E3,-1.8121102E3,-1.6156655E3,-1.8083559E2,-2.2193474E3,-1.8881852E3,-3.1365969E1,-1.4632599E2,-2.0248357E2,-1.1805982E1,-8.579556E1,-8.814716E1,-6.8071E1,1.8717868E2,2.2061903E2,9.0004047E2,-4.3677148E2,1.6390866E2,3.8240113E0,2.6429005E1,4.1897873E2,1.406446E2,-2.1375133E2,-5.8644135E2,3.7124976E2,-2.0646098E2,2.6402368E2,5.8430798E1,-6.279097E1,3.641102E1,1.5276213E3,8.82608E2,3.61336E2,1.2274803E3,7.1729065E2,5.233827E2,1.5397291E3,2.3066929E3,-8.166179E1,2.954087E2,2.911438E2,4.02996E2,4.6575497E2,6.852748E2,6.299169E2,1.6970334E3,-1.3075729E3,-2.9863083E2,-1.183637E3,-4.4975858E2,-1.6454398E2,-4.6221436E1,-8.346029E2,-1.8896514E3,-9.9037225E2,-2.9512422E3,-5.9249207E2,-2.5760535E3,-1.0613452E3,-3.21645E3,-3.1451155E3,-2.7355674E3,1.1950684E0,-8.951319E0,3.5262158E2,7.052968E2,-2.2584773E3,4.7308735E3,-2.6417954E3,-1.3636453E3,-1.2569711E3,-5.4101166E2,-2.9358997E3,-1.0718972E3,-7.3510254E2,-1.679099E3,-1.6867137E3,-6.315967E2,-4.9046756E2,1.504604E3,-2.67511E2,2.1764033E3,1.4113163E3,-2.107661E3,6.073912E3,2.6413896E3,-1.0601127E3,-3.368013E3,-2.2123134E2,-9.462448E2,-7.253783E2,-3.283186E3,-2.6789275E3,-9.1860803E2,-1.0071474E3,-9.476517E2,-2.8746309E3,2.4873142E3,-5.3456433E2,5.035809E3,5.637388E1,-2.7199983E3,-7.234045E2,-1.5795798E3,-1.0188962E3,-2.0374756E3,-2.388378E2,2.8123916E3,-1.1283461E3,-2.3231018E3,-1.3873198E3,5.6361206E2,-5.1867163E2,-8.637157E2,-6.9159283E2,-4.4956686E2,-3.2572614E2,-2.8869246E3,-2.4308022E2,-2.3595024E3,5.769671E2,8.423997E2,-7.446961E2,1.439894E3,4.0870358E2,-9.847131E1,-7.063915E2,-5.0196472E2,-3.5680984E2,-2.8537994E2,-1.3116098E2,-1.7371012E1,8.273004E1,-2.1688803E1,4.30289E2,1.774956E2,-6.000736E2,-8.0013E2,2.9049603E2,-4.562213E2,5.5246545E2,1.3348782E3,-1.0282647E2,2.4202644E2,1.9258767E3,4.0204672E2,1.9394414E3,-3.3461826E2,5.0496603E2,1.4557644E3,6.319531E1,-1.656147E1,-1.3492134E2,4.5228012E2,8.429087E2,-5.63716E2,4.7473354E1,-7.643898E2,-3.7028848E2,-4.347773E2,-7.539813E2,5.5234875E2,-1.2008391E3,-7.950015E2,-1.9830363E3,1.789697E2,5.0968674E2,8.971184E2,1.0491558E3,1.0437516E3,-6.7611725E1,1.2857628E3,-5.247191E2,2.5568286E2,-1.6830964E3,-7.8973193E2,-2.4689958E3,-8.3761505E2,1.2832043E3,7.259893E2,-1.2190864E3,-4.119016E1,6.407413E2,-5.583136E2,-7.540132E1,2.2814906E2,1.0499641E3,5.241569E2,1.0609336E3,1.3782252E3,-1.4714131E2,2.1934619E2,-4.088872E2,-8.267926E1,8.103458E2,3.8873843E2,5.717922E2,4.3829006E1,9.477414E1,-3.9411636E1,4.4056217E1,3.5939313E2,-3.93551E1,2.771694E2,-5.0236032E2,-1.6036557E2,4.0894934E2,7.093009E2,3.5965222E2,1.291304E2,4.9358145E2,1.024329E3,3.206906E2,6.258253E2,-1.00521255E2,1.5698627E2,4.567882E2,-1.4612164E2,7.9134564E2,3.352269E2,-1.169542E2,5.581134E2,-7.4714723E0,4.474105E1,1.6034135E3,5.6521356E2,1.1007272E3,7.9868585E2,-1.702215E2,2.0797527E2,1.1331089E2,-1.6300768E1,-4.013613E2,-1.2055026E2,1.1822049E1,1.793707E2,9.1801514E2,4.9049442E2,-6.1866336E0,2.938749E2,7.200395E2,9.632944E2,-1.1487136E1,5.4095984E2,1.3798204E3,1.1710305E3,1.2532346E3,1.0705718E3,4.6067426E2,1.0444045E3,-3.8895996E1,-3.868096E2,1.3131517E3,9.047039E2,4.489101E2,8.8846716E2,6.5148175E2,4.1878647E2,4.9239908E2,8.088396E2,9.913822E2,-2.8470997E1,1.058165E3,1.9126932E3,1.1589434E3,3.0703406E2,1.7012057E3,4.308087E2,-3.9911625E1,-1.0825519E2,8.477869E1,1.5436421E1,-3.16176E2,9.228872E1,1.7563403E2,4.8798687E1,2.9692764E1,-1.2114897E2,5.7078373E1,1.352382E2,2.2112901E2,-1.837525E2,1.0151902E2,7.7655164E2,3.0798132E1,3.6208585E2,-2.4943193E2,6.6242035E1,2.4620476E2,-5.107362E1,-4.057309E2,-1.770474E2,3.0008692E1,1.3500912E2,2.61544E2,1.4173326E2,4.063164E2,3.1340048E2,6.780798E2,1.1141453E3,-6.602132E1,1.7609103E2,6.0238306E2,5.1012424E2,1.9678406E1,1.3489532E2,2.0262871E2,-2.0065167E0,-9.1861305E1,3.1858694E1,-9.802498E1,-5.57074E1,-4.5021294E1,9.7128716E1,6.0073124E1,-1.4025157E2,1.7738823E2,6.4277844E2,4.827062E2,7.421563E2,5.707642E2,5.534905E1,-9.493682E1,2.4540288E2,-1.9975418E2,-4.452955E1,9.35639E1,5.8255646E2,-2.067955E2,-2.8678067E2,2.5198859E2,-2.0137648E2,-2.0251552E2,6.866834E1,-7.605192E2,-5.196929E2,-5.9342285E2,-8.637977E2,-7.634132E1,-3.8918457E2,-8.99527E1,3.4204807E2,-6.139819E2,-4.4596994E2,2.229051E1,-3.7352283E2,2.3223366E1,2.770526E2,1.4984753E2,-6.553219E1,4.1959073E2,6.5933606E2,-5.551267E2,-2.3071785E2,-1.3289354E2,6.928429E1,-4.9160282E1,4.162842E2,3.910579E2,6.213031E2,-1.6616245E2,6.042566E1,8.8540504E1,2.5577538E2,9.342741E2,6.0211084E2,2.5057779E2,4.770992E2,-2.3451564E2,-3.3068718E1,4.0677194E2,7.442692E1,-3.528633E1,-1.3936223E2,-2.3758755E2,-4.6774042E2,1.6894095E2,3.5960486E2,1.4244394E2,-1.7097029E2,-2.626049E2,2.2294835E2,1.08799736E2,7.6080835E2,8.423524E1,-3.1825684E2,2.6801477E2,5.40556E2,2.8759161E1,2.6160864E2,-5.9877844E2,4.1670892E2,1.2967148E2,-1.6231973E2,1.3322241E2,-2.9001453E2,9.436605E2,5.5038197E1,-6.119667E2,-3.379268E2,-2.33736E2,1.2653867E2,-1.5208556E1,4.0084385E1,-6.370285E2,-8.5663464E2,-3.6286813E2,-4.9303848E2,2.1167902E2,-5.30634E2,-3.0246664E2,9.448145E0,1.4686888E2,5.259784E2,-1.6512509E2,7.6913873E2,6.3999695E2,7.269871E1,7.7032355E2,1.6086302E1,5.2903754E2,2.5148004E2,5.561219E2,1.0853059E3,6.2799585E2,2.6506616E2,-6.4826654E2,-1.4877449E2,1.4691902E2,3.2449008E2,-1.1210026E2,1.7770242E2,-3.89254E2,-9.579019E1,1.736091E2,-4.675688E1,1.3355214E2,-1.4171075E1,-1.0137194E2,-1.7284712E2,8.371612E1,-5.0250088E1,-6.6756805E2,-5.456212E2,-5.4083973E1,-1.3424132E2,-2.6925858E2,-4.2245557E2,-7.69585E-1,-2.3141798E2,7.434602E1,-7.28754E0,1.2549726E2,3.464888E2,2.4711028E2,-6.3108177E1,3.3187643E2,-3.1617178E2,1.0875601E2,-4.6307767E2,-1.0811031E1,-3.4520184E2,-7.9614374E2,-6.055951E2,1.5740958E2,-2.2329503E2,-3.3158084E2,1.24058464E2,-4.5242365E2,-2.7272522E2,-5.1492993E2,-7.267167E2,-8.330257E1,-5.4109196E1,-7.007786E2,-4.806452E2,-2.3284117E2,-4.8204193E2,1.1971941E3,4.4469937E2,-6.872935E1,1.2324528E1,-8.0007515E1,5.8128716E1,1.0244524E3,3.5849014E1,-8.6063043E2,-3.0297168E2,-5.6896E1,-3.0083145E2,4.6098686E1,1.589564E2,-9.135175E1,2.1588356E1,-1.8805597E2,-2.936606E2,5.7711053E2,7.127885E2,6.2232336E2,4.1383417E2,-5.463972E0,-3.997516E2,3.0681995E2,7.019325E2,4.2291827E2,2.2648338E2,2.1478879E2,-8.883473E0,1.230644E3,3.29007E2,7.775836E2,1.1927485E3,-8.952148E1,2.0145837E2,7.4806915E2,4.8423105E2,-9.5611336E1,1.0048365E1,4.4908334E2,8.057694E2,6.829287E2,-3.657165E2,-5.236597E1,9.816388E2,-3.1051294E1,6.7490405E2,2.0332455E2,1.3571692E2,3.1139453E2,7.3108655E2,5.838815E1,-3.58823E2,2.3482812E2,-1.9523131E2,4.0342435E2,9.734327E2,1.1235835E3,6.537955E2,2.5119808E1,4.932956E2,1.90021E2,6.624382E2,2.967795E2,7.005003E2,6.2854297E2,1.0397432E3,5.4956573E2,9.5803546E2,-2.2960384E2,2.4765248E2,-3.6475834E1,1.4214028E1,1.005324E2,2.6622336E2,-5.442707E2,-3.2340817E2,-3.6735037E2,1.2474676E2,-6.2589928E1,-4.366774E2,1.23682236E2,2.0315279E2,-1.7852818E2,4.6108116E1,1.6361975E2,6.1682724E1,2.9982623E2,1.9020726E2,8.6351166E1,3.1033316E2,7.782158E1,-1.470288E2,3.5961768E2,-1.2981725E2,-7.051455E1,-3.7226047E2,-1.4709756E2,-6.193573E2,5.421729E-1,-1.2177337E2,-2.8282684E2,8.094838E1,2.0924011E1,-3.6103415E2,-4.421274E2,-3.2973135E2,2.140975E1,-2.5344098E2,-2.312152E2,5.860351E1,2.4010962E2,-2.4090475E1,-2.4605334E2,-3.9719247E2,-1.6639767E2,-5.495178E0,4.66116E1,-1.0065408E1,4.1332053E2,9.5749725E1,-1.4682439E2,9.100755E1,-6.924326E2,-4.1283392E2,4.4612103E2,-1.3025977E2,3.4180417E2,6.377371E2,1.19622284E2,-9.979639E1,-1.0104131E2,1.2815337E3,6.017388E2,4.580831E1,4.5075345E2,8.3144855E2,-3.8007843E2,1.1339194E2,1.4044186E3,3.3815987E1,8.393662E2,3.9817853E2,-2.0271175E2,-5.1325E2,2.3040338E2,-1.3185567E2,3.5770477E2,2.0235835E2,2.8990585E2,1.8608418E2,1.1825893E2,3.194336E2,-1.3187314E2,2.7359755E1,2.1440065E2,3.6877823E2,1.5555621E2,3.671656E1,4.03991E2,-1.9282536E2,-9.698431E1,5.603786E1,9.4247856E1,1.0746477E1,-3.216823E2,-8.1327545E2,8.1967384E1,-1.4261574E2,-2.3930133E2,7.770116E2,-7.6698706E2,-3.9585925E2,-1.9844548E2,-1.1775318E2,-4.0794354E2,-5.959817E2,9.0394165E2,4.970728E2,-1.8584422E2,2.1925977E2,-2.562796E2,9.8272327E2,-5.8357983E2,-1.2583217E2,5.6706787E1,-8.200682E1,3.1400995E1,-4.6082843E2,-8.5024426E2,-5.01576E2,-6.8133826E2,-4.438234E2,7.262079E1,-3.7891815E2,-6.438519E2,-8.320998E2,-3.890132E1,-4.6804584E2,3.2524838E2,1.2348072E2,-7.1506323E2,-2.1817047E2,-5.6797595E2,-2.720002E2,-3.4935974E1,-1.9630585E2,-3.637599E1,-2.2809815E0,5.4373367E1,-2.1513597E2,3.3533322E2,1.2295704E2,-1.4352841E2,7.971444E1,-6.845319E2,-9.644283E2,-5.134096E2,-1.5821759E2,-2.175826E1,8.148126E1,-3.997679E2,4.0388852E2,-1.9683476E2,-5.0126033E0,-7.70529E1,1.1688276E2,4.87401E1,-4.5612198E2,-2.8457608E2,-4.2651273E2,-5.6446E1,9.464026E0,2.9559118E1,-3.031841E1,-4.343603E2,-1.274943E2,-7.813994E2,-6.4555896E2,3.32354E2,-1.3412312E2,-3.455373E2,-4.6606262E2,-9.903687E1,-1.5439174E2,-9.857731E1,-6.3299755E1,-3.6702312E1,-8.172824E1,-8.551462E2,-7.004984E2,-3.675989E0,5.009033E0,5.068242E0,-2.5118977E1,5.468254E0,2.9868677E1,-6.222784E2,-2.4153181E2,-1.5113904E2,1.4877963E2,3.6212494E2,-4.8974557E2,7.448814E2,1.24888435E2,2.2794944E3,1.92464E2,9.321828E1,-8.029613E1,-6.7985724E2,-3.3805917E2,-1.3927712E1,-3.6682697E2,-2.8565353E2,-8.286729E2,2.4665584E2,-5.195506E1,1.7382474E3,1.2436436E1,-1.95552E1,5.450718E2,-5.9983026E2,-2.2789537E2,-7.10842E1,1.3323148E2,2.7918152E1,3.7113443E2,2.6375815E2,4.1419495E2,-8.0877313E2,-5.658448E2,-8.991476E2,-4.1133597E2,-6.613084E2,-2.6801624E1,-7.524419E1,-2.820443E2,-3.1105927E2,2.2185687E2,-5.0229196E2,1.1888899E2,-2.1920597E1,-2.5168958E2,3.5610568E2,7.921896E1,-4.088965E0,3.755645E2,-1.9502901E1,-1.6586246E2,-2.2841335E1,-8.631299E0,-5.5971317E1,8.8799243E2,-1.3156453E2,-2.8848184E2,2.0889603E2,-4.717133E0,-3.415578E2,-1.001336E2,5.259545E2,-3.04689E2,5.397017E2,4.6508694E1,1.4276903E2,8.822814E2,-1.0358138E1,-1.4616399E2,-1.2710479E2,2.103823E2,2.8268973E2,4.517728E2,1.725992E2,2.8789047E2,8.2248535E2,1.9270836E2,-2.1829842E2,2.6615875E2,7.9693317E2,3.1779224E2,8.4477203E2,1.4618683E3,-5.005646E1,-1.4386469E1,1.8843245E2,9.336501E1,4.055016E1,1.17633804E2,-5.0613036E0,-1.2240147E2,-7.463905E2,-6.1608417E2,-7.193968E1,3.896902E1,-6.498257E2,-5.0776697E2,5.574444E1,-1.2449642E2,-1.5540561E2,-8.383335E0,2.5185593E2,-8.774997E1,-6.1963916E2,-1.7371643E1,2.1427351E2,2.5305458E1,-1.8242183E2,-4.142395E1,-4.8371655E1,-2.03829E2,-2.0776484E1,7.9188675E1,-4.440132E2,-8.182599E1,-1.6040556E2,-6.6791046E2,2.760315E-1,4.3605515E2,2.725745E1,-1.9408897E2,-3.495099E1,1.8336885E2,-2.2263158E2,1.0981052E2,-1.438472E2,-1.0904684E1,3.006293E2,1.4859337E2,1.1518338E2,-2.7215878E2,9.3531586E2,5.389653E2,2.2340962E2,5.3659076E2,2.1782901E2,1.7395483E3,9.981058E2,-4.8982132E2,7.240365E2,1.8018058E3,-2.0446472E1,-3.673026E2,-2.3021664E2,7.166102E1,-1.9321767E2,-3.2357843E2,-1.3445027E2,-5.403197E2,-4.3577612E2,-8.0817377E2,-6.77699E2,-4.3407364E2,-7.307746E2,-4.8377676E2,3.164026E0,-1.5711931E2,-2.1413226E2,-5.073461E2,-4.0189594E2,-1.06011955E2,-6.4243097E2,-1.7700842E2,-1.00947675E3,-7.316971E2,-2.8017072E2,-5.0628857E2,-6.118962E2,-7.469675E2,-7.2392004E2,-4.949061E2,-4.9866827E2,-6.3794196E2,-7.6061127E2,-6.261809E2,-4.6555484E2,-2.9642908E2,-1.6731177E2,1.5536902E2,-5.611368E2,-3.8065866E2,-1.6140665E2,8.8686035E1,-2.4989107E2,-6.800398E1,3.5249012E1,-4.859131E1,-2.9758978E2,-1.4143358E2,-3.6591625E1,-2.2859131E2,3.266835E1,-2.6454713E0,-3.6934383E1,-1.3831476E1,5.5968678E1,1.0723365E1,-5.753101E0,-7.0471634E1,-3.0222665E2,3.9231045E1,6.1619022E1,-4.2717123E2,-4.4607837E2,-5.341149E2,-6.887353E2,-2.6925146E2,-1.66171E2,-6.327927E2,-4.307956E2,-1.3070665E2,-1.2130663E2,-2.6701297E2,-4.5488983E1,-1.5632132E2,-5.358711E2,-7.7589124E2,-5.618957E2,-5.266597E1,-3.7991248E2,-5.8402435E2,-7.569773E2,-6.29692E2,-5.9250507E2,-3.9982245E2,-3.34633E1,6.0479008E1,2.7995905E2,-3.595165E1,1.519187E2,-5.0648952E1,2.67464E2,5.8430798E1,4.8126034E1,6.060808E2,-4.4161356E2,2.2847676E2,5.8517126E2,1.9111649E2,1.9506424E2,-7.902171E1,-2.0905598E2,3.6150604E2,2.1216028E1,5.2914435E2,-4.251576E2,-2.3757597E2,-3.5825003E2,-1.0173099E2,-4.0243774E1,5.5543526E1,-6.1245E2,7.761187E2,-8.91088E2,-6.868493E2,-6.2625903E2,-7.929688E2,-9.791899E2,-7.089159E2,-9.2391327E2,-9.6649854E2,-8.326889E2,-3.7457635E2,1.7990113E0,-7.213135E-1,1.4636983E2,2.757462E2,-7.93796E2,-5.991579E2,-7.6764307E2,6.9632896E3,-8.0521277E2,-6.444113E2,-3.4025845E2,-7.3317017E2,-3.0000174E2,-4.6916965E2,-2.2225911E2,8.756418E1,-2.89659E2,-8.885788E2,-7.387817E2,-1.5540186E2,-5.2051337E2,-1.42771E2,-3.3761835E2,-5.278356E2,5.2000836E2,1.7262602E2,-8.0599316E2,-4.4277524E2,1.9014108E3,8.9120856E2,-8.775907E2,-1.0235007E3,-8.841897E2,-9.9722955E2,-8.0602893E2,-2.1261098E2,-8.711906E2,-5.6332605E2,8.848103E1,-4.92526E2,-8.3219995E2,-3.5382632E2,-2.745051E2,-5.692783E1,-4.2319748E2,-5.9517413E2,-1.6147336E2,-6.7283984E2,3.3475928E2,-1.5046207E2,-4.4142435E2,-2.1204211E2,-7.13686E2,2.2437563E2,-2.6151147E2,-5.338707E2,6.9305145E2,2.4902369E1,-1.118087E2,-1.6886545E2,-1.4092683E2,-2.8126575E2,-6.85386E2,3.702149E2,-8.8479034E2,-7.345525E2,-7.2568787E2,2.7937524E2,-6.4805194E2,-9.15272E2,-6.7361755E1,3.5784055E2,1.3127419E2,-4.2728232E2,4.9876163E2,2.2534645E2,2.2574013E1,-1.2920132E2,1.1840333E0,-9.000989E0,3.710852E1,-6.2491314E1,-2.7459962E0,8.261902E1,-3.4963422E2,-2.1481973E2,1.2250883E3,5.7107166E2,2.1594673E2,-2.4320396E2,5.290232E2,7.70304E2,-1.5036188E2,5.4952405E2,4.6145404E2,-4.1946796E1,4.9183618E2,1.5618677E1,3.4694907E2,4.2648365E1,-5.8186957E2,-6.658355E1,-6.79152E2,1.03832596E2,-1.150927E2,1.7388615E2,-1.8571129E2,5.498025E2,2.3470494E2,-2.4774478E2,1.5964877E2,4.3356293E2,-1.1920881E2,-2.6219812E2,1.6744711E2,3.2711266E1,-6.13584E2,-2.974519E2,-1.6574739E2,-2.9093994E2,-8.493031E2,-4.9385544E2,-3.247003E2,-9.824557E1,1.721416E2,4.6148215E2,3.123017E1,-4.4443884E2,6.6634314E2,-2.733888E1,7.0599655E1,2.3755853E2,3.3172162E2,8.219905E1],"categories":[],"categories_nodes":[],"categories_segments":[],"categories_sizes":[],"default_left":[0,0,0,0,0,0,0,0,0,0,0,0,0,0,0,0,0,0,0,0,0,0,0,0,0,0,0,0,0,0,0,0,0,0,0,0,0,0,0,0,0,0,0,0,0,0,0,0,0,0,0,0,0,0,0,0,0,0,0,0,0,0,0,0,0,0,0,0,0,0,0,0,0,0,0,0,0,0,0,0,0,0,0,0,0,0,0,0,0,0,0,0,0,0,0,0,0,0,0,0,0,0,0,0,0,0,0,0,0,0,0,0,0,0,0,0,0,0,0,0,0,0,0,0,0,0,0,0,0,0,0,0,0,0,0,0,0,0,0,0,0,0,0,0,0,0,0,0,0,0,0,0,0,0,0,0,0,0,0,0,0,0,0,0,0,0,0,0,0,0,0,0,0,0,0,0,0,0,0,0,0,0,0,0,0,0,0,0,0,0,0,0,0,0,0,0,0,0,0,0,0,0,0,0,0,0,0,0,0,0,0,0,0,0,0,0,0,0,0,0,0,0,0,0,0,0,0,0,0,0,0,0,0,0,0,0,0,0,0,0,0,0,0,0,0,0,0,0,0,0,0,0,0,0,0,0,0,0,0,0,0,0,0,0,0,0,0,0,0,0,0,0,0,0,0,0,0,0,0,0,0,0,0,0,0,0,0,0,0,0,0,0,0,0,0,0,0,0,0,0,0,0,0,0,0,0,0,0,0,0,0,0,0,0,0,0,0,0,0,0,0,0,0,0,0,0,0,0,0,0,0,0,0,0,0,0,0,0,0,0,0,0,0,0,0,0,0,0,0,0,0,0,0,0,0,0,0,0,0,0,0,0,0,0,0,0,0,0,0,0,0,0,0,0,0,0,0,0,0,0,0,0,0,0,0,0,0,0,0,0,0,0,0,0,0,0,0,0,0,0,0,0,0,0,0,0,0,0,0,0,0,0,0,0,0,0,0,0,0,0,0,0,0,0,0,0,0,0,0,0,0,0,0,0,0,0,0,0,0,0,0,0,0,0,0,0,0,0,0,0,0,0,0,0,0,0,0,0,0,0,0,0,0,0,0,0,0,0,0,0,0,0,0,0,0,0,0,0,0,0,0,0,0,0,0,0,0,0,0,0,0,0,0,0,0,0,0,0,0,0,0,0,0,0,0,0,0,0,0,0,0,0,0,0,0,0,0,0,0,0,0,0,0,0,0,0,0,0,0,0,0,0,0,0,0,0,0,0,0,0,0,0,0,0,0,0,0,0,0,0,0,0,0,0,0,0,0,0,0,0,0,0,0,0,0,0,0,0,0,0,0,0,0,0,0,0,0,0,0,0,0,0,0,0,0,0,0,0,0,0,0,0,0,0,0,0,0,0,0,0,0,0,0,0,0,0,0,0,0,0,0,0,0,0,0,0,0,0,0,0,0,0,0,0,0,0,0,0,0,0,0,0,0,0,0,0,0,0,0,0,0,0,0,0,0,0,0,0,0,0,0,0,0,0,0,0,0,0,0,0,0,0,0,0,0,0,0,0,0,0,0,0,0,0,0,0,0,0,0,0,0,0,0,0,0,0,0,0,0,0,0,0,0,0,0,0,0,0,0,0,0,0,0,0,0,0,0,0,0,0,0,0,0,0,0,0,0,0,0,0,0,0,0,0,0,0,0,0,0,0,0,0,0,0,0,0,0,0,0,0,0,0,0,0,0,0,0,0,0,0,0,0,0,0,0,0,0,0,0,0,0,0,0,0,0,0,0,0,0,0,0,0,0,0,0,0,0,0,0,0,0,0,0,0,0,0,0,0,0,0,0,0,0,0,0,0,0,0,0,0,0,0,0,0,0,0,0,0,0,0,0,0,0,0,0,0,0,0,0,0,0,0,0,0,0,0,0,0,0,0,0,0,0,0,0,0,0,0,0,0,0,0,0,0,0,0,0,0,0,0,0,0,0,0,0,0,0,0,0,0,0,0,0,0,0,0,0,0,0,0,0,0,0,0,0,0,0,0,0,0,0,0,0,0,0,0,0,0,0,0,0,0,0,0,0,0,0,0,0,0,0,0,0,0,0,0,0,0,0,0,0,0,0,0,0,0,0,0,0,0,0,0,0,0,0,0,0,0,0,0,0,0,0,0,0,0,0,0,0,0,0,0,0,0,0,0,0,0,0,0,0,0,0,0,0,0,0,0,0,0,0,0,0,0,0,0,0,0,0,0,0,0,0,0,0,0,0,0,0,0,0,0,0,0,0,0,0,0,0,0,0,0,0,0,0,0,0,0,0,0,0,0,0,0,0,0,0,0,0,0,0,0,0,0,0,0,0,0,0,0,0,0,0,0,0,0,0,0,0,0,0,0,0,0,0,0,0,0,0,0,0,0,0,0,0,0,0,0,0,0,0,0,0,0,0,0,0,0,0,0,0,0,0,0,0,0,0,0,0,0,0,0,0,0,0,0,0,0,0,0,0,0,0,0,0,0,0,0,0,0,0,0,0,0,0,0,0,0,0,0,0,0,0,0,0,0,0,0,0,0,0,0,0,0,0,0,0,0,0,0,0,0,0,0,0,0,0,0,0,0,0,0,0,0,0,0,0,0,0,0,0,0,0,0,0,0,0,0,0,0,0,0,0,0,0,0,0,0,0,0,0,0,0,0,0,0,0,0,0,0,0,0,0,0,0,0,0,0,0,0,0,0,0,0,0,0,0,0,0,0,0,0,0,0,0,0,0,0,0,0,0,0,0,0,0,0,0,0,0,0,0,0,0,0,0,0,0,0,0,0,0,0,0,0,0,0,0,0,0,0,0,0,0,0,0,0,0,0,0,0,0,0,0,0,0,0,0,0,0,0,0,0,0,0,0,0,0,0,0,0,0,0,0,0,0,0,0,0,0,0,0,0,0,0,0,0,0,0,0,0,0,0,0,0,0,0,0,0,0,0,0,0,0,0,0,0,0,0,0,0,0,0,0,0,0,0,0,0,0,0,0,0,0,0,0,0,0,0,0,0,0,0,0,0,0,0,0,0,0,0,0,0,0,0,0,0,0,0,0,0,0,0,0,0,0,0,0,0,0,0,0,0,0,0,0,0,0,0,0,0,0,0,0,0,0,0,0,0,0,0,0,0,0,0,0,0,0,0,0,0,0,0,0,0,0,0,0,0,0,0,0,0,0,0,0,0,0,0,0,0,0,0,0,0,0,0,0,0,0,0,0,0,0,0,0,0,0,0,0,0,0,0,0,0,0,0,0,0,0,0,0,0,0,0,0,0,0,0,0,0,0,0,0,0,0,0,0,0,0,0,0,0,0,0,0,0,0,0,0,0,0,0,0,0,0,0,0,0,0,0,0,0,0,0,0,0,0,0,0,0,0,0,0,0,0,0,0,0,0,0,0,0,0,0,0,0,0,0,0,0,0,0,0,0,0,0,0,0,0,0,0,0,0,0,0,0,0,0,0,0,0,0,0,0,0,0,0,0,0,0,0,0,0,0,0,0,0,0,0,0,0,0,0,0,0,0,0,0,0,0,0,0,0,0,0,0,0,0,0,0,0,0,0,0,0,0,0,0,0,0,0,0,0,0,0,0,0,0,0,0,0,0,0,0,0,0,0,0,0,0,0,0,0,0,0,0,0,0,0,0,0,0,0,0,0,0,0,0,0,0,0,0,0,0,0,0,0,0,0,0,0,0,0,0,0,0,0,0,0,0,0,0,0,0,0,0,0,0,0,0,0,0,0,0,0,0,0,0,0,0,0,0,0,0,0,0,0,0,0,0,0,0,0,0,0,0,0,0,0,0,0,0,0,0,0,0,0,0,0,0,0,0,0,0,0,0,0,0,0,0,0,0,0,0,0,0,0,0,0,0,0,0,0,0,0,0,0,0,0,0,0,0,0,0,0,0,0,0,0,0,0,0,0,0,0,0,0,0,0,0,0,0,0,0,0,0,0,0,0,0,0,0,0,0,0,0,0,0,0,0,0,0,0,0,0,0,0,0,0,0,0,0,0,0,0,0,0,0,0,0,0,0,0,0,0,0,0,0,0,0,0,0,0,0,0,0,0,0,0,0,0,0,0,0,0,0,0,0,0,0,0,0,0,0,0,0,0,0,0,0,0,0,0,0,0,0,0,0,0,0,0,0,0,0,0,0,0,0,0,0,0,0,0,0,0,0,0,0,0,0,0,0,0,0,0,0,0,0,0,0,0,0,0,0,0,0,0,0,0,0,0,0,0,0,0,0,0,0,0,0,0,0,0,0,0,0,0,0,0,0,0,0,0,0,0,0,0,0,0,0,0,0,0,0,0,0,0,0,0,0,0,0,0,0,0,0,0,0,0,0,0,0,0,0,0,0,0,0,0,0,0,0,0,0,0,0,0,0,0,0,0,0,0,0,0,0,0,0,0,0,0,0,0,0,0,0,0,0,0,0,0,0,0,0,0,0,0,0,0,0,0,0,0,0,0,0,0,0,0,0,0,0,0,0,0,0,0,0,0,0,0,0,0,0,0,0,0,0,0,0,0,0,0,0,0,0,0,0,0,0,0,0,0,0,0,0,0,0,0,0,0,0,0,0,0,0,0,0,0,0,0,0,0,0,0,0,0,0,0,0,0,0,0,0,0,0,0,0,0,0,0,0,0,0,0,0,0,0,0,0,0,0,0,0,0,0,0,0,0,0,0,0,0,0,0,0,0,0,0,0,0,0,0,0,0,0,0,0,0,0,0,0,0,0,0,0,0,0,0,0,0,0,0,0,0,0,0,0,0,0,0,0,0,0,0,0,0,0,0,0,0,0,0,0,0,0,0,0,0,0,0,0,0,0,0,0,0,0,0,0,0,0,0,0,0,0,0,0,0,0,0,0,0,0,0,0,0,0,0,0,0,0,0,0,0,0,0,0,0,0,0,0,0,0,0,0,0,0,0,0,0,0,0,0,0,0,0,0,0,0,0,0,0,0,0,0,0,0,0,0,0,0,0,0,0,0,0,0,0,0,0,0,0,0,0,0,0,0,0,0,0,0,0,0,0,0,0,0,0,0,0,0,0,0,0,0,0,0,0,0,0,0,0,0,0,0,0,0,0,0,0,0,0,0,0,0,0,0,0,0,0,0,0,0,0,0,0,0,0,0,0,0,0,0,0,0,0,0,0,0,0,0,0,0,0,0,0,0,0,0,0,0,0,0,0,0,0,0,0,0,0,0,0,0,0,0,0,0,0,0,0,0,0,0,0,0,0,0,0,0,0,0,0,0,0,0,0,0,0,0,0,0,0,0,0,0,0,0,0,0,0,0,0,0,0,0,0,0,0,0,0,0,0,0,0,0,0,0,0,0,0,0,0,0,0,0,0,0,0,0,0,0,0,0,0,0,0,0,0,0,0,0,0,0,0,0,0,0,0,0,0,0,0,0,0,0,0,0,0,0,0,0,0,0,0,0,0,0,0,0,0,0,0,0,0,0,0,0,0,0,0,0,0,0,0,0,0,0,0,0,0,0,0,0,0,0,0,0,0,0,0,0,0,0,0,0,0,0,0,0,0,0,0,0,0,0,0,0,0,0,0,0,0,0,0,0,0,0,0,0,0,0,0,0,0,0,0,0,0,0,0,0,0,0,0,0,0,0,0,0,0,0,0,0,0,0,0,0,0,0,0,0,0,0,0,0,0,0,0,0,0,0,0,0,0,0,0,0,0,0,0,0,0,0,0,0,0,0,0,0,0,0,0,0,0,0,0,0,0,0,0,0,0,0,0,0,0,0,0,0,0,0,0,0,0,0,0,0,0,0,0,0,0,0,0,0,0,0,0,0,0,0,0,0,0,0,0,0,0,0,0,0,0,0,0,0,0,0,0,0,0,0,0,0,0,0,0,0,0,0,0,0,0,0,0,0,0,0,0,0,0,0,0,0,0,0,0,0,0,0,0,0,0,0,0,0,0,0,0,0,0,0,0,0,0,0,0,0,0,0,0,0,0,0,0,0,0,0,0,0,0,0,0,0,0,0,0,0,0,0,0,0,0,0,0,0,0,0,0,0,0,0,0,0,0,0,0,0,0,0,0,0,0,0,0,0,0,0,0,0,0,0,0,0,0,0,0,0,0,0,0,0,0,0,0,0,0,0,0,0,0,0,0,0,0,0,0,0,0,0,0,0,0,0,0,0,0,0,0,0,0,0,0,0,0,0,0,0,0,0,0,0,0,0,0,0,0,0,0,0,0,0,0,0,0,0,0,0,0,0,0,0,0,0,0,0,0,0,0,0,0,0,0,0,0,0,0,0,0,0,0,0,0,0,0,0,0,0,0,0,0,0,0,0,0,0,0,0,0,0,0,0,0,0,0,0,0,0,0,0,0,0,0,0,0,0,0,0,0,0,0,0,0,0,0,0,0,0,0,0,0,0,0,0,0,0,0,0,0,0,0,0,0,0,0,0,0,0,0,0,0,0,0,0,0,0,0,0,0,0,0,0,0,0,0,0,0,0,0,0,0,0,0,0,0,0,0,0,0,0,0,0,0,0,0,0,0,0,0,0,0,0,0,0,0,0,0,0,0,0,0,0,0,0,0,0,0,0,0,0,0,0,0,0,0,0,0,0,0,0,0,0,0,0,0,0,0,0,0,0,0,0,0,0,0,0,0,0,0,0,0,0,0,0,0,0,0,0,0,0,0,0,0,0,0,0,0,0,0,0,0,0,0,0,0,0,0,0,0,0,0,0,0,0,0,0,0,0,0,0,0,0,0,0,0,0,0,0,0,0,0,0,0,0,0,0,0,0,0,0,0,0,0,0,0,0,0,0,0,0,0,0,0,0,0,0,0,0,0,0,0,0,0,0,0,0,0,0,0,0,0,0,0,0,0,0,0,0,0,0,0,0,0,0,0,0,0,0,0,0,0,0,0,0,0,0,0,0,0,0,0,0,0,0,0,0,0,0,0,0,0,0,0,0,0,0,0,0,0,0,0,0,0,0,0,0,0,0,0,0,0,0,0,0,0,0,0,0,0,0,0,0,0,0,0,0,0,0,0,0,0,0,0,0,0,0,0,0,0,0,0,0,0,0,0,0,0,0,0,0,0,0,0,0,0,0,0,0,0,0,0,0,0,0,0,0,0,0,0,0,0,0,0,0,0,0,0,0,0,0,0,0,0,0,0,0,0,0,0,0,0,0,0,0,0,0,0,0,0,0,0,0,0,0,0,0,0,0,0,0,0,0,0,0,0,0,0,0,0,0,0,0,0,0,0,0,0,0,0,0,0,0,0,0,0,0,0,0,0,0,0,0,0,0,0,0,0,0,0,0,0,0,0,0,0,0,0,0,0,0,0,0,0,0,0,0,0,0,0,0,0,0,0,0,0,0,0,0,0,0,0,0,0,0,0,0,0,0,0,0,0,0,0,0,0,0,0,0,0,0,0,0,0,0,0,0,0,0,0,0,0,0,0,0,0,0,0,0,0,0,0,0,0,0,0,0,0,0,0,0,0,0,0,0,0,0,0,0,0,0,0,0,0,0,0,0,0,0,0,0,0,0,0,0,0,0,0,0,0,0,0,0,0,0,0,0,0,0,0,0,0,0,0,0,0,0,0,0,0,0,0,0,0,0,0,0,0,0,0,0,0,0,0,0,0,0,0,0,0,0,0,0,0,0,0,0,0,0,0,0,0,0,0,0,0,0,0,0,0,0,0,0,0,0,0,0,0,0,0,0,0,0,0,0,0,0,0,0,0,0,0,0,0,0,0,0,0,0,0,0,0,0,0,0,0,0,0,0,0,0,0,0,0,0,0,0,0,0,0,0,0,0,0,0,0,0,0,0,0,0,0,0,0,0,0,0,0,0,0,0,0,0,0,0,0,0,0,0,0,0,0,0,0,0,0,0,0,0,0,0,0,0,0,0,0,0,0,0,0,0,0,0,0,0,0,0,0,0,0,0,0,0,0,0,0,0,0,0,0,0,0,0,0,0,0,0,0,0,0,0,0,0,0,0,0,0,0,0,0,0,0,0,0,0,0,0,0,0,0,0,0,0,0,0,0,0,0,0,0,0,0,0,0,0,0,0,0,0,0,0,0,0,0,0,0,0,0,0,0,0,0,0,0,0,0,0,0,0,0,0,0,0,0,0,0,0,0,0,0,0,0,0,0,0,0,0,0,0,0,0,0,0,0,0,0,0,0,0,0,0,0,0,0,0,0,0,0,0,0,0,0,0,0,0,0,0,0,0,0,0,0,0,0,0,0,0,0,0,0,0,0,0,0,0,0,0,0,0,0,0,0,0,0,0,0,0,0,0,0,0,0,0,0,0,0,0,0,0,0,0,0,0,0,0,0,0,0,0,0,0,0,0,0,0,0,0,0,0,0,0,0,0,0,0,0,0,0,0,0,0,0,0,0,0,0,0,0,0,0,0,0,0,0,0,0,0,0,0,0,0,0,0,0,0,0,0,0,0,0,0,0,0,0,0,0,0,0,0,0,0,0,0,0,0,0,0,0,0,0,0,0,0,0,0,0,0,0,0,0,0,0,0,0,0,0,0,0,0,0,0,0,0,0,0,0,0,0,0,0,0,0,0,0,0,0,0,0,0,0,0,0,0,0,0,0,0,0,0,0,0,0,0,0,0,0,0,0,0,0,0,0,0,0,0,0,0,0,0,0,0,0,0,0,0,0,0,0,0,0,0,0,0,0,0,0,0,0,0,0,0,0,0,0,0,0,0,0,0,0,0,0,0,0,0,0,0,0,0,0,0,0,0,0,0,0,0,0,0,0,0,0,0,0,0,0,0,0,0,0,0,0,0,0,0,0,0,0,0,0,0,0,0,0,0,0,0,0,0,0,0,0,0,0,0,0,0,0,0,0,0,0,0,0,0,0,0,0,0,0,0,0,0,0,0,0,0,0,0,0,0,0,0,0,0,0,0,0,0,0,0,0,0,0,0,0,0,0,0,0,0,0,0,0,0,0,0,0,0,0,0,0,0,0,0,0,0,0,0,0,0,0,0,0,0,0,0,0,0,0,0,0,0,0,0,0,0,0,0,0,0,0,0,0,0,0,0,0,0,0,0,0,0,0,0,0,0,0,0,0,0,0,0,0,0,0,0,0,0,0,0,0,0,0,0,0,0,0,0,0,0,0,0,0,0,0,0,0,0,0,0,0,0,0,0,0,0,0,0,0,0,0,0,0,0,0,0,0,0,0,0,0,0,0,0,0,0,0,0,0,0,0,0,0,0,0,0,0,0,0,0,0,0,0,0,0,0,0,0,0,0,0,0,0,0,0,0,0,0,0,0,0,0,0,0,0,0,0,0,0,0,0,0,0,0,0,0,0,0,0,0,0,0,0,0,0,0,0,0,0,0,0,0,0,0,0,0,0,0,0,0,0,0,0,0,0,0,0,0,0,0,0,0,0,0,0,0,0,0,0,0,0,0,0,0,0,0,0,0,0,0,0,0,0,0,0,0,0,0,0,0,0,0,0,0,0,0,0,0,0,0,0,0,0,0,0,0,0,0,0,0,0,0,0,0,0,0,0,0,0,0,0,0,0,0,0,0,0,0,0,0,0,0,0,0,0,0,0,0,0,0,0,0,0,0,0,0,0,0,0,0,0,0,0,0,0,0,0,0,0,0,0,0,0,0,0,0,0,0,0,0,0,0,0,0,0,0,0,0,0,0,0,0,0,0,0,0,0,0,0,0,0,0,0,0,0,0,0,0,0,0,0,0,0,0,0,0,0,0,0,0,0,0,0,0,0,0,0,0,0,0,0,0,0,0,0,0,0,0,0,0,0,0,0,0,0,0,0,0,0,0,0,0,0,0,0,0,0,0,0,0,0,0,0,0,0,0,0,0,0,0,0,0,0,0,0,0,0,0,0,0,0,0,0,0,0,0,0,0,0,0,0,0,0,0,0,0,0,0,0,0,0,0,0,0,0,0,0,0,0,0,0,0,0,0,0,0,0,0,0,0,0,0,0,0,0,0,0,0,0,0,0,0,0,0,0,0,0,0,0,0,0,0,0,0,0,0,0,0,0,0,0,0,0,0,0,0,0,0,0,0,0,0,0,0,0,0,0,0,0,0,0,0,0,0,0,0,0,0,0,0,0,0,0,0,0,0,0,0,0,0,0,0,0,0,0,0,0,0,0,0,0,0,0,0,0,0,0,0,0,0,0,0,0,0,0,0,0,0,0,0,0,0,0,0,0,0,0,0,0,0,0,0,0,0,0,0,0,0,0,0,0,0,0,0,0,0,0,0,0,0,0,0,0,0,0,0,0,0,0,0,0],"id":0,"left_children":[1,3,5,7,9,11,13,15,17,19,21,23,25,27,29,-1,31,33,35,37,39,41,43,45,47,49,51,53,55,57,59,-1,-1,61,63,65,67,69,71,73,75,-1,77,79,81,83,85,87,89,91,93,95,97,99,101,103,-1,105,107,-1,109,111,113,115,-1,117,119,-1,121,123,125,-1,-1,-1,127,129,131,133,135,137,139,141,143,145,147,149,151,153,155,157,159,161,163,165,167,169,171,173,175,-1,-1,177,-1,-1,179,181,183,185,187,189,-1,191,193,195,197,199,201,203,205,207,-1,-1,-1,209,211,213,-1,215,-1,217,219,221,223,225,227,-1,229,231,-1,-1,233,-1,235,-1,237,239,241,243,245,247,249,251,253,255,257,259,261,263,265,267,269,271,273,275,277,279,281,283,-1,285,287,289,291,293,295,297,299,301,-1,303,-1,305,-1,307,309,311,313,-1,-1,315,-1,317,319,-1,321,-1,-1,-1,323,-1,-1,325,-1,-1,327,-1,-1,329,331,-1,-1,333,-1,335,337,-1,339,341,-1,343,-1,-1,345,347,349,-1,-1,351,-1,353,355,357,359,-1,-1,-1,361,363,365,367,369,371,373,375,377,379,381,383,385,387,389,391,393,395,397,-1,-1,399,401,403,-1,405,407,409,411,-1,413,415,417,419,421,423,425,427,429,431,433,435,437,439,441,443,445,447,449,451,453,455,457,459,461,463,465,467,469,471,473,475,477,479,481,-1,-1,-1,-1,483,485,487,489,491,-1,-1,-1,-1,-1,-1,-1,-1,493,-1,495,497,-1,-1,-1,-1,-1,-1,-1,-1,-1,499,-1,501,-1,-1,503,505,-1,-1,-1,-1,-1,-1,507,509,511,-1,-1,513,515,-1,-1,-1,517,519,-1,521,-1,-1,-1,-1,-1,-1,523,525,-1,527,529,531,533,535,537,539,541,543,545,547,549,551,553,555,557,559,561,563,565,567,569,571,573,575,577,-1,-1,579,-1,581,583,585,-1,587,589,591,593,595,597,-1,599,601,-1,603,605,-1,607,609,-1,611,613,-1,615,617,619,-1,-1,621,623,625,627,629,631,-1,-1,633,635,637,639,641,643,645,647,649,651,653,655,657,659,-1,661,663,665,667,669,671,673,675,677,679,-1,681,683,685,687,689,691,693,695,-1,697,699,701,703,705,707,-1,709,711,713,-1,715,717,719,-1,-1,721,723,725,-1,-1,727,729,-1,731,733,735,737,-1,-1,-1,-1,-1,739,-1,-1,-1,-1,-1,741,743,-1,-1,-1,-1,745,-1,747,-1,749,-1,751,-1,753,755,-1,-1,757,759,761,763,765,767,769,771,773,775,777,779,781,783,785,787,789,791,793,795,797,799,801,-1,803,805,807,809,811,813,815,817,819,821,823,-1,825,-1,827,829,-1,-1,831,833,835,-1,837,839,841,843,-1,-1,-1,845,847,849,851,853,-1,855,857,859,861,863,-1,865,867,-1,-1,-1,869,871,-1,-1,873,875,-1,-1,-1,-1,877,-1,879,881,883,885,-1,-1,-1,887,889,891,893,895,897,899,-1,-1,-1,-1,901,903,905,907,909,911,913,915,917,919,-1,921,923,925,927,929,931,933,-1,935,937,939,941,943,945,947,-1,949,951,953,955,957,959,961,963,965,-1,967,969,971,-1,-1,973,975,977,979,-1,981,983,985,987,989,991,-1,993,995,997,999,1001,1003,1005,1007,-1,-1,1009,1011,1013,-1,1015,1017,-1,1019,1021,1023,-1,-1,1025,-1,1027,1029,1031,1033,1035,1037,1039,1041,1043,-1,-1,1045,1047,1049,-1,1051,1053,1055,1057,1059,-1,-1,-1,1061,1063,-1,-1,1065,-1,-1,1067,1069,1071,-1,1073,1075,-1,-1,1077,-1,1079,1081,1083,1085,-1,-1,1087,1089,-1,1091,-1,-1,1093,-1,-1,-1,-1,-1,1095,1097,1099,1101,1103,1105,1107,1109,1111,1113,1115,1117,1119,1121,1123,1125,1127,1129,1131,1133,-1,-1,-1,-1,1135,1137,1139,1141,1143,-1,1145,1147,1149,-1,-1,1151,1153,1155,-1,1157,1159,1161,1163,1165,1167,1169,1171,1173,1175,1177,1179,1181,1183,1185,1187,1189,1191,1193,1195,1197,1199,1201,-1,-1,-1,-1,1203,1205,1207,1209,1211,1213,1215,1217,-1,1219,1221,1223,-1,1225,1227,1229,-1,-1,1231,-1,-1,1233,1235,-1,1237,1239,1241,1243,-1,-1,1245,1247,-1,1249,-1,1251,1253,1255,-1,-1,-1,1257,-1,-1,1259,1261,-1,-1,-1,-1,-1,1263,-1,-1,-1,1265,1267,-1,-1,-1,1269,1271,1273,1275,-1,-1,-1,1277,-1,-1,-1,1279,1281,1283,1285,1287,-1,-1,1289,1291,1293,1295,1297,1299,1301,1303,1305,1307,1309,1311,-1,-1,1313,1315,-1,-1,1317,1319,1321,1323,1325,-1,1327,1329,1331,-1,1333,1335,1337,1339,-1,-1,1341,1343,1345,1347,1349,1351,-1,1353,1355,1357,-1,1359,1361,-1,1363,1365,1367,1369,1371,1373,1375,1377,1379,1381,1383,1385,1387,1389,1391,-1,-1,-1,-1,-1,-1,1393,1395,1397,-1,-1,1399,1401,1403,1405,1407,1409,1411,1413,1415,1417,-1,-1,-1,1419,1421,1423,-1,1425,1427,1429,1431,1433,1435,1437,-1,-1,1439,1441,1443,1445,1447,-1,1449,1451,1453,1455,-1,1457,1459,-1,-1,-1,1461,1463,1465,1467,1469,1471,1473,1475,1477,1479,-1,1481,1483,-1,1485,-1,-1,-1,1487,1489,-1,-1,1491,-1,-1,-1,1493,1495,1497,1499,1501,-1,1503,1505,1507,1509,-1,-1,-1,-1,-1,-1,-1,-1,1511,1513,-1,-1,-1,1515,-1,-1,1517,-1,-1,-1,-1,-1,-1,1519,-1,1521,-1,-1,-1,-1,1523,1525,-1,-1,-1,-1,1527,-1,1529,1531,-1,1533,1535,-1,-1,1537,1539,1541,1543,1545,1547,1549,1551,-1,1553,1555,1557,1559,1561,-1,1563,1565,1567,1569,1571,1573,-1,1575,1577,1579,-1,1581,-1,-1,1583,-1,-1,-1,1585,1587,1589,1591,1593,1595,1597,1599,-1,1601,1603,1605,1607,1609,1611,1613,1615,1617,1619,1621,1623,1625,1627,1629,-1,-1,1631,1633,1635,1637,1639,1641,1643,1645,1647,1649,1651,1653,-1,-1,1655,1657,1659,-1,-1,1661,1663,1665,1667,1669,1671,-1,1673,1675,1677,1679,1681,-1,1683,1685,1687,1689,1691,1693,1695,1697,1699,1701,1703,1705,1707,1709,1711,1713,1715,1717,1719,1721,1723,1725,1727,-1,1729,-1,-1,-1,1731,1733,1735,1737,-1,-1,1739,1741,1743,1745,1747,-1,-1,1749,-1,1751,-1,-1,-1,-1,1753,1755,-1,1757,1759,-1,-1,-1,-1,-1,1761,1763,-1,1765,1767,-1,-1,-1,1769,1771,1773,1775,-1,-1,-1,-1,-1,1777,-1,1779,-1,-1,-1,-1,-1,1781,-1,-1,-1,-1,-1,-1,-1,1783,-1,1785,-1,-1,1787,1789,1791,1793,1795,1797,-1,1799,1801,1803,-1,1805,1807,-1,1809,1811,1813,1815,1817,1819,1821,1823,1825,1827,-1,-1,1829,-1,1831,1833,1835,1837,-1,1839,1841,-1,1843,1845,-1,1847,-1,1849,-1,1851,1853,-1,1855,1857,1859,1861,-1,1863,1865,1867,1869,1871,-1,-1,1873,1875,1877,1879,1881,1883,1885,1887,-1,1889,-1,1891,-1,-1,-1,1893,-1,-1,1895,1897,1899,1901,1903,1905,1907,1909,1911,-1,1913,1915,1917,1919,1921,1923,-1,1925,-1,1927,-1,-1,1929,1931,-1,-1,-1,-1,-1,1933,1935,1937,-1,-1,-1,1939,-1,-1,1941,-1,1943,1945,1947,-1,1949,1951,1953,-1,-1,1955,-1,1957,1959,1961,-1,-1,-1,1963,1965,-1,1967,1969,-1,1971,1973,1975,1977,-1,1979,-1,1981,1983,1985,1987,1989,1991,1993,-1,1995,1997,1999,-1,2001,2003,2005,2007,2009,2011,-1,2013,2015,2017,-1,-1,-1,2019,-1,2021,2023,2025,-1,-1,-1,-1,-1,2027,2029,-1,-1,-1,-1,2031,2033,-1,-1,2035,-1,2037,-1,-1,2039,-1,-1,-1,-1,2041,2043,-1,2045,-1,2047,-1,-1,2049,2051,-1,-1,-1,2053,2055,2057,2059,2061,2063,-1,2065,2067,2069,-1,-1,-1,-1,-1,-1,-1,-1,-1,-1,-1,-1,-1,2071,-1,-1,2073,2075,2077,2079,2081,2083,2085,2087,2089,2091,2093,-1,2095,2097,2099,2101,2103,2105,2107,2109,-1,2111,2113,2115,2117,2119,-1,2121,-1,-1,2123,-1,-1,2125,2127,2129,2131,2133,-1,-1,-1,2135,2137,2139,2141,2143,2145,2147,-1,2149,2151,2153,2155,-1,-1,-1,2157,2159,2161,2163,2165,2167,2169,2171,2173,2175,2177,2179,2181,-1,-1,-1,-1,-1,2183,2185,2187,2189,-1,-1,2191,2193,2195,2197,2199,2201,2203,2205,2207,2209,2211,2213,2215,2217,2219,2221,2223,2225,2227,2229,2231,-1,-1,2233,2235,2237,2239,2241,2243,2245,-1,-1,2247,2249,2251,-1,2253,-1,2255,2257,2259,-1,2261,2263,2265,2267,2269,2271,2273,2275,-1,-1,2277,2279,2281,2283,2285,2287,2289,-1,-1,-1,-1,-1,2291,2293,2295,2297,2299,2301,-1,2303,2305,2307,2309,2311,2313,2315,2317,2319,2321,2323,2325,2327,2329,2331,2333,2335,2337,-1,2339,2341,2343,2345,2347,2349,2351,2353,2355,-1,-1,-1,2357,2359,2361,2363,2365,-1,2367,2369,-1,-1,-1,-1,2371,2373,-1,2375,2377,-1,-1,-1,2379,-1,2381,-1,2383,2385,-1,2387,-1,2389,2391,2393,-1,2395,2397,2399,-1,-1,-1,-1,-1,2401,-1,-1,2403,2405,-1,-1,-1,-1,2407,-1,2409,2411,2413,-1,2415,2417,2419,2421,2423,2425,2427,2429,-1,2431,-1,-1,2433,2435,-1,-1,2437,2439,-1,2441,2443,2445,2447,2449,-1,2451,2453,2455,2457,2459,2461,2463,2465,2467,-1,2469,2471,2473,-1,-1,-1,-1,2475,2477,-1,-1,2479,2481,2483,2485,-1,2487,-1,-1,2489,-1,-1,2491,2493,2495,2497,2499,-1,-1,2501,2503,2505,2507,-1,-1,2509,2511,-1,2513,-1,-1,-1,-1,-1,-1,2515,-1,2517,-1,-1,-1,-1,-1,2519,2521,-1,-1,2523,2525,2527,2529,-1,2531,2533,-1,2535,2537,-1,2539,2541,-1,2543,2545,-1,-1,2547,2549,2551,2553,-1,2555,2557,-1,2559,2561,-1,2563,-1,2565,2567,-1,-1,2569,2571,2573,2575,2577,2579,2581,-1,2583,-1,-1,-1,-1,-1,2585,-1,2587,-1,-1,-1,-1,2589,-1,-1,2591,2593,2595,-1,-1,2597,2599,2601,2603,2605,2607,2609,-1,2611,-1,-1,-1,-1,-1,-1,-1,2613,2615,-1,2617,-1,2619,2621,-1,2623,2625,2627,-1,2629,2631,-1,2633,-1,2635,-1,-1,2637,-1,2639,2641,2643,-1,-1,-1,-1,-1,2645,-1,-1,2647,-1,2649,2651,2653,2655,2657,-1,2659,-1,-1,2661,2663,2665,2667,2669,2671,2673,2675,2677,2679,-1,-1,2681,2683,2685,2687,-1,-1,2689,-1,2691,2693,2695,2697,2699,2701,2703,2705,2707,2709,-1,-1,-1,-1,2711,-1,2713,-1,2715,-1,2717,2719,2721,2723,-1,2725,-1,-1,-1,-1,-1,2727,-1,-1,-1,-1,2729,-1,-1,-1,2731,2733,-1,2735,-1,-1,-1,-1,2737,-1,2739,2741,-1,-1,2743,2745,2747,2749,2751,2753,2755,2757,-1,-1,-1,2759,-1,-1,-1,-1,2761,-1,2763,2765,2767,2769,2771,2773,2775,2777,2779,2781,-1,2783,-1,2785,2787,2789,-1,2791,-1,2793,2795,-1,2797,2799,2801,-1,2803,2805,2807,2809,2811,2813,2815,2817,2819,2821,2823,-1,-1,2825,-1,2827,-1,-1,-1,2829,-1,-1,-1,-1,-1,-1,2831,2833,2835,2837,2839,2841,2843,2845,2847,2849,-1,2851,-1,2853,2855,2857,-1,2859,2861,2863,-1,-1,-1,-1,2865,-1,-1,2867,-1,2869,2871,2873,2875,2877,-1,-1,2879,2881,-1,2883,2885,2887,2889,2891,2893,2895,2897,-1,2899,2901,2903,2905,2907,2909,-1,-1,2911,2913,2915,2917,-1,-1,-1,-1,-1,2919,-1,-1,-1,-1,-1,2921,-1,2923,2925,2927,2929,2931,2933,-1,2935,2937,2939,2941,2943,2945,2947,-1,2949,2951,-1,-1,2953,2955,2957,2959,2961,2963,2965,-1,2967,2969,-1,-1,2971,2973,2975,-1,2977,-1,-1,2979,-1,-1,2981,2983,2985,2987,2989,2991,-1,2993,2995,2997,2999,-1,-1,3001,-1,3003,-1,-1,-1,-1,3005,-1,-1,-1,3007,3009,3011,3013,3015,3017,3019,3021,3023,3025,3027,3029,-1,3031,-1,-1,-1,3033,3035,-1,-1,-1,3037,3039,-1,-1,-1,3041,-1,-1,-1,3043,-1,-1,3045,3047,3049,3051,3053,3055,3057,-1,3059,3061,3063,3065,3067,3069,3071,3073,3075,-1,3077,3079,3081,-1,3083,3085,-1,3087,3089,3091,3093,3095,3097,3099,3101,3103,-1,3105,3107,3109,3111,3113,3115,3117,3119,3121,3123,3125,-1,-1,3127,-1,3129,3131,3133,3135,-1,-1,-1,-1,3137,3139,3141,3143,-1,3145,3147,3149,-1,-1,3151,-1,3153,3155,3157,3159,3161,3163,3165,3167,-1,-1,-1,-1,3169,3171,-1,-1,-1,-1,-1,-1,3173,3175,-1,-1,-1,-1,3177,3179,-1,3181,-1,3183,-1,-1,-1,-1,3185,-1,-1,-1,-1,-1,-1,3187,-1,-1,-1,-1,-1,-1,3189,-1,3191,3193,-1,-1,3195,-1,-1,-1,-1,-1,-1,-1,3197,-1,3199,-1,3201,3203,-1,-1,-1,-1,3205,3207,3209,3211,3213,3215,3217,3219,3221,3223,3225,3227,3229,3231,3233,3235,3237,3239,3241,3243,3245,3247,3249,3251,3253,3255,3257,3259,-1,3261,3263,-1,-1,-1,-1,3265,3267,-1,-1,3269,3271,3273,3275,-1,-1,-1,3277,3279,-1,3281,3283,3285,3287,3289,3291,3293,3295,-1,3297,-1,-1,-1,-1,3299,3301,3303,3305,3307,-1,3309,-1,3311,3313,-1,3315,3317,-1,3319,3321,-1,3323,3325,3327,3329,-1,-1,-1,-1,3331,3333,-1,-1,3335,3337,-1,3339,3341,3343,3345,-1,-1,-1,-1,-1,3347,3349,3351,3353,3355,-1,3357,-1,3359,3361,-1,3363,-1,-1,-1,3365,3367,3369,-1,3371,-1,-1,-1,-1,-1,3373,3375,3377,-1,-1,-1,-1,3379,-1,3381,-1,3383,-1,-1,-1,-1,-1,3385,3387,3389,-1,3391,3393,-1,3395,3397,3399,3401,3403,3405,3407,3409,3411,-1,-1,3413,-1,3415,3417,3419,-1,3421,-1,3423,-1,-1,-1,-1,3425,3427,3429,3431,3433,3435,-1,-1,3437,3439,-1,-1,3441,-1,3443,-1,-1,-1,3445,3447,-1,3449,3451,-1,-1,3453,3455,3457,-1,3459,-1,3461,3463,3465,3467,-1,3469,3471,-1,-1,-1,3473,3475,3477,3479,3481,-1,3483,3485,3487,3489,3491,-1,-1,-1,3493,3495,-1,-1,3497,3499,3501,-1,-1,-1,3503,3505,-1,-1,3507,3509,3511,3513,3515,3517,3519,3521,3523,3525,3527,3529,3531,3533,-1,-1,-1,3535,3537,3539,3541,3543,-1,-1,3545,-1,-1,-1,-1,3547,-1,3549,3551,3553,-1,3555,-1,3557,-1,3559,-1,3561,3563,-1,3565,3567,-1,-1,-1,3569,-1,-1,-1,-1,3571,3573,3575,3577,3579,-1,3581,3583,3585,-1,3587,3589,-1,-1,3591,3593,-1,-1,-1,-1,3595,3597,3599,3601,3603,-1,3605,3607,3609,3611,3613,3615,3617,3619,3621,3623,-1,3625,-1,-1,-1,3627,-1,-1,3629,-1,3631,3633,3635,-1,3637,3639,-1,-1,3641,3643,3645,3647,-1,3649,3651,-1,3653,3655,-1,-1,3657,-1,3659,3661,3663,3665,3667,3669,-1,3671,-1,-1,3673,-1,-1,-1,-1,-1,3675,3677,3679,3681,3683,3685,3687,-1,3689,3691,3693,3695,-1,-1,-1,3697,-1,-1,-1,-1,3699,3701,3703,-1,-1,3705,3707,3709,-1,-1,-1,-1,-1,-1,3711,3713,3715,-1,3717,-1,3719,-1,-1,-1,3721,-1,3723,3725,3727,3729,3731,3733,3735,-1,3737,3739,-1,3741,3743,3745,-1,3747,-1,3749,3751,3753,3755,3757,3759,3761,3763,3765,3767,3769,3771,3773,3775,3777,3779,3781,-1,3783,3785,3787,3789,3791,3793,3795,3797,3799,3801,3803,-1,-1,3805,3807,-1,3809,-1,-1,-1,-1,3811,3813,3815,-1,-1,-1,-1,-1,-1,-1,-1,-1,-1,-1,3817,3819,3821,-1,-1,3823,3825,3827,3829,3831,3833,3835,3837,3839,3841,3843,3845,3847,-1,3849,-1,3851,-1,-1,3853,-1,3855,3857,-1,-1,3859,3861,-1,-1,-1,-1,-1,-1,3863,3865,3867,3869,3871,3873,3875,3877,-1,3879,3881,3883,3885,3887,3889,-1,3891,-1,-1,-1,3893,-1,-1,-1,-1,-1,-1,-1,-1,3895,3897,3899,-1,3901,3903,3905,-1,-1,3907,3909,3911,-1,3913,3915,3917,-1,3919,3921,-1,-1,-1,-1,3923,-1,3925,-1,-1,3927,-1,3929,3931,-1,-1,3933,3935,3937,3939,3941,-1,3943,3945,3947,3949,3951,3953,3955,3957,3959,3961,-1,3963,3965,3967,3969,3971,-1,-1,3973,3975,3977,-1,3979,-1,-1,3981,3983,3985,-1,3987,3989,3991,3993,-1,3995,-1,3997,3999,4001,4003,4005,4007,4009,4011,4013,-1,4015,4017,4019,4021,4023,4025,4027,4029,4031,4033,4035,4037,4039,4041,4043,4045,4047,4049,-1,4051,4053,-1,4055,-1,4057,4059,4061,4063,4065,4067,4069,-1,-1,-1,-1,-1,-1,-1,-1,-1,-1,-1,4071,-1,-1,4073,4075,4077,4079,4081,4083,4085,4087,-1,4089,4091,4093,4095,4097,-1,4099,4101,4103,4105,-1,4107,4109,-1,-1,4111,4113,4115,-1,4117,-1,4119,-1,-1,-1,-1,-1,4121,4123,-1,-1,4125,-1,-1,4127,-1,-1,-1,-1,-1,-1,4129,-1,4131,4133,-1,-1,-1,4135,-1,4137,-1,-1,4139,4141,4143,4145,4147,4149,4151,4153,4155,4157,-1,-1,-1,-1,4159,4161,4163,4165,4167,4169,4171,4173,4175,4177,4179,4181,4183,4185,4187,4189,4191,4193,4195,4197,-1,4199,4201,-1,4203,4205,4207,4209,4211,4213,4215,4217,-1,4219,4221,4223,4225,-1,-1,-1,-1,4227,-1,-1,-1,-1,4229,4231,4233,-1,-1,-1,-1,4235,-1,-1,-1,4237,-1,-1,-1,-1,4239,-1,4241,-1,-1,-1,-1,-1,4243,4245,4247,4249,4251,-1,4253,4255,4257,-1,-1,-1,4259,-1,-1,-1,-1,-1,-1,-1,-1,-1,-1,-1,-1,-1,-1,4261,4263,4265,-1,4267,-1,-1,-1,-1,-1,4269,4271,4273,-1,-1,4275,4277,4279,4281,-1,4283,-1,-1,4285,-1,4287,4289,-1,4291,4293,4295,-1,-1,4297,4299,4301,4303,4305,4307,4309,4311,-1,-1,-1,-1,4313,-1,4315,4317,4319,4321,-1,4323,4325,-1,4327,-1,4329,-1,4331,4333,-1,-1,-1,-1,4335,4337,4339,-1,-1,-1,-1,-1,-1,4341,4343,4345,-1,-1,4347,4349,4351,-1,-1,-1,-1,-1,4353,-1,-1,4355,4357,-1,4359,4361,4363,-1,4365,4367,-1,-1,-1,-1,-1,4369,-1,-1,-1,-1,-1,4371,-1,-1,-1,4373,-1,-1,4375,-1,-1,-1,-1,-1,4377,-1,4379,4381,-1,-1,-1,-1,-1,-1,4383,-1,-1,4385,-1,4387,4389,-1,4391,-1,-1,4393,-1,4395,-1,4397,-1,4399,-1,4401,4403,4405,4407,-1,-1,4409,4411,4413,4415,4417,4419,4421,4423,4425,-1,4427,4429,-1,-1,-1,-1,-1,4431,4433,4435,-1,-1,4437,-1,-1,-1,4439,4441,-1,-1,-1,4443,-1,-1,-1,4445,4447,4449,4451,-1,4453,4455,-1,4457,4459,4461,4463,4465,4467,-1,-1,4469,4471,4473,4475,-1,4477,4479,4481,-1,-1,-1,-1,-1,4483,-1,4485,-1,4487,-1,4489,-1,4491,-1,-1,-1,-1,-1,-1,4493,4495,4497,4499,4501,4503,-1,-1,-1,4505,-1,-1,-1,-1,-1,-1,-1,-1,4507,-1,4509,4511,-1,-1,-1,4513,4515,4517,4519,4521,4523,4525,4527,4529,4531,-1,4533,4535,4537,-1,-1,-1,4539,-1,-1,-1,-1,-1,-1,-1,-1,-1,-1,-1,-1,-1,-1,-1,-1,-1,-1,-1,-1,-1,-1,-1,-1,-1,-1,-1,-1,-1,-1,-1,-1,-1,-1,-1,-1,-1,-1,-1,-1,-1,-1,-1,-1,-1,-1,-1,-1,-1,-1,-1,-1,-1,-1,-1,-1,-1,-1,-1,-1,-1,-1,-1,-1,-1,-1,-1,-1,-1,-1,-1,-1,-1,-1,-1,-1,-1,-1,-1,-1,-1,-1,-1,-1,-1,-1,-1,-1,-1,-1,-1,-1,-1,-1,-1,-1,-1,-1,-1,-1,-1,-1,-1,-1,-1,-1,-1,-1,-1,-1,-1,-1,-1,-1,-1,-1,-1,-1,-1,-1,-1,-1,-1,-1,-1,-1,-1,-1,-1,-1,-1,-1,-1,-1,-1,-1,-1,-1,-1,-1,-1,-1,-1,-1,-1,-1,-1,-1,-1,-1,-1,-1,-1,-1,-1,-1,-1,-1,-1,-1,-1,-1,-1,-1,-1,-1,-1,-1,-1,-1,-1,-1,-1,-1,-1,-1,-1,-1,-1,-1,-1,-1,-1,-1,-1,-1,-1,-1,-1,-1,-1,-1,-1,-1,-1,-1,-1,-1,-1,-1,-1,-1,-1,-1,-1,-1,-1,-1,-1,-1,-1,-1,-1,-1,-1,-1,-1,-1,-1,-1,-1,-1,-1,-1,-1,-1,-1,-1,-1,-1,-1,-1,-1,-1,-1,-1,-1,-1,-1,-1,-1,-1,-1,-1,-1,-1,-1,-1,-1,-1,-1,-1,-1,-1,-1,-1,-1,-1,-1,-1,-1,-1,-1,-1,-1,-1,-1,-1,-1,-1,-1,-1,-1,-1,-1,-1,-1,-1,-1,-1,-1,-1,-1,-1,-1,-1,-1,-1,-1,-1,-1,-1,-1,-1,-1,-1,-1,-1,-1,-1,-1,-1,-1,-1,-1,-1,-1,-1,-1,-1,-1,-1,-1,-1,-1,-1,-1,-1,-1,-1,-1,-1,-1,-1,-1,-1,-1,-1,-1,-1,-1,-1,-1,-1,-1,-1,-1,-1,-1,-1,-1,-1,-1,-1,-1,-1,-1,-1,-1,-1,-1,-1,-1,-1,-1,-1,-1,-1,-1,-1,-1,-1,-1,-1,-1,-1,-1,-1,-1,-1,-1,-1,-1,-1,-1,-1,-1,-1,-1,-1,-1,-1,-1,-1,-1,-1,-1,-1,-1,-1,-1,-1,-1,-1,-1,-1,-1,-1,-1,-1,-1,-1,-1,-1,-1,-1,-1,-1,-1,-1,-1,-1,-1,-1,-1,-1,-1,-1,-1,-1,-1,-1,-1,-1,-1,-1,-1,-1,-1,-1,-1,-1,-1,-1,-1,-1,-1,-1,-1,-1,-1,-1,-1,-1,-1,-1,-1,-1,-1,-1,-1,-1,-1,-1,-1,-1,-1,-1,-1,-1,-1,-1,-1,-1,-1,-1,-1,-1,-1,-1,-1,-1,-1,-1,-1,-1,-1,-1,-1,-1,-1,-1,-1,-1,-1,-1,-1,-1,-1,-1,-1,-1,-1,-1,-1,-1,-1,-1,-1,-1,-1,-1,-1,-1,-1,-1,-1,-1,-1,-1,-1,-1,-1,-1,-1,-1,-1,-1,-1,-1,-1,-1,-1,-1,-1,-1,-1,-1,-1,-1,-1,-1,-1,-1,-1,-1,-1,-1,-1,-1,-1,-1,-1,-1,-1,-1,-1,-1,-1,-1,-1,-1,-1,-1,-1,-1,-1,-1,-1,-1,-1,-1,-1,-1,-1,-1,-1,-1,-1,-1,-1,-1,-1,-1,-1,-1,-1,-1,-1,-1,-1,-1,-1,-1,-1,-1,-1,-1,-1,-1,-1,-1,-1,-1,-1,-1,-1,-1,-1,-1,-1,-1,-1,-1,-1,-1,-1,-1,-1,-1,-1,-1,-1,-1,-1,-1,-1,-1,-1,-1,-1,-1,-1,-1,-1,-1,-1,-1,-1,-1,-1,-1,-1,-1,-1,-1,-1,-1,-1,-1,-1,-1,-1,-1,-1,-1,-1,-1,-1,-1,-1,-1,-1,-1,-1,-1,-1,-1,-1,-1,-1,-1,-1,-1,-1,-1,-1,-1,-1,-1,-1,-1,-1,-1,-1,-1,-1,-1,-1,-1,-1,-1,-1,-1,-1,-1,-1,-1,-1,-1,-1,-1,-1,-1,-1,-1,-1,-1,-1,-1,-1,-1,-1,-1,-1,-1,-1,-1,-1,-1,-1,-1,-1,-1,-1,-1,-1,-1,-1,-1,-1,-1,-1,-1,-1,-1,-1,-1,-1,-1,-1,-1,-1,-1,-1,-1,-1,-1,-1,-1,-1,-1,-1,-1,-1,-1,-1,-1,-1,-1,-1,-1,-1,-1,-1,-1,-1,-1,-1,-1,-1,-1,-1,-1,-1,-1,-1,-1,-1,-1,-1,-1,-1,-1,-1,-1,-1,-1,-1,-1,-1,-1,-1,-1,-1,-1,-1,-1,-1,-1,-1,-1,-1,-1,-1,-1,-1,-1,-1,-1,-1,-1,-1,-1,-1,-1,-1,-1,-1,-1,-1,-1,-1,-1,-1,-1,-1,-1,-1,-1,-1,-1,-1,-1,-1,-1,-1,-1,-1,-1,-1,-1,-1,-1,-1,-1,-1,-1,-1,-1,-1,-1,-1,-1,-1,-1,-1,-1,-1,-1,-1,-1,-1,-1,-1,-1,-1,-1,-1,-1,-1,-1,-1,-1,-1,-1,-1,-1,-1,-1,-1,-1,-1,-1,-1,-1,-1,-1,-1,-1,-1,-1,-1,-1,-1,-1,-1,-1,-1,-1,-1,-1,-1,-1,-1,-1,-1,-1,-1,-1,-1,-1,-1,-1,-1,-1,-1,-1,-1,-1,-1,-1,-1,-1,-1,-1,-1,-1,-1,-1,-1,-1,-1,-1,-1,-1,-1,-1,-1,-1,-1,-1,-1,-1,-1,-1,-1,-1,-1,-1,-1,-1,-1,-1,-1,-1,-1],"loss_changes":[4.0242598E13,5.919878E13,1.3610218E12,1.651446E13,8.7151974E8,1.1190262E11,7.233305E12,4.3157207E12,4.1660973E12,1.710036E8,4.043625E8,9.221304E10,3.751792E10,1.5803943E12,3.3577337E11,0E0,3.718303E11,2.1697135E12,2.4139058E11,6.339484E7,5.121196E7,3.6663264E7,1.374976E8,2.6983E10,6.562849E9,1.5134663E10,3.0979391E10,1.8429424E11,1.8793103E11,1.2423042E11,5.1496157E11,0E0,0E0,1.9619276E12,2.2167732E11,1.2841556E11,3.559838E8,3.4494364E7,1.140912E6,2.3236344E7,2.0212528E7,0E0,1.6593934E7,3.662851E7,8.765466E7,2.1818327E10,2.8427653E9,6.619873E8,8.626422E8,7.1574994E9,1.0944225E9,2.3846158E10,1.050771E10,1.8606391E10,3.2460764E7,1.7836278E10,0E0,2.1789194E10,5.02587E10,0E0,3.663808E7,1.923986E12,7.677168E6,1.7344211E8,0E0,1.120883E11,3.6454007E10,0E0,5.594356E6,5.089123E6,6.903444E6,0E0,0E0,0E0,3.9038315E6,5.767696E6,6.967171E6,2.790244E6,4.6929365E6,3.3026384E7,3.893728E6,2.8773376E7,3.472091E7,1.018847E10,1.2027762E10,1.6251505E9,7.126067E8,3.6128768E8,1.0595184E8,1.2669747E8,6.2909235E8,2.1898941E9,5.6434145E9,4.4122112E8,1.920561E8,1.4290057E10,7.0255903E9,2.238438E9,2.721531E9,0E0,0E0,9.078536E6,0E0,0E0,3.51965E10,3.3793155E10,3.6427745E9,3.437532E10,3.5243082E6,3.1520736E7,0E0,8.2923907E11,6.553663E11,1.6798906E5,1.1537484E7,2.1202592E7,2.6341746E7,3.0975132E10,5.1423624E7,5.18298E9,0E0,0E0,0E0,1.9236775E6,2.979647E6,1.898236E6,0E0,1.9955419E6,0E0,6.999304E6,7.886364E6,1.081264E7,1.012951E6,1.9848844E5,1.017613E6,0E0,2.3067938E6,1.968064E7,0E0,0E0,6.499552E6,0E0,5.606656E6,0E0,5.485609E6,5.4755E9,2.66949E9,4.9805486E9,7.113832E9,5.432965E8,1.2747026E9,3.198922E7,5.093847E8,5.643776E6,1.6629146E8,8.892784E6,7.410085E7,8.198963E7,4.160205E7,2.5750733E8,1.5386029E8,1.148076E9,1.5735539E9,1.3791406E9,2.8445724E9,3.7280973E8,2.4525312E8,2.431064E7,0E0,1.1209987E10,2.7964022E9,3.7989908E9,9.659367E9,7.8568525E8,7.070116E8,3.9590502E8,2.1304786E9,8.812836E4,0E0,5.3651964E10,0E0,3.830932E9,0E0,6.6809446E8,1.000425E8,4.33317E10,9.847843E9,0E0,0E0,1.1588164E7,0E0,3.7382993E11,1.6327587E11,0E0,2.5584206E11,0E0,0E0,0E0,1.5642794E6,0E0,0E0,3.8075E5,0E0,0E0,6.2829937E9,0E0,0E0,4.9345528E10,2.8699525E9,0E0,0E0,1.215281E6,0E0,1.35153E6,1.158196E6,0E0,1.5989021E6,1.465272E6,0E0,2.654892E6,0E0,0E0,6.6996035E6,5.6527025E5,2.604875E6,0E0,0E0,1.01169625E6,0E0,3.8974718E6,8.86362E6,3.840921E6,1.42532E5,0E0,0E0,0E0,1.772672E6,9.325344E5,2.188023E6,5.289607E9,1.361029E9,2.1029824E8,2.2059948E9,1.9063094E9,2.1742776E9,3.1106345E9,1.4979749E9,2.635608E6,2.9463347E8,1.03115155E9,3.492933E8,8.948766E6,9.96744E5,8.615117E7,1.38325E8,0E0,0E0,5.7494016E7,4.484659E7,2.560488E6,0E0,1.848054E7,2.23144E6,3.0828544E7,6.93248E7,0E0,1.7587712E7,6.2209024E7,6.970982E7,1.916424E7,1.7794008E7,3.684252E6,1.6733722E8,1.1394615E9,6.491256E8,2.6047078E8,4.9406285E8,1.2041669E9,2.4458327E9,3.318702E8,1.9720549E8,1.1983456E8,1.5386086E8,4.864768E6,1.7113634E6,3.840516E9,1.05182656E9,1.2944867E9,5.954765E8,2.8335145E9,1.0500342E9,3.1111455E9,1.3209252E10,1.8121037E8,1.3271062E8,2.0767578E8,8.527616E7,5.872947E7,3.1974912E7,2.534423E8,1.3227892E9,0E0,0E0,0E0,0E0,4.3836273E9,4.339063E8,1.9401498E8,1.817218E8,1.43416E7,0E0,0E0,0E0,0E0,0E0,0E0,0E0,0E0,1.3324465E11,0E0,1.4173445E11,1.0031307E11,0E0,0E0,0E0,0E0,0E0,0E0,0E0,0E0,0E0,5.1122143E10,0E0,1.49209E5,0E0,0E0,1.31995E4,1.00907375E5,0E0,0E0,0E0,0E0,0E0,0E0,2.61868E6,1.46E3,6.370045E5,0E0,0E0,5.713375E5,4.058747E6,0E0,0E0,0E0,3.2548338E5,1.9535262E5,0E0,3.8398032E6,0E0,0E0,0E0,0E0,0E0,0E0,3.8660625E4,7.338364E5,0E0,2.3536476E9,2.0294738E9,5.548793E8,8.353526E8,7.375462E7,1.3856154E8,1.4186881E9,1.2251008E9,2.2702438E8,1.0430001E9,4.893867E8,5.6519475E8,1.836863E9,2.6691517E9,1.8984246E9,1.7506938E9,1.213444E6,2.6534938E5,2.1396787E8,4.381709E7,4.4406333E8,2.4489984E8,2.4049622E7,1.9332429E8,4.991655E5,1.7079428E6,0E0,0E0,6.074061E7,0E0,5.959456E7,3.7136384E7,3.39904E7,0E0,1.5636224E7,4.70688E6,7.10286E5,7.00944E5,1.6724088E7,1.050692E6,0E0,1.189152E7,3.70688E5,0E0,7.5140575E5,1.3533184E7,0E0,8.648192E6,5.3840384E7,0E0,3.658208E7,2.2827008E7,0E0,1.252076E6,1.429011E6,7.453554E6,0E0,0E0,4.5734886E8,1.1063936E7,6.1910016E7,8.27444E8,2.6194382E8,5.413537E8,0E0,0E0,1.0853197E8,1.5185162E7,4.4421763E8,5.2179443E8,8.266235E8,1.2473076E9,2.1013402E8,2.1839565E8,3.513616E7,3.9407532E7,3.552944E7,6.4429284E7,7.409894E7,4.573891E7,0E0,1.348456E6,1.3247932E6,5.0368062E4,2.435027E9,9.7033485E8,2.7805443E8,4.595118E8,3.4582643E8,1.9139904E8,3.4680934E8,0E0,4.2386227E8,1.8885837E9,5.0906726E8,5.502987E8,2.185732E9,6.591141E8,4.544336E9,1.3611898E8,0E0,1.3777613E8,5.358944E6,5.0646456E7,8.304272E6,8.909133E7,4.3265536E7,0E0,4.4982656E7,4.5440224E7,1.2173056E7,0E0,1.5987738E8,9.974936E6,5.500844E8,0E0,0E0,1.8557344E8,9.249798E7,4.3897616E7,0E0,0E0,1.5820288E7,2.8865092E7,0E0,3.567712E6,9.882409E10,7.512156E10,5.6462148E10,0E0,0E0,0E0,0E0,0E0,1.9231872E5,0E0,0E0,0E0,0E0,0E0,3.916264E6,1.6760935E6,0E0,0E0,0E0,0E0,9.88975E4,0E0,1.62625E4,0E0,4.01112E5,0E0,9.067306E4,0E0,1.000725E5,5.0360645E6,0E0,0E0,1.9070668E4,3.3659E4,2.1404744E9,8.496077E8,1.3496832E9,9.6554906E8,1.7743226E8,4.470385E8,1.9999898E8,6.7051464E7,4.0214624E7,2.2125056E7,1.9965216E7,2.0067456E7,6.5800454E8,8.210181E8,2.2429491E8,5.4029466E8,5.3203696E7,1.8189747E8,5.2368544E8,3.3357005E8,2.5330982E8,0E0,8.1144115E8,2.100951E8,3.5502275E8,9.297833E8,1.4471905E9,1.2425661E8,3.8681395E8,6.095918E8,1.5324116E9,1.8222484E9,4.45155E4,0E0,3.2617562E5,0E0,4.6304256E7,1.3602867E8,0E0,0E0,3.574723E8,2.0171869E8,5.516544E6,0E0,1.7555514E7,2.777926E6,1.745833E8,9.416481E7,0E0,0E0,0E0,6.80427E5,2.6125184E7,1.1859968E7,5.100736E6,1.5728592E7,0E0,7.01568E5,5.7984E6,9.004544E6,1.2901888E7,4.9152E6,0E0,2.451392E6,1.969258E6,0E0,0E0,0E0,4.078928E6,4.006292E6,0E0,0E0,5.72792E5,5.52888E5,0E0,0E0,0E0,0E0,1.292288E7,0E0,8.092672E6,7.15288E5,1.1317504E7,2.518016E6,0E0,0E0,0E0,3.2090112E7,1.110702E6,1.613444E6,8.3569625E4,4.26328E5,1.003684E6,2.1304858E6,0E0,0E0,0E0,0E0,1.9130496E7,3.6147356E7,1.1006303E9,6.0565344E8,1.8341888E8,1.8547936E7,1.7639475E8,2.1023898E8,1.0193408E7,1.1625626E8,0E0,3.461367E4,1.2308806E8,1.0355017E8,2.703223E8,5.4461126E8,1.3428634E8,2.324375E8,0E0,7.673313E8,6.712148E6,1.4017536E8,6.427725E7,1.9977933E8,1.7285952E7,2.939717E6,0E0,8.203177E6,1.1641088E7,1.3872976E7,2.3248784E7,1.102268E7,4.9188864E7,7.494605E7,1.514204E7,1.2970412E7,0E0,7.9128E4,1.0595278E6,2.487991E5,0E0,0E0,1.9824374E9,4.098384E7,5.2103856E7,4.481646E8,0E0,8.483018E7,8.786112E7,9.492411E8,1.8317504E8,2.2045848E7,1.1056685E8,0E0,6.1060096E7,1.7772704E8,1.8776064E8,2.6307718E8,1.8916311E9,3.6605542E9,1.1778458E8,4.7806464E8,0E0,0E0,2.0734249E9,7.427768E8,1.0560494E8,0E0,3.3447072E8,2.3046062E9,0E0,1.6306304E7,7.455514E7,1.4507738E7,0E0,0E0,1.757159E7,0E0,2.8331008E7,3.030368E7,1.7715992E7,1.899072E7,4.01408E6,2.398284E6,4.1081344E7,6.601888E6,1.7138208E7,0E0,0E0,5.22496E5,3.489024E7,6.919222E7,0E0,3.333878E6,3.8592288E8,4.0093472E8,1.837249E6,1.273663E8,0E0,0E0,0E0,4.9591765E6,3.081824E6,0E0,0E0,4.543521E6,0E0,0E0,6.6637005E10,1.8401665E10,1.3967163E10,0E0,1.75734E11,7.1900856E9,0E0,0E0,3.8524E4,0E0,3.805091E6,1.8629542E6,2.09523E5,3.8514E4,0E0,0E0,2.6312748E4,8.835375E3,0E0,1.30582125E5,0E0,0E0,6.339452E6,0E0,0E0,0E0,0E0,0E0,1.0678779E9,7.9768525E8,1.4932746E8,4.1211494E8,4.6035098E8,8.8247706E8,3.243684E8,1.5202325E8,8.093478E7,5.130849E7,1.380096E7,2.5262298E8,4.885517E7,1.7890957E8,9.964706E6,9.3842E6,5.238368E6,1.486365E7,5.361024E6,5.614864E6,0E0,0E0,0E0,0E0,2.2491626E8,3.987104E8,4.852202E8,9.850547E7,4.2475776E7,0E0,5.465111E8,5.2092595E8,3.4518236E7,0E0,0E0,7.773926E7,7.68601E7,8.3370125E8,0E0,1.3983024E8,1.399424E7,3.2561312E7,4.0090778E8,2.815173E8,4.7911424E7,1.2291085E8,1.5854462E8,6.27008E5,8.0337306E8,8.627277E7,1.76427E8,1.8673382E8,2.4556296E7,3.965955E7,4.5706778E8,2.5882982E8,1.6467123E8,4.7748512E8,5.9169376E7,1.1067201E9,5.0659494E8,9.7105024E8,0E0,0E0,0E0,0E0,3.3572864E7,5.268992E6,9.150976E7,3.687465E7,4.1547264E7,2.957339E8,1.4480755E8,5.267964E6,0E0,3.756E5,3.2991435E6,2.00951E6,0E0,7.895361E4,2.3002688E7,1.3172659E8,0E0,0E0,6.1630425E5,0E0,0E0,3.117696E6,9.936896E6,0E0,4.711248E6,2.23552E5,6.424016E6,2.16101E6,0E0,0E0,4.862976E6,1.173136E6,0E0,2.02176E5,0E0,7.75056E6,1.545072E6,2.0768E6,0E0,0E0,0E0,3.3574778E5,0E0,0E0,7.553E5,3.216302E6,0E0,0E0,0E0,0E0,0E0,3.198976E6,0E0,0E0,0E0,3.94328E5,3.44192E6,0E0,0E0,0E0,1.2386304E7,2.58432E6,7.68776E5,3.104375E5,0E0,0E0,0E0,3.4901562E3,0E0,0E0,0E0,2.4465E4,1.7791125E4,4.3956116E5,3.588992E6,1.514624E6,0E0,0E0,5.2913632E8,2.95066E8,1.9976013E8,2.245207E8,7.888619E7,3.3456864E7,2.72904E6,5.024852E6,7.735731E7,1.2355088E7,9.124166E7,9.8532E7,0E0,0E0,7.77428E6,1.1123482E8,0E0,0E0,5.7202176E7,2.1413094E7,6.4247984E7,1.1201862E6,3.3949344E7,0E0,6.598064E8,9.217602E7,2.9308954E8,0E0,2.5435962E6,1.5780045E8,4.076204E8,3.7214285E8,0E0,0E0,3.2853728E7,1.149399E8,1.473018E6,2.54016E7,2.372137E8,7.861248E7,0E0,1.5537616E7,2.7829925E6,1.5755219E6,0E0,8.132033E6,2.336936E6,0E0,1.0801865E7,1.5384912E7,9.220207E6,2.383362E6,8.5195475E5,7.409704E6,3.104872E7,1.6639872E7,5.808656E6,1.2420096E7,4.264976E6,3.88625E4,4.420681E6,5.662863E6,2.163419E6,0E0,0E0,0E0,0E0,0E0,0E0,1.9797402E8,1.7318232E7,9.836376E7,0E0,0E0,9.2786816E8,7.2537165E8,1.9545344E7,3.4203584E7,9.176784E6,8.511347E7,4.010857E8,4.3743544E7,2.717312E7,1.0427373E8,0E0,0E0,0E0,8.177856E6,1.6053446E7,2.6456576E7,0E0,5.468909E7,1.1106273E7,1.5694234E8,1.6182502E7,1.259392E6,1.1773542E9,2.5724396E9,0E0,0E0,7.111475E7,2.5050368E7,3.7557453E8,1.8576872E9,1.4995487E9,0E0,8.117043E8,5.972019E7,4.970352E6,7.594958E7,0E0,1.3216982E8,2.2810971E8,0E0,0E0,0E0,2.9057818E7,6.4481024E7,2.353898E6,1.7145488E7,1.011121E7,2.01532E5,6.19576E5,6.3754375E5,4.9792975E5,4.91192E6,0E0,7.95753E5,1.9397504E7,0E0,1.7305344E7,0E0,0E0,0E0,3.741184E6,8.560512E6,0E0,0E0,1.600528E7,0E0,0E0,0E0,1.8219264E7,9.348328E6,4.3410868E7,7.430794E7,1.6242238E6,0E0,9.981581E7,4.5408317E8,2.8611037E8,2.0511328E7,0E0,0E0,0E0,0E0,0E0,0E0,0E0,0E0,5.2702794E5,4.5596535E6,0E0,0E0,0E0,3.0201718E9,0E0,0E0,6.746474E10,0E0,0E0,0E0,0E0,0E0,0E0,8.116733E4,0E0,3.8407888E6,0E0,0E0,0E0,0E0,1.0148189E4,1.41268955E4,0E0,0E0,0E0,0E0,9.9416125E5,0E0,1.2324475E9,4.6957952E8,0E0,3.2767923E8,2.0761118E7,0E0,0E0,2.4568064E8,1.11731544E8,1.0667827E8,4.4495053E8,3.324498E8,1.6632013E8,5.353384E6,8.231168E6,0E0,2.21568E7,5.619712E6,1.867808E6,4.68817E6,2.85136E6,0E0,1.1405042E8,1.4290211E8,8.040535E6,3.497715E7,6.513741E7,2.220548E7,0E0,5.2659895E6,4.54256E5,1.9454E6,0E0,5.037904E6,0E0,0E0,2.96128E5,0E0,0E0,0E0,1.9121941E8,3.635897E7,2.882844E8,1.8171952E8,1.8993664E8,1.9226806E8,1.875376E6,3.4032256E7,0E0,1.237952E6,3.4076698E8,4.865224E7,8.22528E6,4.355021E7,5.926188E6,8.768543E6,7.875994E7,2.9829512E7,3.8613316E7,3.0768128E7,9.31047E7,6.257792E7,2.1250124E7,7.274058E7,0E0,0E0,7.99724E6,1.668518E6,1.3850368E8,2.4846387E8,3.450027E7,2.0575851E8,4.071789E7,1.954048E7,3.146304E7,4.1819555E6,1.056543E7,1.749232E7,0E0,0E0,1.7757542E8,6.1832064E8,7.887908E6,0E0,0E0,1.6203315E8,9.40583E7,4.058957E7,5.212842E6,1.6607155E6,4.76676E5,0E0,1.8121331E8,3.1737892E7,2.7777536E8,1.720841E8,1.358855E8,0E0,8.6437144E7,1.5630333E8,2.3648224E7,2.4648552E7,3.0980854E8,5.7533594E8,4.8492064E7,3.93418E8,4.196667E8,8.2541216E8,8.575424E6,2.74848E7,7.812992E6,3.39904E6,6.677645E7,4.4491264E7,5.845268E6,1.19157E7,7.085184E6,3.28844E6,1.7579078E8,3.279639E8,3.1503368E7,0E0,2.7716474E7,0E0,0E0,0E0,3.0859225E5,2.3910522E6,4.29652E5,7.7437025E5,0E0,0E0,7.459362E6,5.8588625E6,6.184627E7,5.6465984E7,1.5206775E5,0E0,0E0,2.39488E5,0E0,4.900025E6,0E0,0E0,0E0,0E0,6.461825E4,2.394272E6,0E0,4.5527216E5,6.05824E5,0E0,0E0,0E0,0E0,0E0,7.3680775E5,4.848384E6,0E0,3.91484E5,1.113216E6,0E0,0E0,0E0,4.2674E5,2.66676E5,6.63472E5,7.4631875E5,0E0,0E0,0E0,0E0,0E0,1.658624E6,0E0,4.763648E6,0E0,0E0,0E0,0E0,0E0,3.4847875E5,0E0,0E0,0E0,0E0,0E0,0E0,0E0,4.2055153E5,0E0,2.265546E6,0E0,0E0,3.8927184E8,6.520763E8,4.23325E7,1.7853568E8,3.250799E7,7.313739E7,0E0,7.491302E7,3.821174E6,1.2940712E7,0E0,9.811E3,1.3041345E6,0E0,1.986964E6,7.449709E5,6.609971E7,1.7566896E7,1.93348E6,1.5512252E6,1.6039104E7,3.128001E7,7.329059E7,2.566528E7,0E0,0E0,4.2833536E7,0E0,1.1239978E8,3.970995E7,4.04258E5,7.3464645E6,0E0,3.163184E7,1.8335242E6,0E0,3.815388E6,2.129952E6,0E0,1.5394192E7,0E0,4.0399052E7,0E0,4.952574E6,3.8576438E5,0E0,3.908339E7,1.6428096E7,2.03507E8,1.0454227E8,0E0,1.2751706E8,1.4433536E7,1.1957648E7,7.232819E7,3.9026662E6,0E0,0E0,1.8246656E7,9.035E4,2.090921E8,9.48274E6,4.294963E7,1.820208E7,1.2599536E7,4.920624E6,0E0,2.0954575E6,0E0,6.618759E5,0E0,0E0,0E0,7.43036E5,0E0,0E0,8.858544E6,1.4743656E6,3.8920008E6,3.85703E6,1.00870375E5,9.09422E5,9.050947E2,1.7970925E5,7.22678E5,0E0,2.48336E5,1.0296869E7,7.43584E6,7.65056E6,1.2590064E6,1.592704E6,0E0,1.1540736E7,0E0,1.592312E6,0E0,0E0,1.3934268E6,2.2620535E6,0E0,0E0,0E0,0E0,0E0,2.5503002E8,7.873016E6,1.3241736E5,0E0,0E0,0E0,2.0394112E7,0E0,0E0,6.873984E6,0E0,4.2261024E7,2.4002366E7,7.930973E6,0E0,2.7709632E7,3.406992E7,1.1286733E8,0E0,0E0,2.528488E6,0E0,1.7216E5,9.760292E6,1.2596544E7,0E0,0E0,0E0,1.115592E6,1.2947968E7,0E0,2.969216E6,1.5412576E7,0E0,2.9624495E6,4.081933E7,1.2242944E8,9.302517E6,0E0,1.52368E5,0E0,6.842961E8,1.1705713E9,1.6297344E7,1.3251372E9,2.9995008E7,2.659328E7,4.266112E6,0E0,5.296128E6,3.49909E8,9.429675E7,0E0,4.301742E8,1.2978719E9,4.6698496E8,4.331974E8,1.7369296E7,1.3919792E7,0E0,5.410757E6,2.5043648E7,2.148056E7,0E0,0E0,0E0,1.0895656E7,0E0,4.6430725E6,4.590733E7,3.3240576E7,0E0,0E0,0E0,0E0,0E0,1.116659E6,7.09834E5,0E0,0E0,0E0,0E0,1.250866E6,6.327846E5,0E0,0E0,2.1582648E7,0E0,3.1387285E6,0E0,0E0,2.0094976E7,0E0,0E0,0E0,0E0,1.870432E6,1.5557504E7,0E0,1.440576E7,0E0,3.293052E6,0E0,0E0,1.0300963E7,1.4570208E7,0E0,0E0,0E0,8.179008E6,7.436146E6,2.5277075E8,1.7729683E8,1.8600195E8,2.6509952E7,0E0,1.00016E6,1.3979953E5,4.2009266E5,0E0,0E0,0E0,0E0,0E0,0E0,0E0,0E0,0E0,0E0,0E0,0E0,0E0,2.1429258E3,0E0,0E0,3.1826944E7,7.795277E8,9.190438E7,5.413433E8,8.008045E7,1.1247386E8,1.2822058E7,6.85076E5,2.0385178E8,4.2456336E7,1.8082268E7,0E0,2.0845696E7,1.1463091E8,7.710387E7,1.663959E8,1.5475528E7,2.822574E8,3.1820288E7,3.0103552E7,0E0,1.457199E6,1.197006E6,2.5527565E6,6.7986755E6,1.063344E7,0E0,1.780064E6,0E0,0E0,1.54479375E4,0E0,0E0,2.463768E6,1.821731E7,9.285597E7,3.0408896E7,5.133776E6,0E0,0E0,0E0,1.7669184E7,1.0407104E7,1.7201664E7,6.943814E6,4.4648605E6,1.1546642E6,6.3124645E6,0E0,1.5107825E6,2.71127E5,5.60928E5,2.055944E6,0E0,0E0,0E0,6.930266E7,5.8991536E7,6.483784E6,2.5234766E7,1.5525363E8,3.9682675E8,5.920032E7,1.4185142E8,4.8165824E7,1.697595E8,4.5378828E7,1.1410896E8,2.0616E4,0E0,0E0,0E0,0E0,0E0,1.7750888E8,2.1756442E8,1.6798044E6,5.211072E6,0E0,0E0,3.237896E6,1.89728E6,2.915922E6,6.371596E6,1.9039579E6,4.4242935E6,2.4704512E7,3.9505336E7,1.413842E7,2.100866E6,2.4474392E7,6.775433E7,3.3069056E7,7.7272925E5,9.195024E7,7.531096E7,1.54624E7,6.575545E5,7.241078E6,2.2850765E6,4.677325E7,0E0,0E0,4.43376E5,1.8026403E5,6.38785E4,3.981312E6,6.058112E7,7.865728E7,2.3986406E8,0E0,0E0,1.2284938E8,9.398538E7,1.49472E7,0E0,1.4019584E7,0E0,5.29864E6,8.624768E6,9.398801E5,0E0,5.13036E5,6.00527E5,4.136352E6,1.4966292E7,1.895424E7,3.6352224E7,3.9497254E8,2.4505805E8,0E0,0E0,1.7625622E8,1.4509568E7,1.2742425E7,1.1158848E7,2.6397824E7,3.74448E7,6.801626E6,0E0,0E0,0E0,0E0,0E0,2.907032E7,1.89184E5,7.700748E6,5.89E5,2.130135E8,2.7826694E8,0E0,8.013158E7,1.5430704E7,6.969619E7,7.41552E7,2.1750768E7,7.011876E7,1.7026944E7,6.578944E6,1.0789056E7,1.6597199E7,1.273444E7,7.15632E7,1.0290955E8,5.67841E8,1.5020166E8,2.646112E7,2.751168E7,1.728357E8,0E0,2.3618605E8,2.2778829E8,2.1579731E8,5.033805E7,3.134592E6,3.142468E6,5.648752E6,1.389632E6,8.98304E5,0E0,0E0,0E0,5.3780256E7,2.8942976E7,4.657971E7,4.044621E7,1.346812E6,0E0,2.50928E5,1.25902E7,0E0,0E0,0E0,0E0,1.2430477E8,7.331878E7,0E0,1.4623155E8,4.8255096E7,0E0,0E0,0E0,2.77281E5,0E0,5.1037862E5,0E0,9.844E4,7.93584E5,0E0,8.906761E5,0E0,2.867638E6,3.1871188E4,8.901415E5,0E0,6.108621E7,1.1477629E7,1.7486016E7,0E0,0E0,0E0,0E0,0E0,6.4079523E4,0E0,0E0,8.787488E6,1.375968E6,0E0,0E0,0E0,0E0,5.9440312E4,0E0,5.0592E5,2.107808E6,4.47312E5,0E0,1.78944E5,3.035968E6,1.6872E4,1.43982E5,5.860906E5,1.2375635E5,3.71214E5,1.1815575E6,0E0,3.606275E4,0E0,0E0,2.963456E6,8.683736E6,0E0,0E0,2.5113298E5,1.115025E4,0E0,4.9426738E5,2.6819845E8,3.0748506E8,3.2981613E8,4.3373933E8,0E0,4.6243784E7,1.2178534E8,8.607657E7,2.1757524E7,1.8498792E7,1.2817144E8,1.7479516E7,5.469485E7,2.2592128E7,0E0,5.4968275E5,1.129832E6,8.132744E6,0E0,0E0,0E0,0E0,4.87598E5,5.773E4,0E0,0E0,1.2730436E7,5.2600064E7,3.852638E6,1.202128E6,0E0,1.0525335E7,0E0,0E0,1.3581536E7,0E0,0E0,2.0603642E7,1.4117376E7,5.4815456E7,1.519118E6,1.26856E6,0E0,0E0,2.1266112E7,1.2249948E7,6.687104E6,1.8323126E7,0E0,0E0,5.310194E5,1.617904E6,0E0,4.920624E7,0E0,0E0,0E0,0E0,0E0,0E0,7.134568E6,0E0,3.146951E7,0E0,0E0,0E0,0E0,0E0,1.3817216E7,3.7714944E7,0E0,0E0,3.8145224E7,7.681984E7,2.381568E6,5.592776E6,0E0,1.1961843E8,2.134496E6,0E0,6.457104E6,2.05804E6,0E0,6.753997E7,1.4666666E6,0E0,2.187968E6,3.89888E5,0E0,0E0,9.451885E7,9.563699E7,2.446496E6,5.5206625E5,0E0,3.796685E7,9.350848E6,0E0,8.1835E3,6.1248E6,0E0,2.499704E6,0E0,1.03883E6,6.027794E4,0E0,0E0,1.1111352E4,5.570453E6,2.612672E6,9.265682E4,3.6518875E5,1.6578968E6,7.254605E5,0E0,1.3882745E6,0E0,0E0,0E0,0E0,0E0,3.521234E1,0E0,4.5407E4,0E0,0E0,0E0,0E0,1.2399945E6,0E0,0E0,7.714736E6,8.095552E6,4.927296E6,0E0,0E0,4.807036E6,1.002848E6,1.3091328E7,5.746048E6,4.0992E5,6.9029E4,9.227439E5,0E0,4.60263E5,0E0,0E0,0E0,0E0,0E0,0E0,0E0,1.4194466E7,6.81276E6,0E0,5.8336E5,0E0,4.0787045E6,1.5239155E7,0E0,1.928992E6,2.785059E6,1.9390592E7,0E0,1.179766E7,1.8804224E7,0E0,4.6522496E7,0E0,4.1035715E6,0E0,0E0,3.1242308E6,0E0,